#include <stdint.h> 

using namespace std;

static const int convolution1_weights[1250]={
    -32, -66, 15, -34, 29, -73, 17, 22, -27, -79, 3, -11, -36, -7, -13, 7, 46, 80, -77, -44, -15, -59, 50, -49, -9, 103, 57, 13, 64, -17, 81, 68, -12, 114, 106, 112, -9, 50, 111, 109, 100, 49, -22, 18, 48, 88, -16, 16, 15, 106, -10, -56, -65, 72, -30, 38, -58, -22, -5, -13, 43, -60, -73, 19, -10, -43, -47, 61, 23, -69, -43, -48, 51, 25, -72, 10, 82, 89, 63, 2, 3, 35, 18, 37, 102, 57, 52, -19, 83, 67, 97, 96, 103, 92, 87, 13, 93, -38, 60, 54, 67, -50, -59, -47, -5, -33, -61, 54, 65, 16, -14, -58, 41, 8, -43, -40, -47, -34, 2, -67, 75, -43, 78, -20, 27, -18, 22, -2, 90, 1, -80, 80, 56, 86, 62, -9, -15, 15, 61, 76, 6, 28, -26, 87, 54, -67, -68, 64, 56, 54, -1, -4, 127, 34, 112, 71, 116, 69, 42, -38, 11, 64, 52, -19, 42, -20, 120, 103, 50, 21, 112, 113, 0, 42, -12, 72, 11, 68, -8, 108, 113, 67, 105, 33, 43, -29, 55, -4, 77, 94, -10, -22, 33, 14, 35, -17, 115, 89, 38, 104, 29, -27, -10, 19, -10, 65, 53, 8, 9, -71, 66, 52, -52, 18, 42, 86, -43, -64, 1, -39, -62, -16, 1, 7, -73, -19, 60, -33, -34, 25, -65, 39, 2, 55, -57, 70, 16, 64, -64, 28, 41, 12, -58, -17, -32, 3, -27, 56, -26, -31, 59, 85, -11, -10, 78, 47, 23, 63, 78, 83, 30, 32, 60, 55, 112, 8, 104, 49, 25, 91, -17, 111, 71, 60, 27, 69, 57, 100, 110, 69, 34, -13, -25, 64, -18, 88, 29, 77, 30, 47, -25, 88, 77, 98, 67, 96, 91, 93, 84, 49, -52, -62, -67, -57, -59, -2, -14, -37, 50, -77, 14, -25, -64, 21, 71, 62, -55, 2, -73, -73, 31, 38, -50, -63, -38, -43, -72, -33, -54, -26, -24, -41, -81, 64, 78, -1, -51, 61, -37, -40, -11, 55, -83, -43, 30, 58, -3, 40, 45, 86, 24, -45, 39, -40, 53, -24, -13, 90, -66, -28, 50, 56, 42, -15, 26, 7, 21, 1, 21, -62, 22, 61, -38, -64, -5, -1, 81, 92, 105, 16, 102, 7, 13, 99, 93, 114, 61, 66, 87, -3, 26, 36, -32, 101, -31, 64, 53, 17, 33, 107, -62, 45, -65, -22, 27, 23, -3, -65, 18, -26, -42, -10, -8, -21, 18, -11, -6, -11, 54, 19, 45, 68, 64, -37, 6, 18, 95, 77, 91, 110, 8, 15, 27, 97, -15, 5, 84, 41, -1, -30, 7, -32, 94, 74, 68, 104, 44, 37, 28, 36, 86, -24, -5, -11, -2, 33, 63, 45, 78, 67, 6, -64, -23, -12, -64, 46, -59, 39, -73, -2, -63, 66, -19, 0, -75, 4, 22, 46, -40, -5, 65, -68, -45, -55, -18, -75, 45, -61, -32, -40, -2, -23, 17, 65, 85, -57, 63, -14, 65, -70, 51, 70, -24, 71, 112, 84, 58, 15, 21, -22, -32, -4, 86, 0, 114, 12, 86, 120, 83, 119, 97, 34, 111, 6, -5, -39, -17, 24, -27, -8, 23, 8, 57, 13, 18, -27, -60, 10, -69, -33, 36, -3, -13, -11, 65, 0, -37, 33, -5, -44, 33, -64, 72, 85, -37, -41, -83, -79, 70, 79, 43, -3, 11, 61, -41, 8, -72, -19, 56, -27, 61, -52, -19, 47, -55, -73, -86, 29, -11, -60, -29, 52, -55, -24, -83, -71, -9, 50, -10, 42, 45, 2, -62, -71, 43, 7, -88, -70, -15, 62, 76, 107, 121, 57, -10, 118, 70, 39, 114, 51, 48, 70, 84, 32, 66, 107, -25, 103, 94, -25, 4, 107, 90, 92, 57, 35, 28, 13, 21, 7, 10, -60, -46, -39, 36, 26, -40, 20, -33, -40, 69, -66, 30, -68, -28, 68, -78, 6, -56, -14, 90, 93, 28, -26, 89, 79, -14, -25, 6, 50, 10, 32, 30, 93, 105, -11, 118, 72, 66, 8, 36, 101, 83, 42, -32, 90, -4, -12, 62, 60, 53, 33, 83, 36, 69, 97, -28, 3, 97, 73, 88, 2, 67, -18, 41, 76, 26, 87, 66, 108, 24, 102, 9, 61, 46, 117, 50, 51, 108, 11, 34, -17, 101, 94, 54, 75, 26, 4, 34, 62, 13, 70, 71, 76, -19, 76, -28, 84, 3, 74, -9, 29, 3, 100, -12, 101, 16, 105, 54, 22, 49, 95, 110, 10, 114, 37, 83, 17, 20, -35, -45, 17, 75, -70, -75, 47, 61, -77, -38, 15, -30, 35, -20, -77, -4, -68, 34, -72, -49, -69, -73, 69, 1, 68, -46, -76, 35, -22, 15, -71, 17, 19, 27, -51, -25, -76, 32, -16, 64, 70, -10, 31, 93, -6, -59, 32, 13, 23, 58, -8, -26, 79, -62, -4, -17, 33, 48, 28, -60, 82, -59, -60, -7, 68, -67, 11, -70, 1, -41, -66, 70, -34, -61, -10, -10, 50, -84, -48, 63, 3, 1, -37, -4, 71, 56, 5, 38, 30, -82, 30, -76, 5, -6, 23, 8, -71, -69, -12, -60, 28, 14, 22, 1, 26, -59, 46, -36, -38, 3, -83, 64, -28, -22, 19, 13, -52, -83, -4, 71, 21, 67, 41, 62, -34, -13, -59, -65, -39, -51, -12, -41, 61, -67, -63, 14, 3, 39, 55, -40, 4, -23, 66, -50, -64, -69, 34, 77, -31, 5, -67, 34, -23, 44, 71, 7, -84, -43, -79, -37, 63, -90, -42, 9, -38, 6, 61, -13, 38, 1, 63, -79, -67, 4, -45, -85, -33, 70, 44, -46, 36, -40, -1, -33, 57, 36, 25, 38, -52, 14, -40, -77, -37, -71, 5, -26, -62, 30, -52, -60, 63, -44, -71, -52, 13, -33, -55, -41, -76, 10, 12, 42, 0, 52, -65, -43, -9, -58, 75, -43, 75, 47, 87, 45, -34, 64, 98, 86, 58, -15, 89, 91, 30, 85, 76, 51, 88, 58, 42, -24, 76, 81, 49, 112, 5, 50, 17, 14, 91, 68, -16, 69, 54, 5, -68, -18, -32, 69, 23, 33, 83, -45, 6, -51, -67, -58, 70, 88, 61, -21, 61, 67, -62, -46, 58, 89, -15, -25, 56, 107, 10, 118, 53, 77, 101, -12, 54, -20, 52, 70, 21, 85, 72, 79, 12, 74, 19, 4, 72, 112, 1, 46, 33, -1, 20, 68, 111, 10, 56, 122, 110, -25, 47, 97, 40, 113, 35, -10, 27, -23, 46, 1, -31, 104, 3, -32, 26, 96, 50, 7, -27, 32, 19, 23, 44, -27, 120, 86, 90, 71, 67, 87, 74, 4, 26, 96, 44, 25, 93, 68, 78, 5, 22, 14, 114, 94, -39, 48, 1, 86, -25, 62, 110, 120, 47, 104, 66, 72, 6, 13, 105, 27, 103, -5, 40, 59, 102, 104, -4, 6, 89, 40, 94, 48, -27, 114, 17, 35, 48, 124, 11, 10, 39, 46, 8, 52, 56, 19, 61, 79, 57, -2, -18, -21, 19, -23, -34, -70, -3, 24, 6, 15, -19, -35, 67, -39, 9, 51, 41, 46, -11, -23, -49, -25, 3, -18, -10, -69, 19, 51, 32, -24, -17, -2, -27, -20, 69, -50, 29, -68, -45, 3, 44, 12, 31, -35, -65, -45, 46, 5, 23, 93, 2, 18, -55, -45, 102, -9, -64, -44, 23, 102, -24, 30, -33, -5, 73, 62, -85, 5, 8, 46, 65, -42, -79, 46, -13, -9, 70, -42, 77, -57, 15, -56, -55, -72, -74, -53, 31, 8, 5, 58, -72, 27, -38, -66, 55, 59, -45, 26, 30
};

static const int convolution1_bias[50]={
    -41, -57, 127, -53, -85, -45, -63, -48, -17, -9, -23, -50, -46, 25, -21, -51, -16, -56, 4, 72, -25, -68, 42, 119, -12, -38, -57, -47, -41, -51, 68, -13, -60, 12, -9, -13, 78, -12, -9, -50, -27, -46, -41, -39, -20, -52, -39, 26, -21, -3
};

static const int convolution2_weights[16*50*30]={
    -59, -42, -9, -78, 32, -56, 3, -59, -21, -41, 35, -67, 13, 9, -29, -75, -72, 51, -25, -2, 56, -25, -86, 20, -46, 64, -20, -45, -69, -11, 52, -49, 37, -64, -13, -22, -3, -18, 61, 39, 5, -40, -9, -41, -9, -29, 12, 68, -18, -1, 61, 39, -39, -41, 51, -53, 33, 51, 7, -22, 16, -14, 36, -64, -41, 12, -75, 40, -51, -78, 62, 66, 7, -25, 45, -46, 36, -34, 64, 55, 5, -12, -19, -58, -69, -6, -83, 67, 32, 3, -13, -25, -61, 23, 5, -40, -44, 69, -36, 19, -19, -50, -60, 52, 58, -37, -10, 70, -13, -57, 39, 47, 7, 38, 35, -55, 61, 5, -3, 63, 50, 39, -80, -51, -8, 31, -41, 28, -5, 59, 43, 17, -22, 58, -46, -23, -42, 12, 1, 27, 4, 32, 5, -60, -56, -61, 47, -15, -8, -17, -43, -43, -72, -37, 32, 11, -46, 25, 65, -1, -52, -3, 41, -77, -28, -28, -40, 29, 15, 28, 65, -68, 26, 42, -46, 55, 1, -45, 38, -64, 47, -75, -27, 42, 63, -27, -20, -66, 62, 23, 59, -54, 58, -23, -66, -19, 15, -2, 33, 5, -16, 24, 8, -24, 59, -66, 31, 67, 16, -16, -60, -15, -58, -26, -82, -52, -30, -35, -79, -57, -19, -40, -75, 49, 64, 39, -30, -77, -43, 68, -16, -9, -22, -16, -38, 66, -16, -73, 61, 62, -11, 18, -54, 67, -51, -37, 18, -60, -37, -62, -27, 6, -44, -41, -26, 60, 20, 31, 3, -27, -5, 54, 35, -5, -53, -10, 9, 8, 52, -14, 58, -83, -82, -32, -26, 19, 50, -42, 12, -17, -56, -67, -24, 41, 26, 62, 41, 22, -47, 20, 30, 40, -1, 6, -65, -74, -30, -85, -29, 23, -31, 8, 25, -71, 8, -26, -30, -48, -21, -71, -58, 48, -4, 38, 48, 19, -61, -58, -8, 46, 55, 9, -47, -75, -65, 9, -23, 33, 21, -21, -53, -52, -30, 27, -13, -6, 32, -57, 9, -58, 21, 17, -39, 24, 47, -5, 34, 1, -29, -72, 2, 32, -75, -63, -47, -2, -47, 9, 71, 65, 7, -14, -29, 75, -55, -74, 16, -47, -83, -36, 6, 20, 15, -48, 56, -40, -10, -64, -11, -1, -50, -30, 1, -27, -32, 45, -21, -58, 51, 2, -72, -87, -10, -65, -72, -4, 39, 50, 8, -50, -19, -59, -52, -49, -23, 47, 44, -27, 7, -18, -43, -51, 18, 0, -43, 43, -50, 45, 13, -14, -17, -5, -5, -73, 25, 11, 14, 49, -59, -24, 7, 14, -70, 44, -15, 41, -77, -18, -29, 26, 29, -34, -65, -77, 5, -62, -64, 16, -69, 5, -82, -21, -31, -59, -74, -33, -2, -67, -8, 47, 4, 21, -62, 31, 6, 69, 52, -43, -56, 6, -13, 57, -23, 53, 25, -61, -3, 16, -36, -46, 28, -46, 25, -30, -59, -42, 6, -64, 6, -67, 32, 50, 65, 20, 59, -45, -32, -31, -27, 11, 3, -5, -77, 15, -57, 64, 60, -18, -72, 39, 2, 13, 30, 58, -58, -53, 43, -55, -36, -11, 30, 42, 52, -41, 26, 16, -3, -28, -67, -13, 32, 3, -13, -56, -51, -75, -71, 29, -49, 62, 30, -52, -54, -19, -1, 4, -77, -25, -57, 28, 35, -59, 29, 35, -52, 0, 13, -1, -66, 73, 29, -35, -6, -84, 40, 14, -42, 54, -78, -12, -34, 22, 60, -6, 32, -72, -60, -58, -50, 13, -34, 24, -23, -9, -10, -69, -53, 9, -53, -37, 57, 38, -8, -32, -17, 63, 31, -17, -36, 13, 61, -73, -59, 59, 35, 31, -11, 56, 18, 5, 70, -57, 70, -55, -73, -29, 69, -15, 17, 44, -58, -15, 45, -65, -41, -15, -90, -21, -86, 61, 63, 14, 19, -21, -59, 52, -58, -52, 37, 31, 13, 0, 30, 21, 18, 40, -40, 20, -47, -75, 63, -18, 41, 11, 56, -74, 61, 53, -53, -39, -45, -47, -54, -4, 21, -13, 53, 36, -53, 17, -71, 3, -64, 41, -46, 46, 25, -60, -20, 62, 26, -6, 28, 59, -55, -28, -82, 36, 65, -19, 37, -29, 21, 15, -81, -44, -28, 66, -66, 48, -26, 56, -56, -4, -48, -44, -30, -25, 45, -9, -72, -51, 22, 7, -8, 51, -68, -16, 71, -72, -48, -39, 23, 64, -16, -59, 21, -22, 53, 11, 66, 30, 0, 22, -20, -6, -62, 38, 23, -46, 63, -13, 61, -36, 23, 68, 19, -69, 5, 18, 25, 41, 43, -30, -41, -73, 65, 52, -74, -48, -57, 10, 40, 31, -60, -67, 39, 65, -47, 13, -41, 25, -84, 58, 27, -24, 29, 33, -31, -52, -38, -21, 36, 66, -39, 57, -51, -39, -3, 58, -81, -62, 66, 18, 17, -45, 9, -61, 29, -35, 10, 3, 22, -52, 60, -13, 74, -2, 50, -81, -24, 2, -49, 25, -65, 61, -75, -32, 64, 68, 42, -40, 42, -61, 28, -44, 28, 35, 38, -10, 24, 27, -77, 8, -52, 70, -60, -67, -62, 53, -73, -43, 66, 65, -55, 54, -68, 16, 3, -2, -52, 45, 35, 8, 1, 63, -33, 10, -66, -44, 41, 63, -41, -25, 6, -2, 14, 1, 59, -76, 40, 70, -48, 59, -70, 48, 71, -42, -84, 27, 4, 25, 21, -46, -6, -40, 29, 70, -81, -6, -28, -58, 30, 54, 18, -25, -32, 60, -78, -2, 4, -6, 35, -54, -36, -60, -5, 10, -54, 3, 47, 59, -39, 0, -73, 14, -11, -48, 69, 18, 36, -63, 22, -30, 37, -70, -75, -59, 55, 61, -44, 11, 48, -1, -53, -20, -41, -38, -8, 65, 51, -54, -15, -83, 32, -20, -44, 8, -9, 34, 72, -80, -56, 20, -84, -46, 15, -15, 19, 34, 59, 10, -25, -32, 1, 16, 56, 16, -42, 21, 39, 29, -81, 57, -45, -58, -75, -3, 6, -12, -71, 56, 64, 45, -84, 59, -17, -10, -55, -39, -41, -6, 11, 34, -7, 8, 36, -16, -4, -11, -28, 66, 68, -9, -67, -36, -37, -38, -45, 31, -30, -5, -75, 57, -83, -40, 66, -67, 29, -66, 24, -2, -86, -57, -74, -86, -22, 36, -42, -40, 53, 32, -3, -11, 53, 36, -6, 2, 67, 3, 35, 59, 20, 14, -6, 32, -70, -81, 22, -2, 65, 65, 47, 26, 26, -23, -55, -27, -28, 43, -83, -4, 42, 67, -34, -34, 28, -37, -39, 71, 7, 16, -80, 70, 17, -39, 58, -46, 65, 2, -51, -51, -52, -77, 52, -19, 33, 13, -58, -14, 60, 33, -27, 36, -30, 50, -6, -32, -29, 44, -80, -53, 18, 70, 65, 21, 74, 3, -31, 31, 71, -53, 3, -67, 59, -9, -5, 48, -26, -63, -11, -37, -78, 53, 19, 50, 31, 48, -24, 39, -69, 15, -23, -3, 3, 24, 51, -30, -26, 10, 48, -72, -38, 57, 27, 67, 41, -12, -9, 46, -47, -40, -42, 40, -41, -42, 28, 29, -10, 9, -78, 53, -57, 37, -79, 49, 57, 32, -32, 33, -36, 80, 8, -67, 10, -13, 13, -52, -5, -83, -22, -76, -33, -40, 13, 53, -34, -76, -29, -55, -1, -16, 23, -84, -74, -33, 26, -2, -54, 46, -32, 3, 46, -29, -60, -33, 64, 14, 60, 17, -49, -17, 57, 28, -25, 25, -7, -11, -76, -10, 59, 58, 30, -16, 25, -6, -22, -25, -12, -20, 62, -47, 40, -81, -46, -71, -63, 16, -79, 12, 28, -10, -17, -4, -45, 6, 26, -2, -39, 49, -79, -58, -20, 1, -74, 57, 61, -85, -72, 63, -60, -28, -39, -8, 36, -53, 61, 69, -20, 64, -26, -44, -52, -34, 8, -14, 1, -34, -73, -73, -26, -63, -62, -16, -55, -53, 21, -51, -45, 22, -53, -63, -67, -36, -45, -64, -30, -22, -79, -56, 64, -15, -44, 20, 28, -35, -9, -3, 46, 7, -77, -20, 22, -29, -71, 51, -72, 45, -18, -34, -54, 10, -83, 62, -68, -70, -3, 40, 2, 66, -67, 39, -81, 12, -8, -2, 9, -51, -53, 14, 40, 51, 70, -22, -5, 17, -19, 19, 2, 46, -3, 38, 18, -62, -60, -63, 2, -63, -56, 35, 45, -62, 46, 38, -8, -9, 51, -83, -53, -21, 37, -82, 66, -54, 43, -85, 16, -29, -45, 46, 16, -81, 54, -78, -5, 5, -58, 70, -39, 27, -46, 63, 67, 64, -65, 44, -50, 32, -12, -19, 49, -47, -42, -59, -24, 56, 35, -55, 6, 13, -26, -62, 34, -63, -84, 53, 5, 34, -67, 37, -8, -30, -48, 25, -72, -17, 32, -37, 7, 46, 38, -3, 41, 7, -16, -74, -14, 33, -62, 18, 32, 3, -31, -81, -22, -74, 50, -26, 34, 66, -35, 39, -80, -42, -31, 63, 48, -27, -73, 19, 66, 47, 25, -30, -6, 61, -32, -48, 50, -1, -79, -71, -73, -61, -21, -12, 53, -78, 26, -63, 5, 39, -19, -76, -68, 65, -32, -70, -5, 68, -80, -54, 3, -40, 6, 5, 50, -47, 63, -63, 4, -6, -9, 8, 24, -16, 67, -46, -5, 34, -49, -72, -83, 67, -35, -69, 4, -79, 42, -70, 40, 13, 34, -46, -23, -52, -50, 2, 68, -60, -48, -10, -67, 5, -15, -68, 11, -41, 14, -55, -64, 65, 80, -59, -85, -31, -71, -59, -35, -73, 31, -28, -36, 8, -20, 30, -71, 7, 0, -83, 34, -30, -57, 22, 43, -19, 11, -82, -82, 16, -21, 42, 59, -64, 11, -49, -27, 14, -75, -78, 40, 38, -29, -44, -47, 54, -8, -77, -70, 62, -27, -16, -50, -2, 3, 4, -75, 9, -70, -73, -30, -40, 61, 6, 62, 32, -5, -36, 59, -62, -12, -77, -2, 17, -35, -22, 7, 45, 44, 46, 27, -81, 34, 45, -54, 11, -27, -80, 16, 70, 47, 17, -68, 18, -42, 54, -69, -79, 50, -11, -25, 38, 20, -6, 4, -36, 5, 48, -71, 58, -8, -52, 15, 65, -36, -12, -42, -44, -59, 19, -14, -4, 15, 12, 30, -77, 33, -7, 29, 9, -27, 49, -56, 59, -2, 16, 30, -17, -47, -42, 48, 34, -16, -43, 51, -69, 35, -17, 32, -63, -71, 20, 59, -24, 16, -72, -17, -54, -60, 46, 21, 66, 19, -15, 32, -66, 71, -82, 30, -23, -47, 43, 62, 72, 16, 50, 65, -24, 5, -35, -4, 52, 43, -67, -62, -78, 68, -51, 27, -50, 67, 44, -6, -67, -38, 13, -76, -27, -2, -74, -26, 44, -28, 26, -47, 47, 7, 19, 2, -73, -36, -8, -1, 48, 4, 32, -30, -47, 29, 53, -30, 45, 24, -35, -46, 39, 41, -78, -16, 5, 45, 42, 55, 48, -78, -74, 65, -50, -4, -36, 16, 61, -62, -1, 14, -62, -59, 15, -26, -58, -2, 36, 29, -81, -33, 52, -64, -73, 61, 19, -55, 65, -66, 32, 64, 32, -45, 28, 34, 24, 51, 11, 10, 8, 14, 59, -73, 23, -30, 71, 3, -37, 52, -42, -62, -24, -16, -46, -44, -5, -66, -13, -49, 66, 64, 64, 7, -70, -43, 66, 48, -36, -68, -4, -74, 16, -3, -35, -67, -56, -40, 45, -6, 54, -68, 23, 11, -60, -54, -49, -10, 39, -51, -26, 66, -15, -44, 9, 36, -74, 23, 10, -77, 38, -76, -15, 69, 69, -45, -67, -55, -1, -29, 64, 36, -33, 59, 12, 25, 4, -9, -78, -24, 22, -74, 39, -21, 50, 15, 40, -81, -14, -5, -19, 55, -52, -10, -43, 31, -60, -7, 64, -79, -36, -72, -75, -66, -74, -39, -10, 15, -32, 10, 18, 28, -12, 15, 64, 24, 31, -29, 45, 50, 60, -74, 8, -28, 68, -55, 30, 3, 19, 16, 2, 4, 15, 23, 45, 64, 61, -75, 11, -21, -61, 46, -79, 77, 55, 25, 45, 36, -21, 22, -21, -59, -40, -50, 21, -49, -57, 53, -32, 62, 8, -25, 70, -3, 1, -6, -3, -55, 41, 35, -43, 44, -72, -60, -28, 69, 52, 42, -21, 46, 48, -68, -80, -70, 19, -45, 51, -47, -68, -7, -56, 21, -51, 45, 71, -62, 42, -22, -16, 7, 65, -43, 47, -56, -28, -49, -69, -79, 26, 41, -18, 58, 32, 56, -18, -17, -21, 40, -43, -11, -29, 62, -65, -44, 44, 42, 39, -30, -53, 10, -8, 57, -29, -54, 33, -61, -64, 43, 27, -70, -25, -27, -16, 8, 39, -75, -58, 44, 28, -21, -79, -48, -11, -11, 13, -41, 69, 3, -63, -77, -75, -17, -62, 21, 34, 17, 54, -58, 70, -14, -72, 36, 33, 14, -33, 64, -8, 13, -7, 63, -34, -31, 29, 18, 52, -29, -2, 65, -39, 64, 54, -70, -77, -17, 4, 12, 69, 6, -39, 28, -66, -45, -62, -27, -39, -62, 60, -62, 19, -82, 58, 28, -5, -2, 31, 70, 22, 56, 43, 77, 68, -84, -66, 49, 0, 61, 38, 70, -36, 58, -81, 33, -73, -2, -60, 66, -6, -2, 9, 43, -77, 15, 43, -39, -81, 30, 11, 37, 5, -73, -10, -56, -50, 59, 8, 36, -43, 51, -76, 60, 71, 47, -50, 68, 19, 36, 23, -42, -13, -45, -16, 6, 62, -49, -37, -64, -64, -69, 30, -44, 55, 18, 37, 45, 30, 34, 26, -22, 11, -67, -56, 58, -72, 10, 40, 26, -15, -62, -69, -3, 39, 66, -34, -77, -71, -10, 27, -22, 57, -5, 27, -77, 26, -69, 43, -66, -4, -41, -71, 17, 11, -78, -6, 59, -28, 4, -17, -77, 42, -76, -10, 53, -23, -21, -55, 18, -46, 45, 35, 21, -59, 25, -32, 49, -7, 63, 13, -4, 28, -37, 10, -24, -24, 7, 3, 12, -55, 71, -25, 19, -25, 32, -21, -79, -50, 63, -63, -20, -20, 60, 16, -56, 39, -61, -59, -18, -66, -12, 56, -55, -56, -44, -24, -2, -12, -8, -79, -69, -27, 5, -64, -50, 53, -6, 3, -67, -72, 21, -79, -27, 13, -51, -68, -61, 11, 49, 61, 29, 68, -4, -41, -71, 32, 28, -9, 62, 6, 30, -6, -30, -21, 73, 21, 63, 25, 67, -62, -48, 54, 7, 34, -7, -61, -4, 4, -4, -32, -79, 33, 19, -8, 25, -37, -54, 15, -50, 14, 32, 41, -14, -39, 21, -3, -53, -45, 4, -78, 21, -76, -38, 20, -39, -34, -18, -7, -31, 6, -12, -7, -67, 11, -76, -3, -34, 48, -11, -20, -17, 8, -36, -35, -10, -41, 12, 68, 16, -82, 27, -58, 2, 71, -5, 30, -53, 45, 13, 20, 70, -21, 37, -46, -69, 28, -23, 20, 69, 93, 19, 3, 95, -22, 5, 89, 65, 3, -26, 63, 111, 77, -44, -20, 40, 52, -75, -27, 55, -42, 1, 10, -62, 41, 66, -23, -22, -79, 62, 95, 48, 94, 4, 109, 121, -27, 113, 48, 77, -20, 44, 76, 17, 106, -9, -41, 15, -21, -10, 10, 63, 2, 62, 42, -31, 56, -62, 29, 54, -79, 16, -14, 57, 88, -26, 100, 80, -6, 57, 108, 70, 18, 67, 0, 37, 27, -6, -32, 95, 63, 116, 0, 31, 65, 91, 31, 37, 56, 110, 43, 4, 75, 18, 79, 61, 21, 77, 29, 117, -9, 44, 103, 22, 49, 55, 31, 114, 45, -63, 13, 16, 8, -63, 70, -23, -25, -26, -5, -38, -35, -64, 73, -14, 59, 23, 16, 68, 85, -17, -17, -49, 43, 37, 75, -44, 21, 27, -33, -43, -15, 9, 110, 9, 19, 70, 116, 76, 90, 6, 53, 4, -20, -33, 39, 1, 29, -21, -4, -32, 36, 47, 45, 19, 7, 13, 93, 110, 100, 59, 112, 12, 4, -71, -79, -21, -7, -79, 51, -37, -5, -2, -32, -16, 35, -31, -10, -7, -77, -33, 37, -10, -23, 19, 26, -73, -60, -48, -19, 32, -56, 29, 36, 58, 41, -8, 73, 27, 29, 74, 46, 0, 25, -4, 87, 80, 63, -26, 29, 97, 8, 54, -30, 62, 9, 118, 62, 101, -10, -31, 62, 33, 18, 75, 37, 113, 17, 72, 0, -48, 44, -38, -55, -71, -14, 57, 62, 25, -18, -45, 75, -37, 13, 38, 112, 118, 53, 64, -3, 33, -1, 13, 114, -14, 96, -7, -6, -26, 59, -19, 29, -7, 50, -15, 58, 24, 39, 6, 38, -6, 25, -36, 64, 79, 26, 64, 34, 67, -18, 40, -48, -48, -33, -33, 40, -25, 35, 50, 62, -15, 29, 61, 75, 82, 21, 95, 33, -2, 49, 11, -11, 25, -14, 8, 77, 61, 45, -84, 48, -54, -25, 59, 18, -26, 12, -65, 53, 49, -49, -48, 50, -16, 18, -15, -19, 67, -19, -2, -28, 48, 8, 44, 65, 70, -44, 26, 34, -11, 73, -52, -10, 6, -8, 53, 53, -4, 48, 51, 9, -59, -52, -4, -41, 19, 25, 95, 16, -12, -38, 71, 87, -24, 68, -18, 63, 81, 12, 23, 26, 87, 46, 21, 50, 57, 8, -7, -66, -55, -11, 19, 23, -13, -36, -62, -62, -29, 25, -30, 85, 107, 78, 85, 28, -17, 56, 89, 79, 116, 30, 92, -22, -4, 68, 3, 110, 24, 40, 53, 54, 3, -16, -21, -29, 85, 65, 0, 96, -13, -25, -10, 51, -26, 28, 49, 89, 28, 51, 15, 89, 10, -16, -25, 54, 112, -6, 103, 97, 19, 29, 56, 76, 19, 78, 14, 122, 39, 98, 79, -28, 89, 46, -93, -46, 0, -8, -82, 62, -63, 24, 9, -68, 17, 62, -27, 2, 10, 28, 32, -10, 62, -33, -31, 92, 58, -49, 97, 83, 70, -20, -55, -2, -22, 41, 65, -20, -81, -14, -67, 59, -74, -8, 30, 26, 48, -71, -23, 73, -30, 50, 85, 68, 55, 46, 20, -23, -7, 10, 9, 72, 77, -38, -30, 21, -38, -65, 25, 74, -50, 80, 51, -36, 75, 17, -30, -35, -15, -20, 67, 37, 39, -46, -81, -14, -17, -47, -4, -77, -74, 80, -36, -52, -5, 73, -31, -24, -49, -12, 0, -51, -63, 19, 27, 44, -7, -69, -45, -14, 25, -42, -7, 13, 24, 29, -26, -31, 16, -26, -14, -5, 8, 54, -17, -11, -37, 43, -44, 15, 68, 56, -59, -21, 68, 83, -56, -32, -21, 11, -28, -34, -21, -68, 12, 66, 70, 5, 70, -31, 99, 83, 82, 111, 110, -27, 61, 39, 6, -9, 71, -10, -4, 65, 101, 70, 95, -25, -31, 60, 69, -36, 25, 30, -8, 32, 91, 6, 56, -5, 12, 105, 57, 104, -10, 40, 88, 60, -29, 16, 43, 65, -27, -26, 94, 2, 38, 29, 104, -14, -20, 28, -10, 47, 20, 90, 86, -2, 99, 19, 61, -16, -17, 83, 85, 101, 22, 41, 103, 13, 103, 90, 86, 116, 92, 29, 111, -34, 53, 6, -33, -36, -2, 118, 85, -30, 113, 116, -4, 88, -38, 63, 96, -22, 46, 112, 95, 20, 84, 70, 28, 43, 81, 87, 52, 106, 23, 62, 11, 105, 28, 63, -8, -19, 68, -44, 6, -37, -49, 71, -62, -26, -58, 17, -58, -51, -21, -45, -62, 20, 9, -41, 26, -38, 52, 37, 15, 20, 29, 51, 24, -14, -49, 56, 92, 83, 94, 29, 18, 60, 61, 70, 9, -8, 46, 50, 58, 19, 6, -36, 68, -35, 2, 51, -51, -67, -24, -41, -18, 72, 41, 38, -34, -73, -86, -22, 29, -52, -76, 21, -34, 1, -14, -56, 71, 61, -31, 75, 37, -48, 37, -65, 32, -7, -70, -32, -31, 41, -25, -34, -52, 39, 46, -44, -62, -15, -71, -78, 5, -14, 57, -49, 54, -70, 60, -33, 25, -21, -48, 54, 47, 90, -46, -10, 42, 56, 20, 68, -54, 39, -63, 46, -11, 23, -56, -23, 68, -38, -20, 44, -33, 66, 25, 27, -84, 52, -43, -4, 62, -26, 88, 55, -37, -38, 47, 49, 34, -47, -54, 6, -15, 11, 31, 42, 48, 73, 31, -57, -65, -3, -6, -34, -62, 66, 7, 70, -49, -55, 41, -28, -2, -19, -21, 28, 74, 75, -76, -39, 20, 64, -60, -50, -64, 76, 8, 14, 75, -17, 50, -71, -77, -74, 50, -38, -26, 52, 36, 3, -65, 28, 63, 68, 6, 20, 7, 56, 98, 95, -71, -38, -15, -22, 4, 13, -1, 69, 74, -33, 22, -6, 30, -2, 47, 20, -46, 39, -26, -4, -62, 32, -67, 75, -37, -37, 22, -66, -69, 70, 29, -78, -19, -75, -58, -21, -60, 41, -42, 74, 15, 38, -77, 69, 28, 37, -26, 65, 52, -81, -78, -34, -72, 10, -11, -7, -41, 9, -7, 38, 71, -28, 80, -63, 3, 55, 17, -48, 36, -34, 18, -40, -64, 15, 61, 58, 14, 62, 54, -46, 72, -70, -53, -52, -54, 45, 46, -2, -28, -47, -13, 86, 79, 22, -20, 9, 53, 74, -10, -68, 46, -4, -65, 22, 7, 21, -55, 22, -34, -2, 4, 39, -65, 24, -21, -30, 60, 53, 79, 23, 60, 7, -15, 89, -25, 90, 41, 24, -79, 5, -46, -81, 42, 15, -81, -35, -36, 55, -11, -12, -66, -65, 35, 56, -48, -11, 73, -56, 17, -22, 57, 43, 43, 95, 78, -45, -16, 61, -20, 26, -44, -34, 56, -66, 23, -12, -8, 85, 18, -42, -9, 27, -3, -52, 70, 47, 55, 68, -25, -4, -28, 9, -65, 39, -14, 26, 64, 24, 72, 11, -40, 14, -56, -2, -16, 70, -64, -4, 2, 21, -52, -68, -6, -2, -56, 11, -22, -36, -52, 80, 64, 2, 48, 5, 56, 2, 86, -25, 40, 86, 19, 44, -30, 54, 22, -45, -52, -73, 12, 61, 26, -26, 61, 35, -43, 32, 75, 0, 28, 63, 30, 76, -8, 54, 31, -7, 36, -26, 52, -45, -43, -32, 55, -54, -3, -55, -59, -68, -5, 48, -16, -85, 11, -34, 60, 56, -23, 8, 66, -55, 46, 74, 68, -61, 27, -32, -4, 42, -59, 58, -19, 25, -58, -38, -39, 20, -28, -59, 20, 26, -80, -76, 69, 48, 14, -65, 22, 1, 33, -59, 2, -78, -1, 22, 36, 39, -27, -73, 60, -36, -24, -75, 77, -58, -19, -72, 28, 0, -69, -8, 23, -36, -69, 16, -26, 61, -75, 18, 72, 8, -30, 43, -13, 77, 47, -22, -22, -43, 52, -78, -80, 21, -62, 47, 38, -12, -7, -20, -28, -46, 55, 63, -37, -69, 37, 76, 58, 68, -54, -46, 80, 66, 36, 4, 27, -45, -64, 19, 2, -36, 26, -72, -81, -23, -53, -24, -32, -34, 43, 54, 70, 62, 30, 40, 1, -82, -68, -39, -7, -47, 30, -62, 27, -9, -43, 87, 52, 79, 11, 26, -62, -13, -23, -27, -39, 41, 78, -50, 79, 40, 44, 46, 56, 13, 43, 42, -69, -39, 65, -52, -13, -86, 3, 61, -78, 42, -49, -49, 32, -58, 24, -6, 20, 54, 40, -76, 25, -78, -35, 76, 68, -20, -38, -18, -41, 42, -40, 98, 32, 60, 19, 58, -64, 2, 8, 36, -12, 24, 79, 38, -14, 55, 40, 34, -13, 41, 43, 20, -40, 53, 52, 55, 16, -34, 70, -3, -29, 73, -32, -18, -15, 3, 34, -46, 47, 68, 2, 15, -32, 13, -39, 69, 21, 63, -37, 8, -3, -40, 12, 66, 72, 72, 58, -55, -19, 58, 23, 24, -67, -45, 71, 79, 31, 58, -30, -37, 22, -3, 15, -42, -48, 38, 13, -33, -3, 67, -68, 63, 10, -61, 39, -69, -15, 14, -43, 31, 78, -52, -69, -59, 2, -50, 49, 10, 33, -53, 73, 22, -65, -58, -64, -47, 75, 28, 53, -33, -67, -38, -15, -51, 55, 25, 78, -60, 11, 55, 64, -15, 7, 53, -2, 65, 54, -8, 42, -58, -43, -64, -64, 10, -5, -25, 5, -52, -18, -41, 19, 10, -6, -31, -21, 18, -73, 45, -31, -42, -8, -8, -84, -40, 64, -10, 50, 5, 0, -22, 27, -30, -32, -79, -53, -31, -40, -42, -64, 60, -6, 35, -49, -14, 91, -58, -55, 20, -69, 56, 14, -13, 7, 77, -51, 75, -13, 72, 91, 76, -40, 96, -51, 1, -21, 14, 13, 60, -52, 19, 43, 55, -71, -58, -7, -32, 73, 39, 89, -50, -53, 9, 57, 33, 38, 8, 37, 34, -10, 31, 46, 45, -69, -62, -3, -20, -24, 27, 7, 37, 39, -24, 67, -62, -2, 64, -56, -15, -68, 35, 16, 14, -23, -63, -22, 61, -42, -25, -2, -8, 19, 27, -36, -65, -35, -37, -48, -57, 84, 67, -88, 34, -71, -70, -67, -33, 44, -46, -38, -17, -60, -82, -24, 30, 75, 66, -58, -55, -65, -63, -56, -16, 63, 22, 42, 32, 38, -67, -75, -67, -40, -65, 47, -60, -15, 45, 26, 27, 75, 5, -48, -53, 8, -30, 91, -19, 48, 29, 3, -52, 29, 58, 26, -2, 19, 27, 48, -31, 57, -26, 49, 51, -37, 9, -66, 7, 56, -6, 17, -74, 41, 32, -2, -49, 75, -57, 24, 33, 31, 74, 2, -50, -55, 25, -70, 1, 4, -18, 33, 68, 16, -51, -6, 51, 11, 69, -13, 54, -18, -58, 16, 28, 3, 19, 54, -4, -41, 23, 70, 56, -23, -15, 22, -22, 69, -5, -26, -11, -6, -64, -55, -74, 19, -66, 3, 67, -24, 50, 44, -86, 32, 62, -82, -12, -82, 11, -62, -35, 6, -78, 20, -31, -25, 80, 26, -6, 25, -6, -12, 22, 25, 11, -18, -12, 41, -41, 73, 2, 38, 64, -32, 66, 1, 42, 32, -23, 65, -32, 55, 5, 83, 104, 31, -39, 23, 51, 10, 73, -42, -11, -3, -27, 73, -59, -7, -17, 40, -48, 44, 0, -62, 58, -50, -75, -64, -20, 3, -75, -24, -35, -90, -70, 31, -82, -78, -12, -53, -18, 53, -16, 61, -58, 58, 27, 21, 7, 76, 86, 68, -59, 84, 57, -49, -75, 44, -36, 22, -42, -52, -44, -56, 33, -47, -21, 76, 37, 46, -17, -64, 55, -55, -6, 56, 29, 76, -4, -52, -61, 27, -27, 68, 53, 91, 10, 59, 1, 25, -57, -72, 52, -49, 10, 22, 19, 2, 34, 53, 76, 77, 75, 10, 13, 7, -23, 17, -41, -70, 28, -29, -9, -34, 40, 15, -58, 17, -51, 48, -42, -72, -25, -53, 8, -17, 35, 4, -22, 71, -60, 64, 67, -54, 18, 7, -6, -47, 60, -25, 54, -9, 31, -44, 78, -33, -61, 76, 38, -60, -36, 23, 14, 51, -58, 24, 41, -6, -47, 53, 58, -38, 4, 38, 62, -33, 15, 32, 57, 30, -76, -41, 1, -77, -65, -34, -48, -58, 35, 38, 6, -61, 8, -61, 76, 19, -29, -1, 50, -41, 28, -21, -28, -29, -11, 59, -72, 7, -40, 22, 29, 13, 4, -25, 39, 27, 20, -51, -75, 37, -47, -68, 75, -35, 78, 62, -39, -61, 21, -7, -73, 8, -78, -37, -30, -55, -13, -17, -71, -76, -74, 13, -37, -15, -48, 43, -16, -19, 19, -66, -43, 46, -15, -42, -73, 61, 68, 70, -64, -20, -17, -23, -23, 66, 18, -34, 64, 82, -62, 19, -61, -10, -57, -65, -6, 50, -58, -14, 53, 21, 43, -34, 49, 78, -64, 0, 11, 27, 32, -37, 31, 74, 51, -23, 54, -13, 64, -44, 42, 100, 39, 5, -10, 71, 27, -45, -33, 4, -29, 31, 49, -23, -40, -44, -61, 59, 13, -36, -70, 55, -65, 56, -45, 41, 46, 24, 67, 24, -31, 28, -17, -19, -7, 25, 69, 104, 53, 6, 73, 24, 66, -27, -16, -1, 9, -6, -38, 109, -21, -30, 14, 59, 70, -49, 71, 63, -34, -23, 65, 74, 46, -14, 17, -3, -42, -38, 56, 24, 38, -57, -54, 51, -34, 41, 1, -63, -15, 12, 47, 30, 34, 74, -51, -16, -10, 63, -55, -40, 29, -37, -61, 46, 77, -64, 39, 67, -63, -41, -3, 2, 3, -49, 90, 29, 49, 10, -43, -35, 46, 23, 34, -5, 86, 8, -15, 42, -10, -69, -44, -66, 9, 9, 81, -20, 26, -20, -13, 56, -31, -75, -40, 48, -71, 92, 1, -47, -23, 6, 33, -35, 16, 51, 85, 50, 23, 10, -9, 96, 7, -51, 3, -15, 6, -33, -21, -68, -35, 51, 38, 69, 18, 80, -18, 68, 9, 11, -40, -4, 46, -51, -17, 31, -38, 8, -13, -56, 55, 2, 73, 74, 23, -24, 72, -59, -28, 30, 15, 68, -23, 69, 91, 80, -63, 37, -46, 70, 7, -59, -74, -36, -2, 14, 64, 10, -45, 5, -5, -28, 29, 6, -73, 77, 78, 15, 37, -22, -10, -40, -40, 17, 33, -51, 30, -76, 57, 41, -64, -63, -35, 63, 29, 6, 21, -55, 31, 50, 69, -53, 39, 69, 17, -39, -69, -42, -39, 9, 14, -16, -62, 21, -25, 41, 31, 9, -21, 59, -64, -54, 35, -2, 1, -41, 44, -52, 75, 5, -49, 80, -22, -47, -9, 77, 1, -34, 54, 14, 54, 60, 81, 4, 18, 7, -25, 48, 69, 54, 20, 45, 47, 56, -72, -73, -58, 81, 52, -46, 77, 65, -40, -41, 0, 0, -43, -34, -19, 6, -18, 47, 52, 24, -17, 24, -3, 4, 45, 89, 57, -32, 97, 93, 57, 91, -34, -24, 68, 66, 38, -42, 7, -37, -67, -11, 83, 64, 17, -55, 61, 12, -63, -33, 34, 18, 12, -39, 96, 84, -11, 11, 45, -13, 99, 112, 40, -4, 47, 57, 62, 40, -30, 33, -36, 0, 81, -47, -50, -45, -11, 23, 68, -13, 53, -27, 67, -13, 64, -24, -60, 11, 28, -5, -50, 3, 107, 41, -38, 60, 59, 15, 22, -25, 39, 101, 55, 71, 56, 19, 26, -29, 38, 44, -25, 1, 91, 18, 5, 64, 42, 77, -31, 103, -28, 38, 34, -34, 64, -1, 0, 3, 75, -23, 9, 16, 81, -25, 24, -22, -10, -61, -66, 61, -27, -32, -33, -42, 19, -12, 14, 51, 42, 73, 29, -13, 28, 55, 83, -16, 78, -44, 77, -54, 58, 38, -28, 60, -24, -18, -42, 0, 108, 82, -16, 75, 85, 103, 15, 86, 115, -37, -39, -27, -48, 36, 90, 59, -22, -40, -38, 68, 71, 37, 95, -7, 97, 80, 81, 12, -3, -32, -70, -59, 54, -65, -7, 31, 14, 31, -7, -59, 11, 25, 34, -12, 55, -48, 84, 82, 0, 14, -8, 41, 59, 34, -1, 45, 37, -32, -14, 92, -10, 38, -58, -14, 101, 54, -18, -2, -2, -21, 68, -44, 17, 78, 84, 50, -40, -9, -29, -9, -33, 57, -20, 24, 40, 31, 27, 26, 99, 2, 23, 65, 73, -48, -20, -40, 2, -36, -20, -18, 7, 85, 31, 86, 40, -46, -9, -6, -47, 18, 96, 4, 25, -16, 106, 102, 8, 120, 39, 18, 38, -29, 73, 16, 22, -27, -41, 78, -6, 58, 15, 86, -19, 93, 84, 43, 22, 59, 84, 53, -25, 29, 1, 56, -65, -30, -30, -38, 17, 3, 47, 62, -50, -17, 75, -34, -18, -26, -18, 75, 106, 73, 25, 94, 37, 115, 66, -26, 108, 106, 73, 36, 78, -22, -55, -14, 75, -69, 29, -56, -25, 18, 32, 49, -52, 27, 33, 2, -56, 36, -22, 46, -30, 0, 82, -15, -13, -56, -31, -56, 74, 77, 22, 69, 84, -11, -27, 12, -23, 24, 50, -48, 40, -16, 45, -12, 4, 9, 52, -13, 63, 24, -10, 97, 83, 45, 73, 41, 73, 113, 61, -24, 75, 15, -21, -58, 38, -22, 70, -40, 3, 78, -22, 4, -40, 59, -25, 55, 18, -39, 0, -39, 45, 53, 27, 107, -5, -26, 7, 17, 59, 108, -40, 59, 109, 0, 100, 73, -19, -43, 82, 2, -41, 54, 41, -14, 8, -21, -1, 0, 63, 106, 98, 10, -49, 20, 45, -10, 75, 4, 103, -1, 46, 23, 6, 38, 86, 30, -36, -39, -33, 7, 54, -17, 19, -8, 34, 11, 83, -25, 75, 94, 98, 8, 5, -25, 72, 18, -50, 21, -57, 62, -30, -26, -49, -11, 0, -24, -15, 70, -51, 14, 95, 0, -9, 102, 79, -20, -19, -3, 25, 2, -42, 41, 63, 71, -47, 13, 59, -55, -38, 76, -52, -26, -28, 44, 17, -68, -12, 1, 32, 76, 42, 79, -1, 24, 76, 86, -48, 25, -43, 30, 74, -42, 81, 3, -53, 19, 77, 44, 1, 15, -5, -5, -38, 61, 33, 5, 15, 45, 17, 53, -43, -1, 36, 67, 77, 46, 48, 79, -57, -3, 19, -16, 12, -34, 42, 52, 5, 70, -53, 76, 43, 31, 50, -3, -25, 63, 74, 54, -1, 70, -41, 71, 82, -44, -68, 40, 39, -72, -50, 58, -62, -1, 25, 50, -44, -14, 52, 70, -16, 8, 76, -23, 37, -32, 31, -16, -36, -10, -56, -4, 11, 45, -59, -2, 51, -12, -51, 26, 69, 76, 72, 81, 84, 33, 12, -35, 42, 82, 70, 52, 114, 25, -2, -12, 92, -2, -8, 19, 78, -13, 55, -40, 17, 65, 79, -32, 47, -37, 96, 70, 82, -49, 78, 76, -18, 62, 77, 95, -7, 101, -32, 93, 89, 19, 108, 86, 23, 16, 78, 107, -13, 38, 13, 11, 66, 31, 98, -19, 23, 4, 21, -41, 46, -19, 8, 54, 19, 66, 96, 82, 24, -30, 20, -19, 28, 72, 33, -3, 40, 50, 22, 105, -10, 32, 28, 94, 45, 109, 60, 79, 59, 113, 17, 34, 51, -12, 73, 103, -13, -6, 69, 21, 41, 10, 106, 74, 20, 26, 9, -12, 76, -63, 43, -24, -30, 71, -35, 60, -37, -1, 55, -24, -42, -54, -8, -37, 32, 40, 60, -8, -11, 65, 78, 6, -66, -9, -37, 27, -31, 49, -68, -68, -4, -20, 30, 64, -28, 24, -41, -26, -26, -2, 87, -2, -16, -40, 59, -20, 20, 51, 16, -7, 66, 37, 72, 27, -47, 68, -61, 35, -61, 35, 6, -7, 14, -30, 69, -42, 70, -14, -22, 21, 51, -38, -38, -6, -41, -74, 12, 44, -6, -1, 65, 12, 67, 44, 74, 25, -75, 31, 14, -62, 15, 1, 17, 20, 46, -13, -3, 29, -50, -33, 40, -51, -55, 74, 24, -67, -16, -45, 9, 67, 37, -43, 30, -58, -9, -62, 40, 42, 20, -66, 74, -48, 29, 1, 13, 34, -15, 32, -31, 78, -66, -17, 4, 57, 56, -29, -15, -61, -77, -8, 38, 90, 15, -26, -48, 76, -66, 24, 52, 34, 24, 74, -59, 55, 67, 58, -37, -46, 50, -52, -3, -26, 67, 53, -17, 37, 19, 48, -28, -68, -12, 29, 27, 11, 46, -50, 14, 80, -64, -73, 46, 49, 16, 20, 51, 36, -27, 72, -26, 63, -46, 70, 22, -15, 44, 59, 24, 54, -55, -27, -49, -3, 74, 11, 70, 42, 69, -20, 37, -26, 50, 24, 49, -60, -11, -25, 17, -60, 56, 41, -68, -2, -69, -33, -31, -18, -6, -68, -40, -51, 31, 41, 25, -79, 35, 0, 43, -85, -81, -64, -76, -20, -4, -46, -42, -65, 44, -17, 65, -63, 60, -66, 63, -56, -33, 20, -44, 32, -37, 17, -76, 50, 38, -36, -40, -26, 20, -40, 4, -27, 63, -21, -60, 72, -8, 21, -33, 63, -59, 62, 68, 87, 1, -3, -26, 17, -53, -28, 46, 73, 28, 56, 61, -46, 38, 40, -36, -70, 28, 13, -1, -22, -75, 35, 12, -10, 75, 19, -29, 47, -59, -9, 68, 24, -3, -26, -13, 23, -5, 23, 26, 44, -51, -57, 55, -33, 21, -17, -47, -21, 46, 36, 52, -73, -15, -68, 69, 16, -5, 52, 30, 4, -34, 50, -31, -80, -72, -55, 42, -20, -60, 18, -47, 1, -47, 65, 38, -55, 81, 21, 92, -54, -34, -58, 32, -28, -72, 40, 57, 64, -22, -48, 59, 1, 66, 4, 60, -66, -30, -19, -60, -16, 30, 70, 46, 26, 54, 20, -20, -59, 37, 46, -25, -52, 54, -47, 4, 31, -40, -36, -23, 13, -25, -51, -43, 63, 53, -27, 9, -27, 47, 47, -46, -14, -24, 48, 15, 41, 43, 43, -53, 33, -29, -32, 36, 17, -5, -32, 9, 54, -59, 33, -15, -17, 48, -13, -56, 47, 54, 44, -37, -38, 3, -52, -9, -1, -38, 4, -36, 55, 58, -25, 65, -62, -61, -2, 16, 4, 42, 72, -52, 35, -37, -30, 49, 0, 38, -48, -59, -1, 28, 1, 46, -5, -68, -50, 66, -57, 79, -32, 70, -35, -4, 45, -9, -74, -36, 34, -9, -43, -63, -52, -29, 67, -33, -73, 5, 39, 55, -29, 12, 57, -41, 73, 12, 9, -50, 51, -1, 3, -72, 58, 66, 12, 55, -1, 15, 63, 60, -47, 88, -61, 40, 65, -49, 25, 66, 19, -51, -66, -26, -68, 48, 25, 47, 1, 53, 62, -61, 15, 29, 12, -2, 60, 45, 35, -67, 49, -2, 72, -30, 73, 53, 23, -58, -71, 54, 83, -26, -43, 24, 12, 45, 16, -61, -27, -54, -31, 29, 29, 66, 9, 0, 19, -12, 0, -19, 38, 63, -69, -42, 29, -27, -77, 30, -50, -2, -16, -22, -37, 43, -30, 3, 2, -37, 62, 33, -28, 96, -3, -36, 87, -57, -18, 63, 77, -6, 33, -17, -70, -13, -4, 88, 34, 6, -30, -16, 17, 20, -43, -17, 62, -8, 40, -30, -48, -16, -51, 70, -44, 27, 33, -48, 58, 28, 38, -30, 57, -74, -35, 2, 34, 57, 13, 53, 46, 57, -62, 26, -53, 15, -19, 58, 18, -13, -15, -56, -1, 4, 61, -9, -51, 2, 2, 11, -52, 9, -7, -20, 34, 53, -66, -8, 48, 29, -39, 27, -3, 73, -9, 53, 73, 36, -71, -61, -61, -32, 24, 32, -58, -40, 50, -12, -11, -29, 76, 4, -2, -19, -13, 20, -21, -24, 53, 53, 9, 55, 27, 21, -28, -28, -12, 18, 65, 29, 43, -26, -73, -59, -31, 36, 6, 46, -36, 85, -11, -27, 95, 13, -13, 45, 7, 10, 14, 22, 68, -38, -42, 0, -8, 12, -56, 13, -11, 48, -42, 42, -4, -66, 39, -49, -53, 14, 18, -66, 24, -51, 33, 72, 68, 23, 22, -36, 42, -44, -52, 46, 69, -62, -68, -56, 73, 6, -10, 81, -10, 49, 12, -1, 54, 28, -70, -11, 76, -7, -23, -3, 9, 76, -86, 18, -47, 21, -78, -34, 31, 93, -26, 18, 50, 7, -58, -43, -6, -9, -53, -62, -56, -25, 53, -13, 59, 21, 75, -11, -45, -11, 10, 64, -1, -65, 16, -69, -34, 16, 14, -20, -23, -66, -49, -21, -49, 2, 65, -7, -14, -67, 34, -53, 48, -26, 79, -58, -18, 4, -6, -51, 35, 45, 70, 76, 56, 58, -70, 52, -4, -40, -62, 25, 6, -75, 16, 18, 43, 10, 1, -12, -7, 58, -42, 49, -49, 30, 42, -51, 25, 48, -11, -11, 73, -74, 35, -3, 89, -26, -63, 51, -3, 58, 31, 44, 4, 0, 53, -42, -62, 36, -36, -54, -38, 66, 56, -67, -84, -72, 4, -21, -55, 59, -36, -5, -56, 29, 81, 56, 4, 45, -26, 10, 64, 75, -71, -54, 32, 5, -26, 4, 65, -55, -78, -35, -48, -76, 65, -47, -50, -84, 52, 55, -11, -44, -23, 29, 41, 2, 37, -43, -23, -62, 55, -14, -78, 18, 16, 50, 21, 1, 56, 71, 32, -51, 79, -5, -14, 39, 65, -52, -63, 19, -26, 63, 40, -62, 78, 70, -16, 13, -43, 4, -38, 47, 27, 66, -21, 10, -70, -2, 2, 67, -18, -76, -4, 0, -1, -58, -67, 55, -38, -15, 34, 22, 37, -62, 29, -15, 19, -70, 28, 37, 51, -30, 28, 56, 12, 3, 11, -9, -6, -49, -67, 26, -51, 74, -59, -65, 46, 42, -63, -7, 42, -51, 63, -46, 77, 69, 54, 16, -50, 20, 67, -65, -29, 58, 78, 74, -30, 40, -4, 49, -31, -39, 25, 19, 35, 4, -56, 21, 20, -49, 46, -50, 64, 64, -76, 26, -78, 28, -28, 54, 22, 45, -36, 58, 59, -72, 24, 38, 49, 28, 4, -34, 9, -59, -37, -23, -53, -23, -28, -49, -40, 50, -32, -8, -55, 53, 25, 47, -18, 63, -35, -21, 3, 14, 78, -66, 45, -34, 58, 37, -48, -37, 30, 2, 8, -40, 50, 67, 66, -84, -22, 5, 57, -78, 12, 1, -8, 50, 24, 18, 23, 46, -3, 55, 23, 37, 28, 41, 22, 56, -44, -30, 30, -34, -52, 2, 23, 80, -7, -50, 61, -48, -42, -19, 2, 75, 68, -62, -8, 78, 74, -57, 54, 47, -59, 17, 39, -35, -40, -21, 13, 45, -2, -82, 2, 45, -57, 42, 56, 26, -18, -65, 47, 9, 27, 40, 56, 29, -57, -5, 18, 59, 48, -41, 38, 8, -21, 67, -53, -38, 6, -12, -43, 36, -7, 66, -67, -82, -55, 18, -48, -44, -5, -59, 0, 11, 25, 18, 62, -76, 35, -9, -29, -62, -18, 53, 47, 76, 43, -16, -82, -39, -16, 1, 46, -48, -70, -38, -27, 27, 34, -10, -29, -36, -26, 14, -16, 15, -52, -63, -35, 45, 10, 26, 73, 77, 50, -60, -27, -45, 17, -62, -33, -77, -19, -49, 44, -14, -6, 33, 40, 14, -20, -42, -79, 47, -78, -60, 52, 38, 58, -25, -41, -51, -61, -38, -44, 10, -13, -26, -7, -34, 3, -68, -54, -3, 42, -48, 3, 49, 82, 21, 20, 85, -11, 60, -30, 30, 61, 2, -30, 75, -15, 11, 22, 18, 58, -51, 52, 36, 82, -65, -32, -38, 20, 19, 39, 3, 60, -15, 32, -14, -10, 50, 67, -51, 60, -11, 17, -6, 13, 27, -1, -18, -7, 14, 24, -39, -58, -78, -44, 37, -82, 29, -60, -62, -84, 6, 74, -68, 38, 5, 7, -24, -21, 45, -58, 75, 62, 39, -63, 7, 49, 29, 61, 1, -30, -33, 25, 3, 3, -36, 47, 60, -9, 54, -4, 12, 32, 7, 59, -22, -74, 36, 51, -8, -60, -29, 66, 2, -33, 10, 78, 65, -2, -35, -14, 34, 34, -69, 72, -20, -39, 49, 1, -34, 64, 50, -1, 21, -24, 50, -22, 43, 0, -18, -62, 52, -58, 16, 67, 10, -35, 58, 19, -61, 67, 3, -15, -69, 54, -67, 35, -73, 13, 57, 34, 17, 49, 65, 0, 55, -10, -35, 49, 26, 17, 56, 62, -1, -81, 30, -44, 32, -57, -51, -21, -83, 57, 29, 26, -41, 39, 45, 41, 38, 18, 46, -26, -76, 25, -1, -75, -8, -8, 61, -72, -43, 74, 41, 27, 13, 36, 78, 35, 13, -60, -21, 44, -52, 20, -49, -19, -48, -55, -74, 14, 55, 65, 14, -61, 29, 47, -69, 36, 56, 28, 8, 64, 37, 69, 57, -19, -20, 36, 79, 58, 57, -51, 36, -42, -57, -59, 64, 43, 59, 3, -66, 12, 64, 42, 12, -27, 54, -64, -51, 53, 55, -12, -13, -69, 50, -9, -79, 38, -12, 45, 26, 25, 13, 78, 72, 60, 51, -24, -66, 56, 73, 7, -6, -66, 9, -9, -16, 49, -26, -9, -24, 55, -35, 39, 72, -62, -64, -46, 41, -66, -42, -44, -10, 13, 42, 9, 76, 10, 58, 75, 24, -41, -11, 37, 37, 57, 20, 54, -39, -19, -24, -7, -60, 17, 25, -50, -4, 20, -50, -17, 4, -16, 3, 54, 0, 31, -65, 19, 33, -46, -14, -27, -70, 46, 63, 46, 80, 8, -27, -47, -25, -1, 61, 3, 32, -19, 47, 50, 16, -43, 66, 33, 28, -49, -62, -47, 32, 7, 46, 40, -44, -75, -85, 11, -32, -61, -38, 6, -61, 55, 81, -9, -33, -50, -71, -5, -57, -11, 60, 62, -59, -78, -56, -24, -59, 23, 74, 13, -44, 71, -43, 2, -65, -31, 40, 11, 7, 33, 65, 65, -3, 75, 4, 21, 1, 2, 71, 25, -34, -3, 8, -8, 69, -32, 11, -65, 50, -36, 18, -43, -24, -15, 59, -69, -5, -41, -39, -6, -41, -17, 9, 53, -29, -67, 13, 67, 63, 16, -27, -53, 19, 50, 9, -62, 4, -63, 1, 32, -30, 29, -45, 91, -60, -22, -15, 49, -31, -25, 23, -12, -32, 21, -46, 55, -34, -39, 58, -39, 67, 6, 85, -18, -36, -7, 35, 84, 11, -47, -26, -57, 67, -33, -35, -41, -61, -39, 9, -17, 23, 33, 77, 67, -43, 21, 51, -38, -9, 74, -66, -67, 12, 39, 69, 65, 36, -51, 9, -25, -69, -21, -58, -43, 36, 16, -36, -72, -6, -65, 46, 49, -59, 52, -61, -37, 63, -57, -62, -26, 4, 40, -7, -40, -61, 53, -63, 70, 40, 0, -71, -54, -33, 5, 48, -81, -41, 35, 63, 60, 55, 67, -64, -28, -53, -22, 51, -63, -69, -61, 57, -25, -55, 84, -9, -72, 43, -2, -1, -33, -23, -69, -33, -68, -52, 16, 30, 105, 13, 39, 80, 37, -28, 73, 78, 100, -35, 70, 90, 12, 39, -19, 78, 38, 35, 71, 26, -39, 10, 48, 33, -37, -13, -25, -7, 54, 51, 40, 24, -43, -6, 5, 24, -13, 63, -25, 72, 60, 7, -64, 4, -39, 22, 55, -2, -23, 83, 75, -1, -30, 56, -18, -25, -18, 22, 75, -35, 44, -31, -89, -84, -82, -76, -59, -16, -15, 26, -6, 47, 39, -72, 0, 6, 73, -32, 68, -56, 34, -9, 21, 3, 9, -16, -27, -27, 54, 87, 59, 1, 63, 71, 69, -29, 40, 69, 82, 41, 47, -28, -33, 83, 75, 39, -25, 36, 30, 45, -40, -22, -3, 15, 82, -47, 65, 35, 43, 91, 59, -31, -36, 73, -26, 14, -40, 50, 38, -21, -48, -10, -35, -38, -5, -51, 34, -47, 66, -50, 6, 35, 0, -27, -1, -22, 34, -54, 70, -6, 96, 82, 15, 68, 11, 78, 46, -26, 52, 77, 69, -49, 72, -27, 0, 64, -38, -65, 35, -28, 12, -72, -24, -14, -44, -97, 11, 6, -23, -70, -55, -11, 56, -55, 13, -41, -52, 36, 21, -64, 1, 20, -35, 77, 49, -62, -52, -5, 17, 54, -54, -39, -74, 69, 22, 40, 52, 3, 69, -13, 78, 77, 21, 58, -57, 38, -63, -54, 31, -46, 67, -36, -31, -31, -80, 29, -15, -23, 45, 59, 2, -52, -20, -51, 56, 80, -77, -37, 56, -75, 48, -18, -6, -57, -37, 69, 38, -44, -48, 40, -13, 0, -55, 60, 7, -10, 42, 20, 47, -30, 53, -24, 2, 67, 80, -25, 70, 81, -66, 1, -30, 82, -32, -54, -20, 13, 70, 37, 67, -7, 17, -29, -37, -67, 63, -60, 42, -53, -20, 49, 101, 18, -4, 7, 12, 97, -13, 94, 9, 85, -47, 2, -38, 12, 29, -6, 45, 61, -5, -26, 20, 46, 8, -32, -64, -18, 14, -25, -34, 17, -20, 21, 42, 80, 68, 30, 84, 13, 72, 77, 64, 72, 90, 9, 8, 64, 8, 5, 1, 70, 40, -12, 116, 18, 52, 35, 108, 109, 72, 12, 18, -15, -43, 15, 82, 81, -30, 74, -73, -37, 6, 28, -21, 41, -42, 41, -19, -13, 82, 3, -56, 65, 9, 73, 17, -44, 79, 4, 70, -33, -46, 32, 4, 50, 60, 50, -10, -5, -55, 75, -38, 64, -72, 33, 62, -65, -42, -30, 39, 79, -5, -13, -52, 91, 46, 18, 27, -18, -40, 58, 79, 18, 55, 3, -29, -90, 35, 61, 15, 60, 20, 58, -30, 39, -45, 50, -27, 16, 45, -65, -25, -35, 39, -2, -32, 40, -33, 64, -35, -23, 73, -52, 35, 28, 87, 81, -77, 22, -48, 47, 63, -43, -7, -30, -22, -39, -1, -17, 56, 4, 28, -16, -18, -37, 36, -46, -64, -12, 20, 42, 42, 73, 40, 64, 60, 58, 45, -45, 71, -58, 2, -30, 70, -13, -54, -62, 27, -5, 8, 50, -60, 84, -62, -34, -10, -60, 41, -8, 28, 19, 34, -10, 12, -7, 64, -37, -32, -63, 54, -27, 53, 46, -12, -77, -27, -53, 44, 36, -6, 84, -44, -72, -25, 13, 30, 6, 50, 66, -66, -45, 9, 32, 21, 1, -54, 25, 68, 49, 77, 15, -74, -29, -55, 50, 66, -65, 31, 20, 8, 59, -3, 77, -38, -74, 0, 47, 22, -36, -60, -48, 20, 58, 56, 23, -44, 22, 60, 62, 9, -32, 42, 3, 52, 28, -28, -32, -42, -34, 47, 35, 48, -18, -49, -14, 16, 15, -9, -11, 21, 31, 40, -49, 49, 13, -42, 72, 22, -56, -2, 17, -51, 38, 75, 9, -36, -58, 95, 21, 97, 68, 72, 61, 76, 34, 79, 96, -8, 56, -46, 69, -27, 9, -15, -65, -50, -9, -20, 24, -81, 12, -45, -61, -85, -20, 34, 31, 39, 5, 36, 24, 63, 5, 23, -19, 88, 3, 42, -6, 18, 6, 99, 45, -5, -6, -56, 20, -57, 56, 87, 0, 10, 32, -12, -1, 69, -7, 68, -37, -68, -55, 8, 48, 61, -25, 84, 93, -20, 6, 8, 36, 59, -51, -28, 16, 59, 61, -38, 59, 20, 30, -15, 109, 101, 13, 66, 105, 98, -17, 7, 46, 72, -14, 6, 87, 96, 26, -40, 64, 3, 70, 83, 109, -31, 35, -20, 69, 80, 65, 3, -5, -67, 55, -31, 46, -32, -33, -53, 59, -60, 88, 70, 51, 37, -7, 64, 77, -49, -56, 4, -49, -11, 6, 32, 10, -8, 28, 11, 60, -23, -37, -40, 89, 65, 48, 4, 0, -27, -34, -4, 107, 85, 52, 69, 96, 15, 38, 102, 97, 108, 2, 73, 97, 46, 31, 24, 97, -4, 13, 95, 34, 53, 72, 38, 62, 59, 33, -57, -35, -5, 72, 18, 51, -71, 74, 10, 37, 74, 24, -40, -25, 74, 37, 65, 27, -39, 10, 10, -11, 71, -4, -16, -35, -36, -6, 11, 15, -40, 81, -50, 61, 80, 54, -33, 71, 51, -27, 84, 72, -3, -46, 5, 71, 13, 20, -28, 81, 81, 30, 54, 80, 68, 25, -27, 38, 82, 14, 37, 82, 68, -16, 55, 96, -20, -25, 14, -8, 12, -73, 49, 41, -4, 28, 86, 58, 28, 49, 109, -7, 29, 88, 66, 29, 5, -19, -42, -34, 101, 91, -58, 36, -1, 9, -56, -28, 35, 70, 46, -22, 23, 45, 63, -55, -35, -45, -33, -38, -68, -82, -65, 19, 3, -68, 80, -22, 23, 67, -57, -35, -17, -49, 107, 81, 94, 69, -2, 49, 97, 9, 85, 25, 89, -23, 75, 24, 73, 18, 73, 10, 16, 32, -32, -39, 63, 33, -50, 22, -57, -40, -37, 83, 18, -54, -10, 19, -27, -10, 42, 51, 25, -68, 73, 54, 0, -47, 32, 7, 53, -45, -37, -48, -96, -18, -67, 60, 39, 34, -58, 34, 12, -79, -16, 31, -78, -52, -5, 27, 102, 91, 50, 98, 17, -26, -9, 29, 80, 74, 62, 84, -42, 94, 29, 18, 15, -62, -69, 4, 23, 47, 75, 20, 67, -71, 73, -14, 16, -31, 100, 108, 65, 34, 85, 93, 109, -36, 85, 105, 44, 54, -32, 2, 93, 23, 32, 101, -12, 54, 32, 93, 99, 28, 104, 74, -7, 46, 41, 104, 102, 99, 41, 104, 39, -31, 97, 20, 73, 63, -17, 100, -27, 78, 46, 11, 40, 59, 97, 40, 99, 21, 46, 102, -37, 37, 70, -2, 94, 36, 41, -19, 87, 10, 54, 8, -83, -60, -65, 59, -23, -30, -53, -6, -51, -30, 41, 58, -50, 56, 71, 47, 46, 90, 10, 18, -27, 71, 31, 19, -15, 18, 27, -13, -9, -13, -64, -41, -18, 26, -33, 57, 24, -35, 42, 24, 7, -24, 32, 78, 17, 7, -28, 54, 74, 4, -33, -13, -24, 41, 4, -39, -49, -42, 13, 86, 23, -66, 87, -36, -49, -13, -27, -29, 80, -47, -29, -55, 57, -35, 36, -39, 15, 22, -6, -63, 59, 33, -22, 1, -52, 18, -3, -23, -69, 42, 49, 20, -58, -68, 28, 30, -4, -26, 8, 51, 44, -33, 47, -46, -59, -58, 42, 9, -17, -46, 23, -21, 45, -35, 53, 88, -7, 73, 6, -10, -26, 75, -14, 37, -11, -2, 80, -19, -40, 54, -4, 52, -59, -82, -34, -30, -73, 14, -67, 14, 5, 25, 20, 37, -25, 31, 44, 18, 75, 77, 46, 12, 28, 54, -39, 0, 65, 28, 64, 52, 5, 26, 105, 83, 6, 11, 63, 94, 78, 41, 70, -2, 37, 64, 84, 40, 19, 72, 42, 28, 101, 105, 10, 103, 50, -28, -19, -43, -1, 59, 78, -42, 49, 77, 24, 80, -14, -32, 19, 8, 101, 37, -39, 94, 75, 74, 16, 86, -24, 108, 108, 76, -28, 37, -7, -41, 98, 60, 56, 55, -19, 0, 55, 16, 1, -13, 90, 59, -17, 18, 88, 96, 51, 58, -3, 78, 65, -41, 42, -26, -38, 106, 38, -23, 46, 45, 96, 16, 107, 34, 59, 57, 101, 23, 39, -2, -39, -60, 76, -22, 78, 19, 22, -49, 70, -7, 44, 52, -62, 40, -29, -75, -40, -63, -62, -64, -42, -13, 41, -32, 17, 21, 3, -69, 72, -26, -3, 26, -23, 52, 18, -50, 38, -37, -35, 34, -36, -14, -18, 91, -4, -24, -22, -72, 1, 74, 25, -61, 36, 74, -33, 34, -40, 42, 21, -15, -3, -34, -75, -35, 50, 17, 18, 26, -38, -35, -56, -27, 4, -6, 32, -19, 71, 29, -40, -66, 9, 8, -14, -28, 61, 32, 30, 22, -57, 34, -76, -14, -30, -82, 34, -1, -14, 18, 28, 64, -80, 28, -70, 39, -6, 12, -30, 15, -40, 53, -21, 62, 65, 52, -44, 2, 1, -82, -35, 27, -81, 4, -80, 50, 41, 3, -77, -62, -16, 40, -57, 45, -44, 21, 44, -10, 67, -35, -67, 30, 20, 36, -38, -74, 31, -4, 37, 20, -8, 38, -32, 25, -85, 34, 10, -48, -18, 45, -74, 23, -38, -1, -26, -2, -78, -39, 63, 54, -90, 42, -57, 21, 62, -51, -52, -38, -67, 37, 61, -42, 9, -46, 42, -37, -90, -72, 34, 64, 29, 8, -76, -79, 26, -6, 29, -77, 37, -55, -61, -21, 37, -4, 67, 28, -72, -15, 26, -25, 53, -42, -81, 28, -4, 17, -70, 32, -44, -7, 67, 8, 68, 23, -1, -14, -4, -13, -77, -65, -66, 26, 38, 34, -50, -54, -52, 61, 44, -10, 39, -40, 52, 38, -58, 56, 25, 2, 58, 31, -63, -34, 8, -89, 45, 58, -26, 54, 46, -78, 19, 45, -63, -75, 18, -76, 38, 16, 56, -41, -26, 41, -83, 25, -23, -38, 27, 66, -75, 43, -20, 35, -11, -20, 61, 63, -16, -64, 2, 7, -17, 29, -3, 32, 11, -1, -36, 42, -15, -81, -24, -41, -68, -74, 27, -51, -9, -32, 52, 21, 11, -1, -86, 66, -68, 11, -7, 8, -34, -85, 35, -40, -41, 45, -42, -47, -19, 35, -26, 20, 30, 30, 26, 64, 60, -5, -40, 34, 56, -42, -30, 35, -68, 59, 13, 16, -29, 47, 12, 26, 9, -37, 62, -58, -28, 65, -58, -82, 18, -58, 1, 27, 50, -19, -76, -77, -56, -59, 53, 46, -30, 50, 27, -23, 73, -8, -73, 10, -4, -77, 66, -47, 38, 17, -55, -4, -3, -75, -3, 47, 60, -53, -74, -7, 19, -78, 23, -66, -18, -64, 29, -44, 36, 2, -19, 30, 17, -81, -37, -71, 33, -39, -21, 33, 61, 59, 4, -24, -23, 55, 26, -18, -73, 64, -70, -27, 68, -6, 71, -30, 5, -51, -11, 38, -44, -13, -58, 72, 59, -69, 52, -70, -80, 31, 14, 31, -67, 17, -64, -45, -68, -36, -5, 28, -30, -24, -86, 27, -54, 25, -71, -88, 25, 49, 71, -37, -66, -64, 68, 67, -58, -54, -77, -20, 5, 62, -33, -52, 6, -58, 54, -29, -81, 31, 67, 60, -37, 39, -83, 14, 16, 28, 38, 52, 17, -84, -77, 5, 44, 51, -51, -56, -15, -49, 20, -21, 63, 4, -51, 16, -21, 51, -21, 4, -45, -50, -6, 38, 47, 22, 17, -36, -28, 57, 41, -81, -47, -40, 43, 12, 32, -6, -38, -76, -80, 40, 8, -78, -22, -37, 67, -82, 24, -57, 30, -19, 47, -75, 32, 59, 40, 30, 44, -64, -45, -11, -5, -1, -48, 2, -81, 44, -27, 60, -29, 52, -9, 68, -12, 57, -1, 7, 16, -14, -35, -31, 46, 39, -34, -43, 16, -5, -11, 21, 30, 27, -57, -68, 10, 64, -50, 50, -62, -45, 22, -53, -8, 15, -14, 31, 12, -35, 39, -58, -53, 48, 64, 1, 60, -80, 36, -9, 35, 35, -42, 34, 7, -58, -60, 29, -19, -72, 11, 57, 59, 47, 69, 19, 62, 4, -60, -21, 6, 53, 47, 34, 41, 12, 56, 58, -65, -40, -17, 12, -41, -5, -26, 0, 65, -67, 28, -62, 58, -71, 3, 10, -9, 12, 13, 60, 25, 25, 32, 58, -61, 58, 24, -34, 54, -49, 53, -25, 62, -77, 19, 17, -37, -67, 10, 57, -75, 5, -62, -13, -1, -18, 37, 55, -13, -59, 2, -72, 22, -32, -80, -8, -16, 0, -4, 10, -26, -25, 33, 45, -38, -11, -30, 25, -16, -42, 69, 31, -73, 23, -13, -31, -22, 57, -18, 19, 58, -48, -44, 30, 31, -44, 54, 53, -9, -48, -59, 12, 17, 17, 56, -30, -44, 42, -19, 42, 24, 47, 31, -2, -2, 67, -26, -71, 44, 32, 45, 67, 35, 46, -71, 36, -65, 32, -65, -69, -43, -52, -47, 50, -5, 6, -18, -87, 14, 35, -76, -85, 30, 60, -64, -69, -69, -81, 28, 27, 23, 19, 9, -1, -9, 27, 6, -7, 34, -51, 4, -5, 66, -3, -8, 64, -45, 17, 54, -90, -32, 39, -64, 56, -75, 44, 63, 0, -65, -74, -30, 31, -73, 41, 65, -69, 29, 2, 23, -30, 71, 70, -28, 15, -41, 52, 20, -62, -42, -53, -35, -25, -75, -12, -47, -61, 27, -42, 39, 17, 14, -64, -80, -44, 44, 66, 4, 43, -76, -12, 31, 56, -72, -56, -25, -59, -41, 67, -61, -58, 58, 2, 50, 69, 14, -59, -77, 4, 48, 65, -34, -18, 8, -3, -67, -16, 12, 52, 15, 21, -52, 9, -69, -49, -5, -7, 52, 25, 1, -78, -68, -59, 19, -12, -43, 31, 51, 35, -16, 16, -18, -25, -3, -70, -59, -64, 63, 17, -12, -48, 7, 20, -68, -20, -14, -48, -78, 24, -75, -66, 2, -68, -37, -85, -74, -21, 49, -18, 45, -42, 16, 47, 2, 22, 57, 24, -57, 26, -17, -82, -7, 39, -23, 30, -60, -51, 15, 29, 71, 49, -41, -33, 50, 59, 3, 40, 50, 9, 58, -59, 26, 46, 20, -44, -34, -30, 23, 11, 25, -79, 67, 40, -8, 46, 6, -56, 20, 52, -77, -36, -7, -73, 45, 56, -52, 74, -79, 30, -62, 13, -67, 26, 34, -3, 11, 22, -58, -1, 46, -18, 16, -39, 53, 2, 31, 6, 4, -53, -34, -32, -25, -60, -25, -6, 23, -78, 52, -3, -52, -10, 59, -82, 11, 27, -60, 7, -35, -75, -60, 40, -37, -33, -45, 9, 9, 46, 9, -78, -44, -18, 46, 55, -5, 52, -82, -73, -75, -15, -5, 6, 41, 3, -7, -2, 46, -55, -46, -8, 43, -43, 24, -49, -24, -54, 12, 59, 60, -31, 1, 56, -13, -68, -19, 25, 21, 55, -3, 10, -51, 0, 8, -55, -86, 22, 65, -58, -2, 14, 66, 21, -47, 15, -55, 44, -78, 8, 17, 49, -14, -45, 30, 27, 43, 55, -36, -41, 44, -74, -51, 26, 24, -9, 56, -24, -70, 27, -76, 52, -19, 3, 24, 33, -71, 56, -76, -3, 56, -79, 35, 49, -40, -12, -47, -2, 38, 68, -6, -59, -51, -29, 71, 32, -6, 53, 11, -4, 17, 70, 14, -1, -8, 13, 36, -4, -42, -58, -66, 59, 12, 22, -27, -70, -75, -21, -34, -49, 57, 30, -6, 58, 67, 57, 43, -74, -38, 33, 7, -9, -40, 23, -41, 59, -68, 3, -80, -17, 68, 20, 7, -42, -75, 20, 65, 16, 44, -76, -22, -14, -42, -13, 29, -13, -51, 18, 34, -18, -6, 7, -33, -17, -25, 67, -40, -26, 4, 0, -9, 47, 48, 44, -17, 38, 1, 53, -53, 10, -70, 36, -74, -58, 47, -17, 56, 60, 17, -62, -17, -79, -66, 30, -12, -83, -49, 47, -66, 71, -29, 64, -50, -31, -17, -24, 60, -61, -51, -8, -41, -70, 64, 24, 54, 52, -18, 56, 3, -53, -44, -40, -73, 67, 32, -9, 50, -4, 50, 67, -48, -26, -26, 1, -4, 13, -81, 24, 8, 39, 32, 31, -15, -80, 59, 13, -83, -44, 64, 57, 31, 69, 26, -26, -77, 43, -39, 52, -45, -15, -62, -68, -26, -61, 16, 24, -64, 63, 1, -75, -70, -4, 69, -45, -24, -58, 51, 0, -28, 23, -37, -29, 59, -79, -23, 10, -34, 42, 31, 70, -1, 21, -79, -46, 67, -73, -22, 21, -58, -58, 41, 63, -47, -22, 43, -30, -10, -10, -20, -61, 20, 4, 9, -9, 35, 51, -78, -31, 12, -55, -34, -54, -1, 5, -69, -17, -35, 18, 11, -58, 62, -41, -57, 66, -78, -66, -46, -4, -52, 47, 54, -13, 59, 49, 32, 2, 13, 21, -21, 48, -65, 26, -76, -43, -31, -26, 55, 51, -26, 72, -46, 49, -70, 35, 70, -61, -1, -46, 56, 49, 16, -60, -69, -3, -12, 69, 6, 60, 33, -70, -14, 9, 15, -72, -49, 30, -37, 43, -74, -10, -1, -12, 26, -18, 40, 40, -17, -18, -63, -45, 35, 42, 18, -78, -22, -2, 15, -59, 24, -59, -76, -82, -55, 68, 44, -47, -49, 0, 59, 28, -19, -20, 58, -33, 48, 19, 61, -47, -46, 37, 42, -63, -64, -13, 54, 49, -77, -72, 49, -40, 36, -44, 24, 20, -26, 47, -11, 29, -13, 65, 49, -13, 6, 25, -14, -16, -29, -49, -6, -54, -38, 0, 15, 23, 41, -53, -13, -31, -57, -14, 47, 36, -59, 16, -44, -48, -66, 20, 56, 59, 30, 19, -54, 17, 48, 68, 71, -51, -21, -63, 40, -6, -5, 24, -15, -42, -73, -3, -50, 66, -61, 68, -69, 2, -52, 68, 21, 49, -27, -50, -25, -73, -3, 11, -10, -28, 7, 18, -9, 58, 17, -44, 11, -54, 13, 8, 9, 32, 5, -6, 8, -25, 49, -83, -55, -12, -51, -28, -15, -65, 1, 4, 21, -67, 3, -10, 19, 54, -13, 30, 6, -70, -76, -14, -2, 37, 9, -3, -33, -47, 15, 19, 66, -32, -27, 43, 16, -67, 12, -57, 16, -51, 41, 68, -73, 33, 8, -25, 19, -33, 24, -46, -50, -46, -77, -64, 1, -73, 0, -42, 10, 60, 6, 50, -51, 37, 41, 64, -29, -77, -55, -3, -60, -39, -41, -13, 16, -14, 61, 0, 43, -44, -19, -28, -66, -72, -77, -15, 41, -27, 59, 74, -44, 11, -21, 24, 12, -36, 59, -38, 28, 78, -37, 19, -23, 94, -28, 3, 10, 122, 68, 45, 97, 95, 98, 53, -48, -38, 13, 2, -60, -63, 48, 19, -28, -43, 60, 23, -18, -16, 7, 63, 21, -45, -70, 71, 76, 2, 11, 17, 84, 76, 114, 48, 3, 104, 53, 5, 31, 30, 111, 13, 0, 59, 70, -46, 47, 2, -77, 33, 32, 42, -6, -13, 37, -55, -20, -40, 1, -27, 96, 64, 69, 40, -17, 61, 36, 120, 0, 31, 44, 11, 51, -9, 93, 26, 76, 20, -20, 55, 107, 1, 22, 85, -35, 118, 63, 1, -29, 92, 8, 104, -16, 16, 7, 76, 31, 92, 25, 27, 8, 83, 25, 97, 47, -6, -38, -15, 0, 35, 19, -2, 25, -2, -25, 39, 57, 75, -60, -44, 22, 75, -36, 53, -25, -21, 53, -4, 19, 81, -29, 7, 32, 73, 24, 30, 78, 22, -34, 78, -13, 95, 2, -2, 25, -22, 78, 74, 111, 75, 87, -34, -29, 83, -9, 20, 67, 118, 34, 93, 52, 73, 60, 61, -12, 51, 0, 64, 15, 64, 34, -35, 23, 84, -34, 20, -70, 1, -56, -8, 61, -17, 42, -37, 32, -66, -46, 25, -16, 27, -59, -10, 83, -26, 1, -38, 36, -37, -41, 40, -5, 59, -57, 85, 96, 69, 16, 71, 95, -22, -48, 42, -5, 58, 0, 44, -30, -6, 8, -25, 107, -14, -2, 77, 105, 88, 81, -16, 119, 26, 13, -25, 25, 84, -2, -51, 85, 83, 34, 83, 86, 4, -30, 72, 42, 58, -5, -52, -48, -21, 104, 65, 82, 4, 32, 13, 32, -18, 56, 96, 73, 24, 43, -38, -13, 54, 43, 24, 0, -44, 87, 2, 60, 27, -47, -15, 73, 3, 83, -39, 85, 96, 0, -63, -63, -45, 77, 2, 43, 11, -54, 38, 72, -11, 61, 33, -23, 38, -1, 84, 119, 40, 85, -25, 52, 10, 65, -10, 92, -3, 44, 74, 31, 93, -12, -16, -3, -26, -21, -34, 32, 24, -34, -58, -16, 70, -56, 64, -11, -1, 21, 53, 0, -15, -58, -47, 77, -10, 11, 81, -18, -49, -28, 14, 17, 86, 21, -58, 74, -42, -45, 31, -47, -21, -27, -30, -48, 51, -32, 9, 44, 63, -35, 98, 5, 8, -8, 65, 80, 12, -40, 82, 30, 21, 12, 45, 88, 56, -75, 1, -36, 80, 62, -53, 12, 57, 26, -50, -71, 9, 22, 35, 23, 67, 81, 117, 108, 47, 35, -10, -21, 86, 51, -28, 90, 7, 35, 44, 91, 78, 105, 108, 6, 32, 64, 76, 92, 115, 78, -20, 0, 102, 46, 41, -39, 92, 85, 30, -7, 25, -5, 101, 96, -30, 43, 7, 85, 58, 31, 0, -3, 79, 4, 112, 81, 101, 27, 31, -6, 52, 68, 97, 21, -17, 46, 46, 103, 70, -50, -18, -69, -66, -50, -7, -14, 58, -4, -35, -23, 51, 48, -58, 22, 71, 37, 59, 60, 69, 39, -36, 28, 84, 43, 7, 11, -18, -9, 46, -26, 19, -57, -42, -60, 56, 52, -12, 24, 40, -45, 47, -56, -54, 74, 5, -68, -21, 37, -65, 59, 42, -40, -34, 56, 29, 37, -42, 57, 46, -17, 18, -30, 66, 16, 63, 25, -25, 23, 43, -32, -2, -12, 32, -1, 97, 21, 51, 61, 66, -11, 38, -55, 70, 63, -17, -50, -41, -32, 22, 20, 43, -29, 42, -59, 71, -6, 9, -30, 37, -28, -47, -46, -32, 12, 85, -36, -11, -55, 50, 76, 75, 76, -17, -9, -20, -1, 29, -49, -73, 68, 15, 81, 21, 52, 68, 77, -46, 83, -47, 87, 28, -71, -30, 27, -39, 13, -50, -70, 36, -38, -1, -41, -79, 102, 66, -22, 102, -12, 34, 99, 16, -36, 118, 64, 6, -18, 111, 60, 52, 69, 3, 56, 60, 76, -35, 92, 2, 71, -8, 26, 11, -61, -1, -14, -12, -17, 103, 115, 117, -35, 88, -23, 108, 47, 21, 120, 106, 65, 47, 104, 47, -18, 113, 111, -24, 22, 9, 115, 77, 24, -20, 105, 64, 54, 9, 12, -1, 49, 96, 72, 38, -17, 71, 112, 82, -2, 32, -33, 87, 26, 2, 61, -21, 67, -9, 76, 17, -17, 37, 75, -13, -14, 111, 100, 33, 38, -12, -12, 83, 13, 56, 89, 49, 47, 66, 125, 38, 94, 17, 53, 83, 40, 55, 110, -13, 59, -51, -12, 53, 79, 39, -20, -37, -13, -65, 74, -35, 19, -19, -8, -58, -20, 67, 67, 20, 29, -36, -32, -52, -16, 21, 44, 53, -34, 26, 61, -41, 76, -34, 46, 75, -26, 23, -40, 3, 59, 77, -43, 111, -58, -57, -11, -26, 81, -16, 50, 41, 2, 35, -27, 81, 26, 31, 12, -69, -69, 33, 20, 0, 18, 35, -20, 56, -66, 67, 4, 43, 40, -79, 4, -80, 17, -39, -43, 13, -48, 41, -82, 52, -13, -74, -28, 18, 2, -54, 55, 57, -58, 18, 23, -83, -20, 34, 46, 47, -73, -12, 25, 10, 0, 4, -17, -1, -27, 39, 69, 6, 15, -46, -1, -16, -79, -48, 14, 59, 7, -51, -42, -41, 52, -49, 34, -62, 23, 33, -40, -2, 52, -19, 15, 56, -32, -73, -72, 19, -24, 44, -78, 33, -74, -83, -82, -53, -2, 6, -63, -27, -71, -15, -35, -68, -34, -76, 38, 22, -45, 28, 17, -6, 19, 69, -28, -53, -1, 25, -31, -78, -34, -54, -31, 28, -64, -71, -60, 17, -66, 44, 44, -62, 7, 13, -24, 22, 39, 43, 3, -4, -65, 6, -24, -26, 71, 1, -77, -63, -43, 64, 61, 28, -73, -26, 22, 26, -32, 21, 0, -73, -31, -15, -20, -43, 47, -54, 53, -6, 2, 15, 45, -58, 7, -12, 26, -28, 37, 44, -14, -24, 24, 14, -5, -53, 60, 59, -32, 38, 62, -11, -49, -14, -32, -26, -66, 25, 42, 44, -76, -27, 62, -60, 1, -50, -76, -18, 27, 28, -82, -11, -67, -8, -77, 0, -65, -71, 39, -2, -9, 3, -37, -43, 71, 38, -18, -60, -31, -43, -60, 7, -15, 65, -44, 33, -67, -31, 16, 24, 53, -78, 52, 35, 58, 27, -1, -1, -3, -59, -57, 5, -6, -72, 52, -86, -71, 67, -65, -38, 58, -7, 31, 37, 44, 37, -71, -56, -25, -36, 32, 62, -21, -6, -53, -60, 55, -40, -62, -12, -29, 31, 58, 36, 7, 62, 60, 57, 57, -18, 34, -34, 45, 46, 64, -8, 59, -19, -23, -6, 5, 47, -23, 66, -68, -41, 19, -25, -10, -37, 53, -8, -48, 11, -31, -37, 70, -36, -69, -53, 64, -13, -75, 25, -15, 9, -81, 27, 35, -24, 51, -79, -38, -54, 14, -48, -82, -31, -76, -75, -22, -80, 69, -56, -3, 30, -11, 4, 11, -78, -8, 43, 22, -50, -32, -70, -20, -26, 25, -30, -11, 18, 18, 31, 50, 23, 68, -57, 68, 10, -54, -3, -30, -9, 0, 18, 72, -11, 31, 57, 44, -42, 50, 55, -47, 9, 2, 53, 40, 37, 25, 63, 18, 19, 56, -35, -18, -18, -79, 51, -74, -29, -62, 19, 38, -43, -75, 47, 10, -45, -47, -20, 11, -14, 11, -40, -69, -57, -45, 63, -17, -77, 28, 15, -1, 66, -54, 2, -67, 48, 68, 12, 2, 33, 8, -40, -58, 27, 9, 32, -28, 64, -58, 20, -23, -31, 40, 53, -84, -74, -22, 27, -69, -10, 41, -59, 49, -29, 66, -18, 40, -3, 15, -52, -54, 60, 68, -35, 38, 60, 44, -1, -12, -45, 16, -17, -36, -34, -34, 52, -27, -10, 62, 32, -82, 33, 11, -60, -39, -21, 50, -48, 35, 10, 23, -32, -16, 38, -50, -36, -34, -41, 20, -67, 8, 70, -1, -26, 38, -6, -25, 33, 36, 40, -47, -71, -52, 19, -3, -30, 49, -35, -6, -8, 61, 16, -22, -27, -6, 39, -33, -25, 25, 0, 67, -26, -46, 47, -42, 33, -11, 37, -51, 50, -31, 19, -6, -12, 63, 31, -7, -7, -18, 29, 62, -3, -69, 24, 32, 35, -36, 58, -75, -33, -5, -40, 60, 48, -80, 0, -1, -63, -48, -13, -13, 24, -45, 55, -35, 13, 40, 16, -48, 19, -64, 6, 45, -67, 9, -62, -45, -11, 51, 65, 30, 64, -47, -18, 55, -62, -42, 29, 45, -60, -47, 41, -79, -26, -35, 50, 22, 54, -30, -27, 56, 51, -77, -5, 6, -6, 39, -59, -53, 28, -36, 43, -40, -37, 7, -75, 7, -8, -41, 23, -45, 14, 50, -59, -1, 14, 50, -60, -13, -42, 1, -44, -75, -52, -67, 15, -51, 32, -23, 53, -35, 45, -73, -70, 24, 17, 12, 34, -81, -6, -45, -37, -3, -75, -10, 26, -70, -25, 20, 37, 67, 60, -64, -34, -37, -5, 60, 39, 37, -70, 35, 0, 41, 63, 34, 62, 67, -47, 4, -6, -11, -22, -64, 28, 65, -21, 2, 62, -39, 17, -3, 1, -9, -78, -72, -72, -15, 40, 42, -80, -27, 2, -35, -63, -72, -10, -75, -77, -60, -41, -60, -39, -60, -15, 39, -34, -5, 25, 47, 40, -73, -8, 14, 67, -55, 25, -69, -23, 53, -29, -67, -73, 61, -17, -16, 4, 59, -67, -32, -63, -53, -9, -45, -20, -74, -77, 57, 37, 0, -32, 26, 32, -36, -24, 61, -20, -52, -46, -23, -66, 10, 64, 3, 14, -13, -70, 42, -68, -67, -55, 36, 18, -34, 52, -68, 39, 7, 8, -29, 69, 27, -16, 21, -53, 47, 67, 38, -51, 19, -30, -62, 11, 64, 36, -50, -60, 7, 64, -7, 63, -66, 24, 22, 12, -51, -66, -13, -67, -28, 65, -7, 67, -63, 28, 45, 70, 71, 5, 2, -10, 62, 16, 90, -41, 90, -10, 100, 2, 28, 40, 4, 64, 22, -96, 16, 0, -26, -78, -8, -86, -28, 33, -46, -75, -35, -57, -35, -22, 94, 106, 6, -30, 86, -29, 104, -13, 69, 24, 18, -29, 40, 92, 76, 56, -64, -37, 61, 3, -50, 54, -74, -48, 7, 74, 20, -11, -55, -69, 75, 47, 32, 4, 73, -51, 46, -18, 32, -34, 79, 94, 21, 51, -24, 0, 80, 71, 1, 102, 89, 81, 112, -21, 51, 87, 30, 29, 57, 84, 34, 36, -17, 71, 106, 47, 110, 44, 9, 13, 76, 104, 82, 109, 99, 42, 103, 96, -20, -31, 37, 21, -42, 4, 36, 44, -21, -53, -38, 47, -32, 36, 54, 87, 25, 71, 37, -58, -6, 4, 33, -30, 78, 4, 18, -30, -32, -11, -10, -19, 5, 19, 17, 101, 59, -21, 80, 93, 102, 72, -21, 88, 85, 34, 1, -44, -9, -1, -13, 37, 14, 42, 82, 33, 103, 21, 88, 30, 44, 106, -25, 83, 8, 67, -7, -38, -65, -60, 60, -31, 58, -13, -75, 68, 28, 20, -19, 39, -68, -12, -27, 76, 8, 23, -3, -6, -61, 79, 23, -40, 52, 26, 11, -35, -46, -57, -27, 34, 58, 33, 85, 13, 52, -57, 89, 80, 49, 89, -5, 35, 3, 19, 73, -21, 15, 48, 94, 65, 70, 64, -1, 92, -38, 3, 2, 10, -11, 27, -59, 5, -70, 8, 55, 79, -10, 17, 37, 6, -73, 46, -62, -10, 41, -6, -3, -4, 7, -19, 83, 61, 42, 35, 82, 40, 74, -12, 79, 28, -19, 57, -31, 50, -30, 23, 53, -11, -3, -20, 75, 73, 8, -47, 3, 90, 80, 15, -66, -66, 25, -39, -44, -22, -75, 8, 23, 1, 66, -80, -2, 1, 24, 73, 73, 111, 91, 55, 82, 4, 15, 26, -1, 44, 82, -15, 60, 52, 77, 3, 49, -41, -61, -16, 58, -59, 17, -23, -64, -61, -56, 12, -45, 3, 78, -63, -33, 57, 70, -59, 38, 79, 49, 34, -13, -74, 29, -37, -29, 0, -70, 76, 42, 23, 29, -24, 18, -50, -74, 27, 16, -40, 22, 20, -74, -41, -49, -67, 56, 80, 29, 1, 86, -26, 114, -29, -25, 93, 96, -42, 2, 70, 82, 50, 8, 36, -51, 65, -51, 35, -21, 30, 36, 20, -30, -6, 69, -6, -5, 54, 8, 88, 53, 104, 62, 82, 60, -42, -40, -28, 104, -19, 30, 31, 10, 94, 78, 36, -35, 35, 93, 24, 92, 23, -19, 86, -35, 36, -3, -34, 73, 74, 37, -28, 83, -10, 66, 109, 104, 76, 62, -39, 39, 92, 81, 9, 50, 83, 0, 62, 97, 86, 101, 30, 7, 25, -38, 37, -32, -18, -40, 42, 66, 38, -61, -4, 33, -54, 43, 1, -78, -55, -72, -78, 72, -74, 48, 42, 23, -17, 24, 1, 58, -12, -35, -15, 34, 0, -32, -41, 70, 70, 76, -29, -43, 24, -57, 64, 10, 24, 22, -23, -50, 58, 42, -49, -33, 58, -29, 2, -30, -10, 63, -16, 21, 69, -33, 62, 21, -59, 4, 78, 55, -11, -36, 62, 46, -26, 79, 71, -47, 22, 41, 62, -6, 12, -36, -3, 39, -26, -6, -39, -57, 60, -58, -14, 18, 31, 9, -27, 24, 65, 4, 49, -32, 33, -50, 12, 8, 45, 67, 57, 2, -57, -66, -44, 67, 62, 23, 42, 57, -19, -12, -5, -13, -36, 1, -6, 20, -10, -63, -20, -9, -68, -1, -61, -52, -43, -1, 56, 61, -54, -28, 66, 10, -60, -10, -40, 22, 10, 12, -71, -36, -31, -1, -66, 45, 25, 84, 68, 94, -23, -32, 114, 20, -10, 37, 24, -33, -6, 51, 38, 1, 108, 38, 1, 35, 86, 24, -42, 89, 22, 0, 5, -40, 102, 81, 15, 81, -4, 30, 0, 17, 68, 67, 89, 92, 30, 39, 39, 57, 34, 84, -30, 49, 46, 60, 104, 29, 56, 15, 70, 64, 37, 114, -32, -28, 59, -30, 98, 49, -2, 5, 90, 66, 103, 86, -17, 67, 92, 82, 99, -24, -23, -25, 46, -35, -20, -42, 49, 49, 34, 13, 30, 65, 95, 13, 70, 77, -34, -41, 35, 101, 50, 95, 8, 60, -38, 76, 70, 26, -26, 57, 5, 10, 33, 42, 13, 93, 30, -4, -55, 40, -4, 15, 44, -12, 56, 25, -30, 41, 67, 38, 17, 30, 29, 24, 13, 35, 47, 52, -46, 35, 24, 13, -51, -69, -75, -34, -74, -74, -53, 81, 79, -2, -22, 8, -28, -42, 72, 3, 83, -34, -2, -40, 75, 2, 88, 67, -64, 54, -60, -4, 69, 31, -28, -18, 58, -49, -51, 48, 53, 60, 65, 48, -38, -31, -77, 33, 30, -87, -1, 6, 38, -58, -58, -33, 4, 35, -26, -62, 35, -24, 9, 37, -46, -54, 57, 33, -1, 22, 14, -41, 36, 71, -18, -7, -61, -4, 59, -61, 37, -65, -40, -66, -24, -61, -82, 42, 33, 53, -11, 10, -63, 7, 6, -22, -39, 34, -57, -22, -86, -67, 93, -8, 44, -69, -35, -10, 56, 66, -25, -55, 13, -12, -62, 36, 23, -64, 66, -45, -7, -10, -43, 55, -96, 12, -73, -61, -82, -58, -27, -72, -84, 38, 62, 46, 57, -59, -64, -26, 53, -54, -51, -1, -69, 34, -23, -61, -77, -78, 30, -25, -4, 68, 59, 28, -19, 4, 30, 16, 14, -72, -14, -69, -84, -21, -18, -55, 67, 51, 53, -50, -39, 50, 45, 3, -26, -27, -67, -84, -87, 2, 25, 53, 64, -39, -69, 4, -39, -60, 49, -37, -45, -42, -38, -42, -81, 44, 12, -63, -47, -47, -4, -47, 43, -47, 33, 47, -28, -50, 79, -9, 57, 62, 69, -47, 6, -60, 7, -82, -28, -15, 16, -53, 5, -85, 61, -10, -1, -41, -21, -37, -70, -7, 28, -33, -77, 24, -62, -68, 23, -60, 32, 27, 49, -41, -21, -33, -82, 20, -97, 30, -50, -58, 20, 52, 57, 15, 73, -45, -39, 2, -44, -16, -41, -6, 45, 39, 32, 8, -74, -54, -59, -5, -6, 23, -5, -28, -50, 63, 38, 32, 23, -89, -31, 15, 8, -26, -67, -74, 21, -56, 46, -35, -32, 28, -80, -48, -14, -62, -64, -9, 64, -73, -36, 38, 36, -41, 25, -58, 45, 32, -73, 10, -58, -87, -56, -26, -83, -47, 1, 43, 18, -80, -7, -76, 26, 7, 11, -70, 50, -34, 28, -23, -49, -76, 52, -9, -74, -56, 19, -22, -41, 27, 61, -27, 82, -16, -75, 18, 62, 35, 59, -20, -8, 0, -57, 22, -66, -41, -19, 50, -72, 32, -83, -94, 15, -80, 34, 15, 18, 62, -8, 11, 40, -20, -26, 62, 90, -83, -86, -73, -6, 33, -10, -83, 55, -66, -44, -2, -68, -11, 62, -23, -67, 3, -57, -3, -76, 9, -66, -88, -28, 13, 49, 34, 3, -61, 47, -61, 82, 33, -18, 55, -27, -21, 0, -51, 63, -76, 56, -7, -21, 52, 25, -42, -74, -55, 20, -50, 49, -69, -44, 26, -71, -41, 1, 63, -5, 37, 30, 66, -70, 28, -65, 23, -75, 45, -21, -22, -75, -80, 57, -45, 30, 22, -70, 28, -37, -39, -64, -34, -39, -54, 40, -82, -26, 2, 57, 46, -35, -33, 59, 50, -12, -2, 47, -40, -61, 44, -44, -64, 7, 25, 14, 64, -50, 36, 15, -13, 91, -71, -4, -97, 6, -39, -73, 23, 39, -39, -65, 57, -14, -48, -57, 74, -52, 48, -47, -30, 49, -30, -19, -73, -71, -32, -51, 66, 1, -41, -80, -65, -50, -47, -10, 48, 49, -31, 39, 51, -23, -21, -43, -37, 26, -71, -80, 33, -81, 5, -71, 8, -21, 31, -54, -39, 21, -42, -13, -69, -17, 54, 8, -18, 47, -21, -29, -52, -31, -70, -72, -79, 23, -50, -12, -41, -80, 43, -54, -10, -4, -14, -65, 26, -26, 8, -59, 26, 27, -37, -86, -57, -13, -68, -89, -51, 25, -26, -81, 28, -15, -10, -48, -4, 14, -68, 15, -36, -57, -48, 73, -54, -63, 3, -52, -52, -73, -80, 20, -76, -50, 53, -61, 35, -21, -26, 49, -67, -86, 57, -16, 24, -3, -68, -87, 48, 23, -5, -12, 18, -24, 4, -5, 47, -29, 28, -15, 32, 72, -28, -51, 28, 49, 52, 42, -17, 15, -85, -69, -14, -62, -22, -53, 6, -66, 38, 28, 28, -8, -66, 24, -46, 20, -44, -30, 3, 29, -91, 29, -37, 23, -93, 32, 28, -47, 4, -33, -58, -41, 31, 1, 16, 75, -32, -86, 40, -12, 43, -21, -8, -59, -52, -67, -2, 81, -37, 34, 20, 18, -48, 23, -90, -69, -31, -73, -77, 40, 62, 45, -19, -22, 71, 66, 44, -32, -93, -6, -74, -34, 53, -66, -70, 33, 3, -50, -16, 61, -80, 31, -48, -21, -10, -45, -30, -59, -76, -84, -7, 51, -9, -13, 0, -38, -73, -63, -54, 22, 43, 12, 46, -89, -87, -77, -20, -52, -63, -75, -6, 92, 46, -62, -31, 37, -82, -20, 41, -87, -67, 24, -38, 30, -12, 56, -39, 65, -62, 17, -25, 4, -60, -84, 64, -22, -88, -20, -52, 25, -25, -61, 44, -66, 52, -38, 20, 14, -82, -59, -37, -26, 31, -34, 3, -1, 18, -64, -26, -77, 52, -62, 43, -17, 42, -19, 46, 54, -80, 21, 28, -68, -71, 36, -22, -45, -41, -80, -86, -38, -43, 26, 9, 44, -58, -51, 0, -64, 49, -82, 47, 55, -85, 36, 6, 18, 46, 2, 59, -11, 18, -28, 11, 82, -25, 10, 2, -67, -84, 41, -17, 20, 71, -59, 4, -81, 50, -4, 4, 2, 28, 82, 28, -34, 79, 50, 46, 7, -75, -31, -2, -42, 0, -3, 3, 62, -62, -27, 27, -26, 38, 50, -75, 66, 90, 39, -19, 6, 12, 53, 35, -86, -13, -67, 55, -54, 68, 31, -74, 2, -31, -11, 28, 78, 7, 39, -73, -60, -57, -79, 27, -13, -52, -5, 42, -8, 77, -40, 51, -10, -20, 14, 23, 15, 86, 16, -82, 52, -3, -55, -10, -23, 47, 2, -64, -71, -3, 9, 45, -14, 18, 77, 45, 12, 9, 5, -13, -45, -24, 45, 59, -24, -21, 3, -21, 39, 97, 30, 15, -61, 22, -1, -83, -19, 35, 13, -9, 17, -1, 84, 34, 62, -68, -42, -18, 79, -3, -29, 33, 39, -61, 12, 61, 41, -9, -38, -15, 23, 48, 74, 18, 18, 70, 19, 24, -30, -49, 27, -39, -78, -37, 33, -14, -63, -9, 7, 15, -47, -22, 12, 9, 3, 92, -31, 43, -87, 36, 75, -84, 53, 60, 21, 17, -34, 51, 39, -7, 3, 4, -29, 42, -53, -79, -78, 5, 42, -26, -14, -13, 74, 23, -8, -24, -44, -19, 64, 63, -21, -67, -50, 68, 42, 75, -56, 36, -43, 21, -71, 5, -72, 65, -29, -16, -59, -45, 42, 11, 30, -61, 55, -12, -66, -6, -22, 0, -60, 39, -35, -58, 40, 5, 10, -75, 5, 76, -55, -63, -11, 76, 66, -52, 11, -62, -12, -12, 51, 28, -59, 32, -11, 15, -24, 52, -73, -26, 3, -33, -42, 30, -62, 22, -56, 54, 62, -71, 27, 93, -1, 31, 47, -10, -46, 50, 5, -67, 77, 47, -13, -23, 76, 3, -19, -43, -51, -50, -70, 73, 87, 80, 71, -69, 2, -61, 48, 28, -36, 54, -25, -77, 44, 59, -20, 75, 15, -9, -8, -48, -10, -73, 55, 68, -18, -11, -71, 92, -14, -68, 27, 62, -63, 11, -58, -77, 60, 54, -41, 34, -40, 23, -26, -16, -25, -64, 44, -70, 46, 34, 24, -22, 1, -15, -41, -11, -39, 59, -6, 43, 13, 25, 45, 50, 75, 73, -35, -58, -78, -56, -52, -14, 38, -28, -9, -22, 42, 42, 73, 12, 24, -52, 50, 42, 29, -27, -85, 90, -20, -39, -41, 46, 78, -79, -63, 72, 8, -23, 46, 36, -61, 83, -31, 59, -22, 86, 15, -40, 77, 25, -4, -52, -59, 43, -13, -57, 50, 37, 41, 6, 42, 68, -2, 49, 72, 35, 64, -5, 22, -26, -40, 5, 57, 33, 20, 26, -19, -47, 60, -35, 11, 16, -31, 41, 27, 25, 13, 62, 40, 49, -87, 17, 0, -1, -1, 99, -37, 30, 1, 75, -57, -78, -14, -52, 60, 56, -9, 103, -9, -51, -62, -35, 67, -7, -86, -27, -20, -56, 12, 10, 4, -15, 72, -35, -75, 65, -58, 52, 31, 81, 43, 57, 71, 33, 37, -9, -53, -11, 8, 24, -15, 65, -12, 11, 23, 20, 58, 76, -45, 37, -1, 10, 59, -70, -15, 20, -53, 32, -15, 21, 8, -36, -15, 3, 20, -15, -40, 29, 65, 47, 17, -75, 38, 14, -55, 50, -40, 21, 34, -49, 60, 28, -22, -33, 7, 70, 84, 32, -46, 10, -17, 78, 4, -47, 63, 4, -19, 57, 23, 9, -2, 45, -9, 59, 41, -23, 53, 4, -61, 65, 47, 38, 35, -15, -51, -14, -78, 76, 39, 54, -33, -39, -6, -67, 10, 32, 69, 53, -48, -35, -55, -4, -65, 31, 60, 45, -69, -51, -43, 0, 8, 59, -77, 28, -38, -38, -24, 68, -53, 43, -22, -2, 13, 39, -7, 31, -65, -74, 21, 32, -29, 54, -28, 35, -41, -75, -69, 37, -26, 72, -42, 27, 88, 45, -70, 99, 44, -14, 4, 64, 26, 70, 32, -53, -34, 70, 38, -54, 22, 8, -52, -17, -29, -53, 49, -25, 87, -44, -12, 15, -31, 52, -41, 57, -17, 26, 14, 75, 60, -21, 37, 51, 59, 73, 26, 87, -33, -4, 51, 52, -30, 27, -36, 74, -62, 27, -55, 93, 13, -26, 43, 38, -16, -9, 8, -15, -12, -17, -5, 67, -51, -22, -62, 32, 55, -30, 26, 84, -65, 17, 7, -5, -36, -16, 29, -27, -25, 64, -16, -22, 87, -22, -81, 43, 67, -78, -46, 26, -21, -54, -85, 26, -48, -11, -34, 21, 6, 20, -13, -77, -54, -78, 23, -50, -65, 47, 7, 58, -21, -45, 15, -62, 12, -35, 24, -29, 43, 54, 60, 23, 34, 68, 65, 1, -49, -5, -9, -30, -38, -19, 96, 55, 91, 103, 85, 17, 58, -4, -28, -38, 79, -43, -54, -59, 76, -40, 69, 1, -44, -16, -53, -81, -23, 13, -49, -73, 47, 7, -4, 37, 18, 15, 60, 45, 24, -53, 70, 43, 76, -29, -37, 6, -59, 71, -31, 48, 99, 100, -23, -40, 84, 105, 102, 74, 54, 17, 61, 72, 71, 14, -54, -19, -17, -29, -73, 41, 82, -35, -56, 76, 16, -60, 14, -30, -30, -32, -19, 75, 34, 14, 36, -14, 97, 69, -14, 44, 35, -37, -33, 39, 34, -48, 74, 45, -40, -19, 75, 3, 15, -61, -3, -40, 35, 23, 9, 28, 66, 59, 7, 13, 28, 51, 69, -6, 95, -11, 22, 76, 18, -43, -1, -29, -24, 34, -48, 56, -6, 74, -7, 65, 27, 53, 48, -23, 38, 66, -29, 68, 91, -11, -39, 74, 33, 36, 40, -22, 50, -39, -46, -29, 67, -8, -39, 44, -31, -6, -14, 57, 33, -32, 34, -29, 73, -27, 2, -50, 86, 1, -46, 7, 0, -12, -5, 23, 40, 70, 50, 24, -13, 34, 26, 63, 57, 59, 3, 46, 68, 43, 74, -47, 66, 18, 19, 93, 77, 46, -10, 98, -33, 42, -29, 48, -40, -25, -53, 52, 24, 72, 49, -37, 94, 100, 26, 62, 7, 97, -68, -24, 18, -23, 74, -50, 47, 9, -44, -3, -52, -51, 80, 28, 25, 6, 82, -1, -56, -73, 1, 103, -41, 87, -28, -13, -6, 75, -53, 44, -33, -11, 23, 29, 16, -66, 72, 101, -52, 84, 47, -11, 86, -4, 100, 63, -16, -13, -44, 50, -10, 18, -2, -17, 78, -50, 8, -37, 49, 90, -19, -3, -37, 90, 27, 39, 1, 53, 19, -30, 23, 22, 95, 87, -3, 6, 86, -40, 65, 62, 42, 62, -44, 13, -10, -48, -24, -8, 59, 101, 15, 99, 4, 74, 44, 19, 36, -29, 9, -34, -56, 7, 29, 42, 7, 14, 65, 71, 93, 2, 58, 1, 53, 81, 66, 49, -42, 81, 48, 73, -56, -32, 78, -24, 20, -39, -44, -45, 42, -6, 45, -59, -6, 37, -37, 13, -28, 26, -19, 9, 15, -11, 96, 22, -21, -34, 59, 59, 61, 16, 13, 43, -75, -16, 31, -45, -32, -43, 68, -33, -5, -37, -15, 20, -26, 19, 41, -41, 61, 88, -4, 7, 74, 11, 84, 39, -6, 57, 49, 17, 63, 7, 82, 47, 62, 85, -49, -63, 63, -28, -67, -44, -65, -70, -35, 61, -3, 70, 24, -10, 38, 66, 8, 97, 34, -5, 9, -39, 65, -23, 42, 21, -57, -49, 81, -18, -48, 43, 65, -66, 24, -62, -9, 64, -58, -54, -4, 17, 26, 56, -21, 36, -31, 94, 103, -22, 78, 29, -5, 88, 47, 4, -60, 27, -23, -59, -6, 99, 25, 3, 92, 69, 1, -41, 102, 41, -33, -30, 3, -7, 40, -25, 65, -32, 28, 102, 106, -16, -27, -46, 96, 47, 60, 50, 40, -1, -36, -30, -8, 11, 66, 53, 32, 27, -25, 115, -1, -21, 61, 67, 65, -34, -48, -66, 28, -66, 73, 45, 12, 57, 12, -45, -48, 77, 70, 13, -8, -59, -65, 12, -39, -23, 74, 64, 47, 100, -30, -37, 26, 90, -32, -28, -6, 81, 16, 77, -52, 32, 80, -68, -23, -61, 51, 75, -29, 3, -13, -40, -58, -69, 39, 36, 21, 82, 17, 23, 24, -42, 7, -53, 75, 63, 58, 19, -31, 2, 2, -36, 37, -34, 94, 9, 65, -9, 7, 45, -31, 20, -5, -33, 46, 75, 34, 64, 52, -53, 7, -3, 39, -70, 44, -56, 64, -19, -37, 31, -24, 75, -49, 16, -8, -4, -38, -23, 48, -71, 15, 39, 44, 24, -19, -38, -31, -57, 71, -9, 15, -45, -19, -12, 69, -51, 36, -52, -41, -1, -19, -44, 71, -14, 26, 27, 41, 20, -24, 2, -1, -37, 44, 18, -43, 14, -28, 16, -8, -44, -39, 48, -56, 99, -40, 3, 34, 23, 12, 60, -19, -8, -20, -43, -18, 31, -40, 57, -10, -16, 1, 27, 37, 15, 24, -36, -19, 6, 67, -39, 33, 95, 88, -34, 45, 1, 101, 57, 102, 43, -5, 26, -3, 39, 37, -18, -36, -55, -39, 39, 61, -2, 38, -18, 54, 55, 23, 27, -33, 52, 38, 90, 30, 42, 58, -18, 32, 73, 29, 27, 64, 104, 75, 50, -4, 66, -3, -7, 8, 14, 1, 46, 57, 96, 89, -13, 66, 43, -31, -39, 65, -21, 2, 27, -58, 80, 32, 54, 51, 54, 15, -7, -36, -7, 95, 60, 27, -21, 79, -34, -22, 72, 25, -38, 72, 37, 14, 73, 56, -55, 58, 86, -38, 65, 33, -52, 11, 20, 51, 22, 87, -28, 14, 30, 63, 3, -13, 40, -46, 34, 35, 56, 46, -50, 56, 8, 2, -42, -23, -57, 73, -8, -14, 62, 103, 36, -15, 34, 49, 72, -2, 76, -42, -56, -4, 70, 67, 42, 35, -63, -53, 40, -31, -16, -60, 28, 35, -79, 67, 58, -4, 64, -75, -63, 57, 47, -24, -65, 26, 47, -34, -36, -8, 1, -30, -84, -3, 33, -19, 66, 38, -56, -26, -53, -33, -49, 33, -21, -1, 9, -23, -15, -73, -32, 8, 58, -81, 55, -46, 27, 34, 8, 16, 0, -52, 28, 11, 62, -30, -71, -13, -9, 22, -79, 52, 13, -19, -78, -61, 66, 39, -34, -65, -25, -35, 42, -28, 34, -74, -36, -81, 38, -23, 39, 45, -76, 47, 65, 64, -5, -34, -20, 73, 60, 8, -43, 59, -25, 39, -55, 69, -17, 25, 8, -16, -54, 47, 41, 69, -54, 42, 37, -32, 73, 40, 23, -72, -14, 1, 40, -36, 14, -15, 45, -32, -17, 61, -52, 52, 18, 49, 71, 47, -44, 42, 10, -70, 54, -46, -78, -76, 54, -7, -1, 14, 36, -36, -12, -50, 54, -39, -50, 68, 11, -39, 25, -3, 65, 7, -50, 16, -78, -27, 26, -10, 9, -38, -59, -78, 23, 27, -37, 32, -76, -71, 2, -52, 54, 55, -61, 16, 60, 51, 19, -39, -72, -58, -67, -59, 22, -15, 52, 36, -42, -36, -11, -33, 20, -74, -38, -5, 68, -11, 64, -13, -47, -75, -74, -18, -52, -82, 12, -78, -41, 33, 40, 34, 65, -5, 28, 68, -1, -26, -15, -46, -50, -5, 1, -68, 28, -82, -81, -35, -24, -62, -26, 58, -10, -82, -70, -34, 43, 61, -16, 44, 17, -85, -5, -64, -74, -58, -80, 2, -21, 49, -63, -41, 24, -31, 62, 43, -63, -52, 11, 61, 6, 60, -49, 37, -10, -60, 67, 56, 62, 59, -36, -33, -63, 47, 36, 24, -36, 23, 59, -16, 14, -26, -55, -47, 17, 70, 5, -58, 44, 20, -4, 58, 39, 34, -84, -86, -16, 62, -2, 64, -27, -31, 34, 58, 30, -3, 50, -35, -12, -84, -24, -37, 21, -55, -18, -19, -22, 39, 1, 67, -50, 68, 25, -86, 1, -22, -21, 38, -61, -28, -41, -43, 24, 35, 51, 33, -18, 56, 22, -13, -24, -25, -73, 30, -48, 4, -70, 66, -30, 63, -52, -74, 36, 14, 57, -70, -32, -27, 27, -76, -1, 57, 25, -56, -36, -25, 9, -29, 52, -59, -8, 40, -26, 67, 15, 58, -67, 52, 8, -26, 62, -32, -48, 4, 11, 27, 46, 60, -2, 67, -64, -63, 18, -1, -80, -10, -24, -13, 55, -42, -1, 30, -3, -78, 61, -86, 4, -49, 65, -14, -72, -81, 46, -9, 55, -28, -1, 34, 18, 56, -75, 53, 32, -17, 28, 49, -72, 11, 38, 34, -51, 46, -51, -6, -6, -7, 56, -46, -50, -70, 41, -6, -27, 24, -37, -42, -21, -26, -19, -10, -64, -1, -32, 23, 23, -41, -17, -3, 26, 63, 17, -24, -16, -12, 69, -16, -38, 11, -70, 8, 18, -3, 54, -52, 9, -69, -29, -80, 34, -3, 4, 58, -23, 39, 21, 15, -30, 21, -3, -27, -74, -47, 0, 2, 64, 18, -68, -6, 54, 10, -72, -64, -71, -81, 47, 42, -69, -62, -20, -54, 5, -62, -31, -19, -16, -49, 63, 0, -35, 56, 30, -56, -20, -44, -43, -35, -41, -78, 24, 34, 32, 54, -4, 65, -22, 29, -79, 69, -36, -38, 1, 34, 13, -49, -13, 30, -66, -27, 60, 1, -46, -23, -27, 5, -11, 66, -7, 72, -33, 53, -77, -63, 33, -50, -42, -23, -36, 52, 40, -71, -74, -23, -15, -15, -7, -28, -46, 12, -11, -59, -58, 18, -58, 59, 24, 20, 55, -20, -73, -50, 54, -36, -43, -4, -6, 28, 0, -54, 49, 63, 18, 4, -36, 55, -1, 43, -13, -29, -18, 15, 32, -75, 8, 12, 49, 12, -69, -43, 52, 53, 19, 23, 27, 32, 11, -24, -75, 37, 41, -56, -32, 46, -34, 1, -29, -53, 57, -29, 16, -49, -9, 0, -22, 62, -8, -43, -37, 42, -64, -15, 47, -61, 29, 2, 9, -72, 4, -30, -16, -40, 0, -47, -64, -78, -67, -4, 66, 22, -24, 26, 39, 51, 34, -12, 10, -28, 20, 46, -63, 37, 11, 11, 5, -59, -45, -48, -15, -17, -66, 25, -59, -16, 24, -75, -24, 59, 8, -37, -51, -27, -65, 68, 65, 30, 42, -47, 70, 25, 35, -25, -55, -53, -26, -37, -73, -37, -55, -34, -57, -77, -58, -10, -10, -45, -47, -77, 31, -27, -81, -51, 2, -40, -74, -48, -66, -48, 39, -86, 6, 18, -14, 41, -43, 9, 4, 66, 12, 49, -32, -24, -38, -7, 34, -36, 49, 68, 11, 67, -70, 23, -10, -7, -64, 46, 21, 4, 14, -18, 55, -14, -80, 26, -22, -9, -38, -40, -19, -54, 58, -44, -38, -72, -35, 37, -29, 21, -15, 23, -7, -45, 21, 27, -63, 63, -60, -26, 44, -72, -18, 12, -65, 57, 38, 41, -10, -59, -34, -3, -45, 58, -38, -67, 62, -60, 4, -4, 19, -82, -43, -72, 50, -65, 64, 21, 63, 48, -8, 13, 45, 40, -1, 53, -82, 54, 61, 4, -15, -24, 44, -56, -84, 60, 31, 48, 29, 7, -39, 54, 66, -47, 56, -56, 35, 36, 26, -37, 33, 19, 6, -55, -64, 8, 42, -44, 11, 33, -23, 66, 49, -81, 27, 15, 39, -75, -53, 38, 18, -15, -3, 49, 64, -31, -84, -75, 66, 6, -45, -37, -17, -67, -18, 51, 0, 40, 34, 16, -59, -36, 10, 42, 23, -53, -51, -64, 17, 62, -41, 7, -45, 35, -70, 37, 70, 42, 19, 56, 9, -28, 7, -59, -70, 37, 39, 13, -73, 56, -37, -33, 6, -43, -5, 54, 3, 67, 56, -67, 41, -40, -47, -22, -28, -52, -1, -79, 57, -78, -16, -74, -18, -7, 37, -57, -5, -47, 61, -64, -8, 35, 51, 27, -6, -19, -52, -70, -14, 20, -20, 17, 62, -72, 61, 27, -83, -58, -19, -47, -45, -15, -64, -2, -43, -33, 44, 9, -65, 51, -15, -66, -77, 63, 47, -14, -74, 58, 8, -43, -72, -8, -31, 54, 68, -85, 46, -61, -2, -6, 40, -83, -25, 59, 31, 35, -63, -65, -68, -11, 41, -24, 42, -42, -79, -12, 7, -22, 50, 27, 56, -17, 28, 43, -26, 22, -15, 10, -56, -26, -6, -24, 59, -25, -16, 30, -50, 54, -74, -68, -13, 61, -15, -77, 11, -75, -44, -47, -72, -32, -60, -27, 30, -10, -53, 14, 45, 54, 68, -35, 28, 57, 23, 0, 24, 14, -73, -69, 51, 5, 69, 10, 18, 57, 39, 6, -47, -70, -67, -1, 28, 43, 52, -53, -29, -3, -73, 30, -6, 42, -61, 56, 43, -19, 48, 56, -45, 22, -62, -74, -79, -8, -19, -74, 3, 65, -59, 34, 35, -24, -79, -85, -72, -20, 16, -52, -60, -27, 57, -79, -10, 29, -71, 19, -84, 22, 44, -16, -15, -8, -37, -38, -64, 18, 33, 64, -23, -29, -24, -15, -6, 38, -20, -17, -86, 43, 25, -78, -26, 12, -63, 43, -25, 0, 32, -46, -70, -24, 49, -67, 47, -86, -81, -73, -65, -48, 57, -77, -12, -13, 12, -85, 48, -3, -72, -27, -33, -83, -34, -44, -43, 33, -17, 1, -24, -21, 39, 25, 54, -80, -31, -40, 46, 15, -5, -37, 32, 5, 31, -6, -22, -7, -59, 42, 65, 4, -11, -1, -53, -37, 54, -42, 52, -4, -36, 15, 58, 5, -82, 57, -75, -83, -19, -2, -81, -10, 57, -9, 34, 51, 25, -42, 15, 10, -19, -11, 62, -64, -85, -9, -45, 15, 64, 47, -9, 31, -77, -80, 20, -32, 12, -14, 54, 55, 11, 59, -62, 36, -53, 6, -39, -75, 56, -45, -72, 64, 4, 57, 46, 10, 25, 34, 29, 51, -7, -29, 46, 63, -14, -56, 31, -34, -1, -53, 44, -73, 39, -58, -81, -45, -17, 49, -15, -79, 71, -61, 19, -37, -50, -16, 27, -43, 6, 53, -42, 27, 28, -35, -5, -62, 44, -24, -68, 4, -35, -26, 34, 33, 63, -55, 64, 67, 44, 38, -61, 52, -27, 41, -11, -75, -19, 1, -71, -73, 58, -9, -76, -53, -48, -3, -70, -83, 58, 36, 47, -75, 26, 70, 63, 62, 44, -51, -78, 5, -64, 28, 41, -62, 65, 60, 24, -66, 9, -59, -62, -52, 13, -2, 0, 52, -28, 3, -84, -57, -32, -70, -41, 54, -44, 42, 64, 45, -13, -15, -77, 1, -49, 11, -73, -2, 63, -40, -68, 39, 55, -67, -57, -19, 58, -18, -12, -83, -85, -4, 47, -32, 30, -70, -74, -36, -24, 60, -68, -58, 17, -64, -16, -34, 9, -4, -5, 56, 67, 24, 1, 19, -63, 32, -49, -39, 37, 25, -39, 10, -78, 48, -5, -10, 69, -49, -21, -67, -13, 13, -78, 22, 43, -15, 63, -19, 53, -31, 66, -46, 28, -15, -72, 5, -69, 8, 1, -30, 37, 68, 0, 51, 35, -76, 38, -15, -58, -69, -7, -44, -35, -3, -53, 26, 55, 47, -6, -66, -42, 20, -63, 36, -14, 52, -41, 20, 15, -25, 34, 25, -41, 32, 61, -65, -62, -80, -69, -79, 42, -69, 13, 4, -69, -13, -29, 44, 23, -70, 55, 32, -27, 37, 49, 52, 59, 22, 7, -7, 39, -24, -6, -46, -60, -57, -7, -49, 62, 55, 45, -32, -47, 58, 53, 66, 69, 29, 48, 45, -24, -67, -70, -29, 11, 7, -44, -13, -53, 38, -28, 61, 67, -69, -27, -69, -41, -12, 33, -36, -63, -43, -25, -19, -80, -25, 8, -20, -30, 52, 65, -76, 40, -69, 21, -22, 51, 19, -36, -64, 11, 21, 64, -40, -56, 33, 52, -51, 66, 7, 52, 54, -38, -12, 43, -46, -47, -51, 85, -75, 67, 60, 3, 18, -49, 19, -21, -30, 37, -2, -16, -34, 59, 56, 24, -41, 39, -12, -36, -25, 29, 78, -50, 14, 29, -24, -2, 67, -9, -60, 75, 80, -1, -51, 66, -45, 39, -69, -36, -53, -3, 73, 23, 67, 50, 17, 53, -24, 6, -38, 98, 37, 18, 71, -5, -15, 45, -8, -54, 81, 68, 20, -34, 12, 59, -10, -34, -51, -2, 46, 23, 68, -19, -69, 46, 25, 98, -17, 112, 42, 56, 25, 110, 70, -23, -41, 32, 93, 21, 13, -77, 91, 46, 54, 42, -1, 122, 127, 10, 77, 2, -21, 34, 96, 31, 11, 44, 83, 6, -2, -42, 36, -25, -17, 57, 44, 59, 73, 98, 58, 15, 62, 57, -27, -19, 23, 67, 54, 14, 54, 1, -9, -25, 0, 0, -50, -17, -24, 63, -59, 5, 79, 28, -18, -22, -8, 52, 77, 53, 29, 17, 6, 29, 52, -10, 105, 33, -23, -43, 109, 92, 41, 19, 105, -20, 18, 10, 60, 97, 100, -76, -41, 34, 95, 0, 55, -20, -29, 90, 77, 49, 72, -13, 10, 30, 45, 80, 19, -35, -54, 14, -69, 3, -33, -23, -37, -55, -54, 17, -48, 40, -10, 28, 40, 18, -4, 13, 58, -16, 20, 29, 40, 50, 33, 74, -62, -16, 58, 1, 30, 85, 13, -45, -26, 12, -11, 57, 54, 12, 57, 86, 78, 58, 99, 11, 84, 27, 76, -59, -10, 96, 42, 6, 22, 57, -31, -29, 104, -10, -42, -13, -43, 23, -46, -45, -13, -12, -16, 4, 61, -28, -14, -47, -46, -40, -34, -9, 0, 6, 33, 38, 92, 3, 39, 64, -32, 71, 67, 6, 33, 21, -41, 26, -38, 44, 85, 53, -30, -16, 3, -22, 62, 91, -7, 58, 9, 98, -22, -26, -57, 32, 49, -11, 27, -80, -51, 25, -45, 40, -47, -37, -11, 33, -1, 34, 77, 13, 116, 21, 39, 92, -9, 22, -28, 81, -34, 35, 14, 19, -6, 16, 65, 56, 51, -4, 51, 1, 64, 51, 17, 30, -50, -67, 40, -58, 55, 19, 74, 45, 31, 40, -45, -71, 42, 32, -58, 8, 66, 28, -61, -55, 35, -17, 54, 56, 23, 27, 45, -71, 48, -14, 68, -79, -81, 73, -70, -30, 27, -62, -15, 4, 97, -11, 60, 117, 65, 9, 21, 108, 104, 30, -4, 104, -46, -45, -28, 73, -51, 55, -28, 45, 54, -72, -1, 36, -38, -53, 13, -34, 52, -40, -33, 38, -22, -2, 53, 4, 34, 50, 22, -18, 66, -41, -9, 104, 39, 9, 27, -18, 109, -34, 100, 86, 16, 28, 55, 55, 1, 69, -4, 83, 93, 68, -51, 107, 98, -47, 70, -15, -1, -46, 50, 6, 76, -39, 73, 82, -12, -9, -50, 98, -26, 80, 108, 88, 96, 71, 100, -1, -12, -38, 45, 73, 3, 80, -3, 17, 20, 67, -32, 3, 31, 18, -39, -30, 64, -47, 24, 3, 22, 76, 86, 90, 64, -39, 86, -5, 22, 34, 4, 101, -37, 62, 12, -17, 4, 21, -26, 73, 0, -28, -36, -71, -18, -25, -17, 32, 52, 16, -63, 32, 50, 73, 22, 81, -10, 15, 57, -36, 0, 43, -4, 25, 57, -1, -60, -37, -49, -8, -40, -44, -24, 3, -52, -24, 120, -10, 82, 80, 110, 51, 10, 48, -42, 82, 72, -77, -65, -57, 4, 31, -32, -13, -38, -64, -8, -18, -3, -44, -72, -5, 46, -9, 41, 43, -64, -16, -65, -28, 30, 21, -16, 27, -55, -67, -63, 85, 35, 11, 16, 43, 20, -18, 40, -26, 26, 45, 37, 61, -10, -15, -32, 65, 0, 46, -19, -20, -9, -17, -44, -33, 80, 31, 75, 52, 16, 71, 54, -16, 10, 84, 116, -25, 67, 11, -10, 37, 64, 111, -15, 3, 105, -3, 43, 87, 18, 67, -36, 72, -46, 51, 43, -41, 72, -15, 107, 89, 17, 30, 73, 11, 41, 5, 13, 27, 31, 85, 35, 53, 49, -27, 68, 22, 43, 104, -35, -44, -5, 40, 108, -41, -24, 36, 32, 12, 105, 69, -4, 53, -5, 51, 36, -63, -53, 82, 29, 20, 84, 52, 50, 72, 5, 11, 49, 7, -5, 22, 6, -11, 99, 81, -12, 26, 109, 97, -40, 47, 37, 42, 66, 89, 72, -17, -27, -57, -28, 115, 117, 87, 91, 120, 108, 59, 23, 57, 30, 60, 18, -4, 35, 77, 15, -41, -65, -42, 77, 30, 12, -2, 49, 12, 39, -24, -45, -14, 3, -29, -15, 40, -42, 54, -49, 67, 37, 54, 22, -62, -6, 23, -8, -15, 13, 54, -64, 51, 30, 63, -64, 32, 4, -43, 82, 16, 41, 13, 29, -43, 25, 39, -40, 25, -16, -3, 60, -43, 42, 44, -29, 13, -20, -19, -75, 54, 20, 55, 39, 31, 18, 13, 60, -13, -81, 7, -57, -60, 11, -27, -81, 14, 45, -66, 52, -57, 49, 30, -34, 36, -77, 10, 39, 36, 63, 48, 29, 45, 59, 17, 17, 70, 20, -4, -19, 7, -53, 45, 0, 4, -38, -6, -63, -47, -79, -35, 41, 35, -41, -4, 5, -83, -22, 37, 63, 13, -6, 32, -44, -65, -2, -45, 19, -2, -57, 66, -76, -78, 65, -26, 46, 14, -25, 19, -34, 13, -64, -62, -53, -58, 3, 26, -26, 39, -79, 20, 6, 37, 62, -38, -16, 72, -65, -23, -12, 6, -28, 22, 71, 5, -15, 34, 68, -54, 19, 42, -83, 19, -68, 1, 15, 57, -40, -74, -21, 9, 62, 13, 10, -18, -46, -52, -52, -48, 14, -73, 50, -58, -71, -57, 8, -59, 65, 30, 60, -68, 19, 66, -27, 3, -22, -35, -5, 30, 3, -17, 8, -56, -7, 58, 27, -24, 11, -5, -18, 49, 45, -64, -51, 47, 73, -53, -36, 10, -68, 26, -34, -84, -9, -73, 54, -73, -74, 19, -14, -71, -66, -70, -59, 0, -29, 50, 47, 68, -52, -73, 32, 29, 50, 63, 18, 7, 47, -46, 24, -68, -43, -23, -48, 21, -62, 22, -24, -48, 6, 30, 62, 40, -56, 74, 31, 25, 58, -49, -9, -23, 78, -76, -23, 39, -58, -80, 55, -10, -20, -5, -38, -14, 36, 20, 34, 59, -81, 24, 32, 28, -69, 46, 13, -61, -68, -40, -68, -17, 15, -67, -16, 58, -51, -2, 70, 33, -51, 13, -26, -32, -29, 64, 54, 25, -73, 27, -51, -29, 56, -9, 23, 11, -29, 58, 46, 59, -63, -11, -28, -78, -67, -71, 11, -38, 72, 52, -24, -22, 10, -45, -21, 29, -66, 11, 9, -66, 17, -57, 65, -43, 66, 52, 11, 28, -29, -3, -29, -64, 9, -72, -62, -73, 19, -48, 13, -40, 16, -62, 68, 44, -31, 5, -23, -29, -55, -23, -35, 38, -4, -45, -28, 9, 73, -28, -64, 15, -51, -28, 41, -69, 23, 65, 49, 4, -81, -82, 3, 32, 56, -17, 55, 27, -18, -36, -74, 76, -46, -58, 15, 15, -56, -20, 21, 18, 29, -56, -68, -47, -60, -49, -26, -26, -45, 4, 35, 18, 10, 43, -33, -20, 63, 60, 19, -19, -10, 54, -70, -48, 62, 54, 13, 64, -27, -76, 71, -31, 49, 1, 9, -32, -72, -43, -18, 53, 12, 32, 20, 15, 28, 66, -53, -63, -60, 31, -64, -41, 16, -35, -26, 16, 44, 40, -76, 41, -73, -26, -71, 12, 10, 69, -29, 26, 17, 9, 17, 50, 5, 21, 41, 58, -31, -24, -83, -83, 33, -22, -63, -47, -64, -66, -75, -21, -38, 72, 61, -50, 31, -20, -46, -63, -23, -9, -2, -25, 4, -9, -39, -32, -41, 64, 51, -19, -72, -77, 52, -2, -16, 29, 41, -17, -32, 39, 22, -40, -13, 4, 43, -36, -55, 3, 33, 41, 45, -43, -25, -54, -56, -81, 6, 71, -11, 71, -75, -47, -3, 3, -62, 17, -56, 29, -68, -67, 11, -52, -42, -59, -47, 23, 16, 40, 43, -3, -47, 31, 36, 30, 5, -23, -73, -8, 28, 0, 4, 6, -36, 62, -28, -27, -72, 6, -60, -38, 32, -74, -33, 74, 63, 72, -56, -60, -12, -61, 6, -17, -25, 60, 60, 28, -63, 41, 74, -62, -71, 64, 0, -2, -59, 46, 26, -58, 10, 19, -54, 64, -39, 30, -76, -44, 59, 14, -4, 48, -23, -55, 43, 26, -77, -1, -5, -53, 56, -68, 32, -62, -63, -80, 64, -36, -32, 6, 32, 58, -75, 40, 18, 35, -73, -78, -75, 32, -79, 56, -19, 21, 19, 62, -19, 28, 33, -43, 16, 53, -44, -52, 30, -29, -57, 43, 23, -46, -58, 39, -22, -14, -31, -14, 2, 1, 65, 20, 42, 1, -31, 5, -7, -41, 27, -22, -45, -61, 53, 35, 69, -11, 27, 44, 33, -4, -61, 44, 48, 58, -57, -10, -40, 2, -40, 57, -4, 50, -26, 16, 58, 34, 12, -14, -20, -22, 7, -35, -63, -69, 20, -6, -1, -52, 28, -68, 4, 25, -15, -22, -14, 11, -80, 19, 57, -81, 40, 18, -3, -35, 29, 11, -20, -80, -79, -8, 50, 29, 20, -39, 60, -53, -15, -67, -7, 16, -4, 34, -31, -32, 47, 56, -77, 47, 37, -55, -10, -30, -65, 34, 69, -64, -19, 41, 43, 26, 30, 24, -45, 60, -63, 13, 47, -30, -52, -60, 47, -63, 48, 67, -21, -40, 47, 59, 40, 22, -42, 38, -77, 48, 61, -22, -77, -16, -15, -49, -12, 19, -78, -73, 5, -65, -14, -21, 29, -16, -65, -76, -82, -21, 48, -52, -45, -80, 36, 36, 40, -45, 54, 65, -45, -76, -65, 42, -5, 36, -35, 13, -80, 0, 29, -2, 55, 36, 18, -55, 35, 64, 9, 45, -68, -12, 66, 70, -62, 84, -23, 84, 24, -21, 59, 65, 14, 65, 71, 3, 83, 31, 68, 12, 48, -33, -102, -80, -13, -15, -13, -15, -43, 60, -19, -30, -55, -71, -56, -11, -1, -10, 65, 96, 83, 98, 104, 71, -7, -4, 122, -15, -9, 84, 10, -20, 51, -34, -86, 62, -62, 10, -74, 13, -38, -31, -12, 54, -70, -72, 27, 20, -10, -16, 114, -4, 27, 118, 87, 29, -42, -27, -14, 34, 11, 20, -33, 79, -27, 50, -18, 38, 63, 104, -20, 46, -31, 23, 21, 16, 68, 10, 34, 23, 28, 94, 42, -10, 14, -27, 33, 41, 4, -13, -19, 59, -41, -23, -32, 115, 61, -8, -13, 73, 4, 88, 94, 48, -32, -56, -1, -4, 64, -16, 6, 24, 44, 61, 48, 44, -62, 31, -47, 15, -61, 51, -43, 88, -63, 14, -35, 30, -38, 89, 118, 19, -20, 55, 47, 114, -31, 115, 110, 42, 10, 51, 34, -11, 34, 118, 38, -1, 79, 14, -22, 104, 57, 30, -15, -7, 49, -10, 83, 54, -15, -73, -67, -48, 28, -51, -26, -41, 40, 66, -44, -1, 51, -44, 5, -74, -80, 74, -5, -58, 58, 24, 83, -26, 40, 87, 72, -23, 10, 49, 27, -13, 38, 73, 48, -2, -34, 4, 57, -30, -44, -24, 78, 104, -22, 98, -8, 21, -62, -25, 107, -30, -22, 57, 107, -31, 102, 78, 75, 29, -7, -15, 118, 35, 98, -50, 65, -54, 71, -3, -30, -61, -45, 29, 27, -13, 5, 93, 39, -20, 72, 2, 69, 34, 10, 24, 109, -14, 35, 94, 23, 54, -13, 57, 63, 7, 34, -9, 6, -4, 77, 71, 78, -19, 74, -22, 38, 79, -22, -13, 31, 80, 79, 39, -71, 41, 15, -29, -79, -40, 3, -75, 43, -65, 47, -37, -6, 65, -70, -23, 56, 28, 98, -14, 12, 4, -27, 84, -2, -30, 7, 95, 98, 50, 42, 49, 57, -87, 48, -77, 55, -80, 6, 57, 34, -55, -54, -27, -49, -62, -62, -4, 20, -60, -54, -30, 10, 29, 66, -33, 21, 59, -38, -25, -34, 9, 62, -98, 14, -61, 50, -23, 6, 5, -88, 7, 26, -7, -57, 55, -32, 46, 55, 19, 114, 66, -22, 12, -14, 97, 89, 88, -23, 54, 59, 79, 113, -36, 70, 47, 58, 14, 65, -25, -61, 67, 39, -33, 44, -37, 48, -38, -1, 55, 40, 66, 60, 75, 6, -27, 99, 41, 38, -21, -28, -29, 31, 40, 64, 5, -38, 86, 86, 98, 17, 43, 91, 36, 75, 9, 92, 104, 12, 102, 118, 23, 72, 91, -18, 70, 62, 13, -24, 9, 29, 109, -9, 16, 112, 9, 78, 109, 51, 18, 84, -2, -5, -24, 33, 68, -14, 77, 9, -23, 24, 62, 78, 49, 82, -37, -78, -48, 20, -23, 62, 18, 31, 3, -21, 45, -49, 45, -16, -20, 6, 87, 11, 64, 12, -8, 2, -8, 86, 11, 92, -3, 0, 46, 106, 1, 79, 68, -9, 27, 4, -13, 35, 68, 32, 3, 28, 52, 24, -40, -21, -40, 63, 79, -55, 4, -76, -17, 85, -53, -41, 61, -29, -13, -4, 20, -17, 40, 6, -15, -2, 50, 59, -60, -38, 88, 67, 17, 25, 35, -38, -47, 60, 75, 87, -23, -35, -83, 7, -20, 46, 19, 65, 14, -27, -43, 22, -48, -8, 64, -69, 56, 3, 56, 36, -50, 3, 28, -54, -6, -44, 46, -33, -35, -36, 61, -29, -45, 36, -76, -19, 18, -16, -59, -67, 33, -33, -25, -66, -60, -46, -20, 65, -71, 63, 39, -60, -30, -16, 12, -35, -30, 24, -9, 7, 49, 33, 84, 37, 80, 122, 112, 4, 50, 67, 5, -16, 22, 50, 57, -26, -6, 46, -30, 75, -34, 55, 53, 46, 76, 37, -5, 52, 31, 10, 15, 92, 8, 76, 111, 44, -22, -9, 15, 100, -18, 72, 101, 20, -5, 38, 87, 45, -16, 19, 107, 12, 94, 77, 82, -39, 48, 1, 95, 21, -27, 84, -7, 40, 107, 67, 75, -48, 99, 46, 25, 36, 117, 66, 42, 72, 98, 92, -33, -35, -2, 102, -23, 52, -17, -1, -5, -5, 84, -2, 38, 32, -20, 54, 12, -19, 87, 12, 91, -12, -29, 106, -31, 61, 73, 26, 18, -24, 92, 54, -28, 55, 103, 54, 107, -14, -33, -26, 31, 57, 9, 43, 27, 41, -2, 84, 97, 21, 63, 73, -46, -25, 52, 2, -18, -15, -4, -26, -65, -75, -35, -44, -74, -28, -25, 22, -27, -61, -14, 83, 79, 75, 36, 82, 92, 65, -1, -26, 21, 96, 90, -29, 65, 3, -20, -33, 35, -23, 65, 52, 49, -70, 73, -21, 9, 20, 38, 1, 29, -14, -23, 92, 53, -25, 89, 7, 66, -3, -65, 17, 56, 78, -35, -65, -26, -57, 41, 19, -52, 45, -20, -40, 24, 28, 40, 71, -10, 43, 4, 65, 11, 6, -47, -59, 21, 92, -24, -56, 1, 71, 27, -44, -49, 70, -65, -52, 4, -27, 44, -59, -77, -49, -15, 34, 5, -36, -30, 66, -53, -46, 8, -45, 54, -36, -12, 15, 47, -27, 72, 38, 76, -46, -14, 6, 19, -69, -63, -60, 16, 45, -53, -64, 55, 55, -20, 73, 49, -62, 51, 40, -28, 31, 92, -33, -62, -73, -65, 33, 68, 71, 85, 32, 56, 28, -33, -41, 28, -56, -42, 49, -25, -32, -61, 10, 13, 16, 0, 61, 60, -66, -1, -26, -8, -19, 59, -2, 57, 12, 11, 80, 89, 6, 35, -41, 58, 17, -41, -35, 81, 80, 27, -69, -33, -34, 2, 39, -55, 95, 50, 9, 9, 25, -66, -61, 64, 34, -37, 38, 3, 55, 17, -65, -34, -24, 36, 48, 30, 12, 73, -4, 7, -58, -52, 60, 27, 17, 16, 49, 55, -18, 32, 62, 38, 24, 51, -8, 18, -31, 80, 48, -61, -1, -30, 3, 83, 20, 23, 64, 50, -49, 36, -11, 43, 39, -12, -69, 59, -47, 39, 33, 95, 29, 34, -30, -45, 45, -56, -51, 72, -10, -9, -55, -77, 77, 23, 84, 9, 49, 54, 5, -2, 61, 42, 36, 31, -38, 19, 6, -20, 88, -36, 17, -85, -77, 44, -27, 53, 37, 32, -35, -54, 33, -5, 83, 69, -32, 15, 46, 17, -40, 49, 58, 9, 2, 70, 42, -63, 33, -48, 73, 43, 24, -68, 18, 18, -74, 2, 16, -42, 52, 25, 84, 2, -73, 8, 19, -29, -64, 87, 38, -6, 58, 26, 96, 87, -17, 77, 33, 45, -58, -38, 67, 29, 2, 6, 8, -16, 34, 95, -28, -47, -38, -34, -23, -27, 74, -62, -10, -51, 36, 23, -23, -41, -65, -60, 53, 27, -21, 40, 49, 76, 24, 31, 76, 64, -35, 79, -51, 61, 34, -7, 5, 30, -45, -23, 2, 12, -22, 14, 32, 3, 42, -51, -2, 16, 68, -33, -53, 83, 15, 25, -16, -51, 64, 67, -47, 25, 20, -1, -14, 69, 66, 29, 80, -43, 86, -5, -45, -54, -39, -40, 18, 78, 35, -30, -61, -32, 20, 38, -10, 14, 24, 36, 33, 80, 1, -4, 62, 47, -34, 58, 66, 71, -17, 47, -21, -56, -58, -7, -30, 35, 66, 23, 39, -15, -62, -8, 79, -64, 8, -15, 77, -21, -73, 83, -60, -66, -76, 6, -15, 30, -44, 82, 14, 15, -45, -25, -47, 70, -43, 50, 10, -46, 15, 4, -59, 40, -62, 9, 27, -17, -26, -16, 51, 13, 68, -33, 54, 80, 50, 34, -20, -63, -63, -57, 61, 68, 12, 34, -20, 39, -10, -49, 79, 46, -58, 48, -6, -43, 13, -3, 68, 76, 70, -54, -24, 56, 1, -44, -8, -33, -30, 51, 57, 32, 37, 38, -35, 50, -54, 28, 61, 33, -40, 57, 8, 81, 14, 78, -60, 40, 17, 49, 91, 79, 48, 87, -52, -39, 37, -15, -59, -1, 8, -64, 72, -48, 50, 7, -70, -32, -34, 37, 65, -51, 7, 14, 81, 52, 68, 62, 59, 19, 23, 54, 79, 91, 88, 56, 7, 46, 27, 20, 20, -53, 42, -27, -18, 12, -13, 78, 27, -9, -31, 79, -3, 0, -32, -25, -8, -16, -14, 16, 14, -54, 50, 32, 39, 33, 35, 22, 81, -7, 10, 78, 5, 2, 12, 8, -12, 56, 9, -48, 42, 46, 1, 46, -28, -34, 25, 86, 38, 35, -69, -8, 13, 21, -35, 75, -5, 87, 29, -2, 5, 93, 49, -12, 5, -40, 15, 35, -4, -46, -12, 76, 58, 19, -69, -46, 4, 42, 4, 26, 87, -52, 42, 73, -5, -59, -50, 93, 45, 52, 13, 29, 77, 38, 74, 61, 91, -25, -53, 85, -28, -55, 29, -14, -34, 33, -23, 74, 7, -61, 21, 89, 92, -17, 38, -56, 23, -59, 51, -67, -56, -72, -45, 16, 4, 53, 8, 66, -51, -35, -26, 52, -9, 68, 18, -52, 97, -4, 53, -20, 40, 36, 64, -55, -36, 19, -13, 59, -28, -35, -21, 75, -6, 9, 14, -49, 62, -52, 54, -55, 32, -66, -2, -26, -55, 32, -5, 45, -10, -1, 19, 20, 85, 23, -80, 40, -18, -3, -30, 29, -61, -18, 45, 31, 84, 76, 53, -36, 37, -4, -26, -14, 36, 12, -27, 74, 39, -1, 57, 13, -43, -25, 49, -4, -43, -55, -52, 2, -26, -69, 31, 66, 52, 50, 2, 94, 66, 1, 27, -25, -7, 91, -51, 61, 93, -5, 51, -23, -19, -41, 62, -22, 60, 47, -12, -46, 77, -58, 42, 66, -31, 81, -12, 30, -36, 57, -29, -40, 56, -84, 61, -83, 47, -58, -53, -73, -63, 61, -69, -13, -6, 52, 22, 34, -19, -73, 66, -9, -38, 36, -41, -71, 38, -11, -84, 16, -77, -21, -25, -73, -11, 38, 47, -70, 4, 16, -49, -23, -6, -9, -36, 63, -71, -57, -58, -39, -75, -75, -15, -14, -57, 20, -70, 51, 64, -80, -20, -77, -70, 9, -57, 29, 67, 18, 67, 22, -4, -16, -22, 59, -41, 3, 16, -60, 37, 44, -69, -77, -17, 11, 2, 41, -52, 1, 19, -69, -29, -69, -77, 37, 18, 56, -59, 25, -12, 60, 58, 23, 45, 50, 1, -49, 28, -72, -34, 12, -78, 15, -20, 56, -15, -40, 28, -48, 14, -79, 39, -71, -15, 11, 7, 27, -76, 21, 53, 8, 62, 13, -11, -73, 57, 66, 50, -20, -26, -27, -18, -49, -3, 3, -75, 58, 46, -49, 6, -48, 62, -39, 33, 5, -49, -68, 8, -78, 14, -27, -65, -55, 52, 16, -73, 38, 15, -47, -12, -56, -14, -59, -7, -53, 30, -24, -56, -49, -72, 30, 28, -1, 58, 49, -33, 24, -33, -52, -22, -13, -52, -56, 3, -80, 1, 68, 24, 56, -12, -40, -66, -74, 13, -77, -46, -31, -38, 57, 30, -12, -64, 7, 36, 9, -72, -78, -67, -42, -62, 33, 66, 11, -21, 36, -32, -39, -52, 52, -14, -79, -81, -19, 28, 39, 27, -21, 61, -3, -48, 15, 54, 3, 9, 62, -37, -10, 54, 21, 32, -36, 57, 43, -23, -56, 30, -66, -83, 63, 5, -4, -65, 54, 33, -38, -1, 1, 12, 21, -56, 42, -39, -42, -52, -59, -45, -72, 3, -2, 33, 29, -35, -63, -40, 24, -74, -69, 36, -40, -85, 51, -53, 10, -5, 50, -4, 46, 66, 9, 44, 16, 22, -26, 23, 9, 31, 48, 16, -26, -10, -77, -22, 1, -81, -58, -57, 36, -27, -76, 40, 25, -47, 37, -63, -60, 53, -16, 67, -77, 13, 20, 25, -32, -30, -11, -9, 60, -49, 42, -8, 16, -12, 55, 30, 65, 44, 15, -35, -73, -70, 17, 15, 7, -23, -20, -57, 52, 19, -46, 60, -64, -17, -8, -40, 9, -19, -24, -40, -80, -35, -18, 63, 29, 33, 63, 45, -65, -73, 27, -64, -85, -58, -67, -27, -52, 51, -60, -86, -23, -41, 13, 52, -43, 64, 40, 45, 58, 31, 43, -78, -16, -69, -29, -43, -12, -21, 39, -20, -27, -86, -61, -74, 70, 24, -72, 9, 56, 20, -70, 42, -19, 5, -47, 39, -26, -48, 1, -23, 17, -62, -54, 67, 35, -36, 21, -43, -35, 43, 44, 20, 59, -27, -50, -52, 48, -50, 28, -31, 59, -25, 55, -84, -2, 8, 31, 47, 20, -18, 63, -43, 53, -82, -70, 9, 66, 40, 43, -74, -7, -61, -49, 27, -67, -71, -2, 37, 8, -29, -65, 52, 35, 61, -50, -39, 29, 47, -48, 56, 51, 57, -83, -2, -60, -26, -20, -82, 4, -14, 11, -15, -18, 20, 14, -42, -60, 51, 51, -48, -21, 14, 37, -64, 8, 19, 40, -82, -25, 30, 19, 19, 51, 38, 12, 30, -77, -74, 63, 8, 34, -45, -78, -70, 44, -54, -82, 17, 61, 13, 41, 60, -79, -27, -57, 31, 68, 53, -34, -28, -18, -61, 56, 27, -29, -65, -74, -76, 21, 44, -1, 66, -29, -14, 59, -35, -15, -54, 36, 26, 44, -17, -71, 51, 52, -21, -48, -69, -35, 10, -57, 56, 1, -43, -5, -37, -56, 57, -41, 60, -53, 1, -57, -4, -3, 37, -52, -54, -22, -4, -31, 26, 26, 58, 57, -42, -23, 59, 13, -86, 3, 32, 9, -45, -74, -46, 51, 62, 51, 50, 2, 12, -68, -60, 25, -5, -4, 52, 4, 55, -4, -46, -14, 59, -73, -10, -79, -34, 64, 12, -70, 47, 43, 61, 34, 10, 63, -11, 31, -73, 45, -38, -77, 24, 30, -15, 4, -69, 48, -6, -31, -71, -61, 5, -11, -82, -39, -76, -69, 29, 58, -14, -41, 49, 6, -83, -72, -50, -43, -80, -72, -73, -9, -78, -8, 11, -40, -31, 10, -13, -68, -82, -1, 15, 30, 22, 15, -16, 60, 33, 49, -13, -60, -52, -82, 61, -46, 35, -53, 48, 28, 40, 34, 53, -49, -5, 27, -49, -66, -55, -13, 31, 7, -82, -84, 8, -17, 42, 29, 41, -3, -81, 29, 48, 58, 49, -63, 19, -80, 0, -2, 36, -15, -71, -24, -60, 26, -26, 30, 7, 65, -84, 68, 59, 10, 49, 66, -24, -43, 33, -11, 4, -76, -69, -25, 12, -2, 44, 3, 7, -46, -9, 19, 54, 43, -30, -34, -32, -45, -14, -43, -33, -59, -19, 50, -51, 62, -22, 60, 61, 24, -49, 45, -67, -75, -27, 55, -64, -51, -54, -5, -79, 53, -2, 46, -50, -3, 53, 53, -19, -30, -75, 63, 49, 11, 3, -19, -66, 7, 55, 74, -19, -30, 9, 77, 80, 59, 25, 91, 63, 50, 10, 40, 56, -46, -26, 29, 43, -47, -13, -57, -97, -82, -82, -73, 58, -52, -68, -33, -84, 27, 39, 43, -16, 41, 68, 35, 50, -18, -17, -1, 94, 33, 36, 19, 12, -44, 15, -21, -19, -91, -14, -42, 69, -15, 48, -46, 68, 15, -32, 15, -18, 44, -54, 66, -9, 52, 11, 52, 8, 86, 40, 25, 77, 11, -33, 93, 34, -30, -32, 17, 92, -33, 69, -6, 105, 93, -30, -21, 9, 8, 43, 18, 4, -32, 92, 99, 16, 82, -11, 23, 102, -6, -12, -9, -4, 68, 18, -3, 55, 91, -20, -10, -37, 35, -32, 19, 51, -16, 27, 50, 22, 5, -57, -29, 73, 13, -18, 71, -12, 83, 30, -7, 56, 89, -11, 18, 20, 29, 61, -53, -63, 55, -11, -28, 50, 32, 60, 53, 55, 39, 99, 93, 38, -30, 76, -34, 34, 93, 31, -25, 72, 89, 19, 44, 50, 80, -6, 103, 71, -5, -49, 10, -9, 69, 86, 30, -44, 55, 34, 47, 8, 31, -5, -21, 47, -67, -33, 1, 56, 43, 14, 92, 48, -17, -56, 85, -44, -64, -75, 60, -30, -43, -39, 53, -61, 55, 12, 46, 64, 71, -34, -8, 42, 27, -6, -42, 15, 6, 51, -34, 83, 40, -51, 62, 71, -26, 67, -22, 64, -8, -20, 10, 73, -10, 12, 74, 79, 12, 21, 20, 78, -35, 5, 52, 1, 10, -20, -54, 18, 47, 7, -52, -62, -77, 30, 73, 103, 44, 59, 93, 3, 59, -16, 58, -10, 48, 48, 10, 8, 11, 98, 13, -47, 70, -47, -17, 10, 91, -5, -58, 39, -31, -11, -44, 50, 62, -66, 38, 15, -67, -14, -61, -44, 50, -52, 27, -54, -8, -68, -60, -29, -25, 31, 96, 68, 56, 21, 77, 23, 23, -36, -10, 11, 100, 98, 75, -45, 2, -54, 48, -36, -42, -87, -43, 6, -4, 43, 1, 24, -20, -57, 41, 70, -29, -69, 7, -16, -50, 45, 71, -61, -1, -42, 26, 11, 47, -76, -43, 14, 53, 68, 28, -13, -41, -24, 44, 34, -5, -93, -24, 37, -67, -33, -38, 4, -84, 22, 16, 40, 73, 77, 36, 105, -13, 65, -32, 61, 102, -35, -2, 93, 2, -30, -84, 43, 18, 19, 3, 18, 4, 14, -72, -48, -65, -27, -78, -1, 40, -51, -27, 80, 16, 96, -40, 93, 57, 20, 17, 41, -26, -11, 27, 58, 30, 63, 53, 92, 106, 68, 44, 37, 74, 4, 49, 12, -25, 61, 97, -46, -27, 25, 19, 107, 78, 86, 97, 51, -15, 35, 105, -38, -13, -30, 100, 2, 16, -16, 56, 63, -13, 60, 40, 102, 6, 21, 104, 14, -32, -18, -47, 59, 22, 48, -28, 28, 33, 5, 28, -78, -48, -6, 50, -32, -65, -47, 45, -11, -75, 57, 93, 83, 40, -53, 56, -27, 27, 22, 0, -42, -28, 8, 49, -55, -59, 39, 39, 42, -30, 34, -21, -60, 24, 15, -58, -52, 86, 82, 10, -47, 16, 3, 20, 31, 16, 50, 92, -50, -60, -71, -42, 67, 19, -25, 100, -40, -34, 22, 42, 92, -29, -10, 87, -16, 27, 79, -28, 70, 32, -40, 26, 43, 21, 8, -62, 20, -70, -79, 34, -28, -10, 63, 60, -20, -64, 41, -27, -28, -56, 70, 27, -79, 50, -47, 47, -80, -63, -27, 64, -12, -39, -31, 18, -9, -82, -76, 2, -22, 54, 35, -28, 45, -55, -21, 28, -29, 62, 21, 58, 32, -74, 30, 48, 56, 14, -80, -22, -66, -16, 58, 42, -5, -5, 38, 42, -61, -50, -55, 40, 92, 107, 83, -22, 24, 108, -3, 79, 89, 99, 32, 70, -40, 10, 20, 60, 86, 83, 65, 89, 9, 41, -5, 10, -6, 17, 61, 24, -44, 69, 62, 27, 112, -18, 59, 98, -15, 60, 35, -7, -39, -19, 25, 76, -37, 37, 79, 42, 70, 72, 52, 66, 24, 10, 56, 56, 2, -28, -26, -37, 94, 77, -24, 64, 102, -5, 24, 16, 101, 21, -22, 94, 44, -48, 45, 10, 94, 72, 24, 103, 50, 45, 86, 88, 109, 80, 54, 74, 18, 34, -9, 6, 24, 45, 32, 77, -20, -34, -24, 27, 75, 83, -35, 1, 58, 97, 98, 57, -15, -18, 42, 10, -3, 66, -41, -45, 76, -14, 25, 10, 21, 47, -51, 66, 6, 39, -12, -62, -4, 56, 14, 73, 21, -63, 66, 74, 57, 20, -78, -23, 34, 37, -13, -4, 101, -25, 73, -13, -47, -23, 5, -8, 53, 24, 60, -9, -23, 8, -33, -54, 67, -48, -89, -59, 65, -54, 59, 64, -53, 56, 67, -67, 