#include <stdint.h> 

using namespace std;

static const int convolution1_weights[3*3*3*32]={
    66, 77, -114, 96, -84, -95, 88, -97, -43, 24, 43, -52, 59, -102, -127, 12, 77, 23, -53, 123, -116, -37, 5, 75, -51, 102, 73, 39, -36, 127, -57, -19, -40, 68, -30, 27, 75, 32, 72, 122, 2, -12, -73, 63, 83, 95, -82, 18, 59, -31, 87, -33, 114, -25, -19, -12, 27, 85, 13, 40, -76, 42, -118, 62, -125, -52, 80, -75, -52, -1, -92, -81, 41, 21, -99, -47, -127, -78, -55, 77, 106, 101, -112, -6, 58, 35, -40, 123, -10, 18, 50, -87, 100, 53, 101, 112, -82, 47, -42, 35, -90, -48, -88, -15, 91, 9, -16, 38, -115, -19, -91, -30, 27, 87, 119, -91, 76, -74, 107, 4, -110, -38, 40, 49, 102, 27, -76, -71, 48, -118, 52, -126, -67, 96, 63, 65, 69, -85, 53, -86, 29, 97, -112, 117, -94, 44, 19, 106, -39, 71, -114, 25, 17, 33, -4, 77, -73, 117, -102, 44, 90, 88, 96, 39, -46, 68, -73, 103, 25, 121, 71, -1, 23, -70, 103, -25, -24, -113, -4, -4, -53, 30, -119, -32, 67, -83, -91, -115, 37, 98, -13, -3, 68, -5, -126, 2, 76, -55, 13, 40, -90, 102, -121, -124, -34, 102, -55, 55, -65, 103, -95, -40, 21, -115, 74, -69, 41, 104, -89, -56, -28, 115, 99, 111, -36, 45, -73, 30, 117, 17, -47, 114, -55, -67, 8, 74, -87, -44, -84, -2, -15, 14, -119, 25, 9, 65, -112, -7, 10, -92, 106, -57, -7, -126, 29, -1, -54, -71, -93, -97, 64, -64, -6, 53, 1, -86, 14, -15, -57, -41, -60, -94, -43, -127, 92, -68, 52, 22, -74, 120, 41, -15, -121, 93, 12, -103, -111, 14, 121, 1, -121, 94, 40, 5, 71, -3, 56, -26, -105, 69, -33, 106, 9, 85, -66, -124, 39, -123, 12, 3, -109, 53, 81, -125, 78, 97, -6, 102, 67, 6, 87, 120, -22, 86, -34, 4, 92, 66, -88, -120, -4, 0, -50, 60, 120, -119, -14, -103, -79, -91, 12, 67, 10, 109, -117, 33, -94, 41, -93, 118, -7, 61, 49, -122, -80, 106, 50, -63, 85, -47, 111, 105, -40, -89, 53, 66, 92, -125, 24, -2, 49, 51, 98, 8, -119, -44, -77, 54, -61, 63, 2, 61, 107, 116, 94, -90, 15, 32, 41, -123, -89, -90, -22, -56, 100, 62, 99, 121, -98, 50, 119, -87, -119, -45, -75, -94, 38, -117, 101, 72, -16, 28, -120, -41, 34, 49, -108, -7, -22, 67, 59, 27, 50, 4, -47, 122, -110, 6, 17, 0, 48, -69, 99, -85, 68, 108, -97, 97, 47, -91, -29, -125, 58, -120, 14, -92, 1, -56, -106, 9, 18, 89, -72, -20, -49, 81, -30, -80, 27, -92, -48, 61, 118, -105, 1, 48, -40, -110, 64, -67, 83, 27, -107, 1, 104, 68, 43, 93, -59, 84, -34, 33, 26, 94, -5, 39, 122, 46, -57, -96, 14, -97, -103, -124, 104, -38, -26, -53, 109, -115, 45, 5, 100, 120, -82, 126, -27, 76, -21, -60, 26, -126, -7, 114, -34, -68, -2, 19, 69, 22, 5, -117, -4, 55, -12, 30, 34, -111, 78, 114, -70, -56, 119, -121, -26, -91, 45, -5, -72, 73, 41, -118, -111, -111, -66, 63, -102, 0, 57, 122, 9, 50, 12, 42, 73, 112, -11, 77, -101, -125, -57, 40, 61, 85, 75, -110, -114, -67, 71, -41, -114, 65, 27, 22, 23, 93, -8, 108, -97, -16, 38, -55, 110, -120, -66, 100, -90, -95, 76, -81, 5, -56, 56, -12, -7, 110, -27, -80, -116, 89, 66, 8, -46, -89, -18, 66, -108, 56, -124, 11, -93, 111, 120, 46, -58, 76, -79, 25, -13, -61, 111, -28, 37, 111, 64, 45, -31, -14, 81, 125, -26, 66, -52, 49, -92, -81, 92, 35, 19, -38, 24, -67, -18, 106, -127, 53, 87, -98, 42, 4, 6, -48, 109, -43, -63, -108, -16, 14, 74, 113, -27, 78, 0, -10, -52, 14, 49, 86, -57, -77, 77, 96, 54, 61, -9, 25, -68, 23, 48, 92, 96, 88, 95, -124, 16, 65, -46, -36, -42, 4, 70, 102, 5, 103, 34, -65, -54, 89, -20, 55, 36, -43, 48, 63, -109, -51, -73, 66, -113, -19, 109, -13, -17, -8, -116, -108, -47, 75, 85, -94, 37, 17, 15, -46, 8, -100, 75, 85, -19, -61, 85, 64, 61, 89, 65, -97, 85, -5, -121, -100, 69, -98, 14, 49, -83, 27, 70, -20, -122, -75, 49, -20, -75, 76, -60, -105, -63, 126, 62, -57, 40, 102, 41, 15, 105, -91, -124, -55, -56, -28, -118, 119, -113, 44, 22, -62, -92, -113, -20, 106, -64, -84, 51, 104, -78, -10, -8, 19, 80, -17, 27, 67, -18, 47, -1, -75, 15, -39, -25, -7, 63, -118, -55, 48, -86, 1, -4, 71, -73, 46, 58, 80, 86, 125, -4, 44, 117, -57, -73, 36, 113, 92, 16, -77, -13, 20, 38, -78, -73, 100, -89, -30, -53, 32, -21, -42, -56, 6, 19, -118, -110, 121, -104, -85, 39, -81, 22, 112, 14, -64, 102, -97, -82, -86, 24, 14, 90, 118, -83, 80, -93, -79, -82, -57
};

static const int convolution1_bias[32]={
    0, 0, 0, 0, 0, 0, 0, 0, 0, 0, 0, 0, 0, 0, 0, 0, 0, 0, 0, 0, 0, 0, 0, 0, 0, 0, 0, 0, 0, 0, 0, 0
};

static const int convolution2_weights[3*3*32*32]={
    -13, -72, 99, -88, 103, 19, -81, -20, 121, -81, 94, 100, 27, -109, -90, -16, -76, -97, 25, -18, -98, -52, 78, -25, 14, 99, 125, -18, 0, -98, 12, 13, 23, 6, 111, 44, 12, 11, 44, -116, -71, 80, 114, 35, -54, 91, 37, -67, 123, 31, -78, 25, 120, 49, -101, 68, 65, -11, -119, 97, -68, 76, 19, -95, -25, -98, 23, -61, -102, 55, 34, -37, -25, 116, 4, -119, -46, 88, 67, -91, 75, -51, -48, -18, 100, -41, 70, -85, 33, -62, -101, 71, -37, 84, -53, -120, -107, -42, -97, -105, 55, -74, 42, -115, 50, -120, 36, -41, -5, 122, -19, 71, -42, 105, 48, -73, -46, -106, -33, 43, -112, 69, 106, -104, 73, 27, 118, -71, 77, 9, 84, -116, -72, -84, -18, 40, 36, 119, 63, -86, -30, -28, -70, 45, 89, 72, -54, -125, 114, 54, 61, 115, -43, 28, 76, 118, -22, -10, 40, -98, -22, -114, 89, 78, 59, 30, -65, -55, -75, -1, -71, -37, -5, 13, -35, -123, -50, -92, -46, -44, 103, 29, 100, -91, -80, -54, -38, -74, 91, 63, -29, 76, 54, 81, 66, -24, 82, 125, 112, -9, -106, -55, 48, -101, -20, -53, 22, 38, -109, 88, -97, 81, -80, 7, 107, -21, 36, -113, -32, 63, -114, -9, 82, 30, 109, 43, -60, 23, 53, -81, -117, 87, -82, 50, -10, -108, -119, 101, 113, 117, 42, 38, 60, -68, -112, -99, -84, -112, -39, -117, 48, -115, 90, 62, 15, 114, -117, -12, -111, -77, -99, 38, -98, 70, 43, 73, 65, 29, -14, 55, 34, -82, 109, 9, -45, -60, 78, -59, 101, -10, 54, -106, -75, -115, -110, -95, 23, -61, -52, 113, -54, 64, -14, -28, -125, -56, -64, -108, -109, 65, 109, -23, 3, -1, -35, -101, -53, -26, 63, 61, 50, 122, 62, -20, 96, -14, -123, 29, 75, 103, -16, -13, -37, -47, 63, -24, -92, -20, -47, -120, 0, -25, -9, 55, 28, -66, -34, 105, -35, 2, 104, 16, -54, 123, -107, 110, -89, 49, -42, -127, -83, -19, 3, 124, -11, -119, -105, 12, 122, 97, -91, -10, 99, -97, 58, -6, -102, -99, -33, 7, -126, -84, 12, 80, 83, 54, -106, 43, 12, 37, 86, 12, -58, -114, -43, -101, -56, -118, 111, -44, -97, -36, -4, -61, 52, 9, 2, -114, 57, 127, 70, 32, -44, -81, 99, 60, -3, 90, -108, 52, 110, 34, -48, 3, -65, 37, -122, 39, 106, 2, -121, -112, -41, 28, 65, -86, -112, -99, 5, -68, 83, -35, 47, -52, 119, -56, 53, 87, 11, 19, 15, 13, 1, -127, 4, 110, 57, 66, 85, -36, -108, -19, -12, 25, -112, -30, -19, 49, -4, -52, -7, -66, 15, -89, 20, -31, -109, 24, 33, 76, 95, 29, 108, 31, -7, -36, 64, -19, 100, 51, -110, -76, 30, -4, 32, 96, 72, 103, -67, -76, -116, -1, 120, -123, 86, 84, -120, 95, -33, 102, 91, -84, 125, -14, -23, 50, 64, 72, 93, -62, -25, 93, -21, -101, 123, -2, -5, -94, 88, -50, 14, 109, -89, 15, 109, 50, 124, -108, 20, 19, -80, 104, -53, 78, -25, -111, 27, -110, -104, -90, 55, 86, 107, 45, 0, 122, -60, -67, 40, 37, 7, 94, 23, -77, 27, 52, -71, -44, 56, 52, -18, -55, 48, 46, -87, 66, -68, -55, 7, 18, -29, 15, 0, -97, 90, 109, -41, -86, 72, 102, 9, 42, 59, 113, 24, 4, -53, 11, 2, 103, -71, -79, -4, -81, -39, -67, -21, -48, 82, 9, 93, -51, -2, -35, -54, 47, 117, -25, -115, 88, -5, 48, 92, 48, -33, -109, 20, -21, 57, -7, 120, 6, 106, 98, -104, 9, 45, -87, -79, 121, -66, -32, -113, 37, -80, 23, -97, -36, -51, -55, 60, 52, -33, -8, -54, -48, -47, 54, 41, -16, 34, -104, -59, 2, 2, -81, -107, -86, -91, -103, -5, -15, 82, -38, -70, -57, 94, 82, -117, 3, 40, -118, 96, 28, 75, -101, -116, -7, 116, -63, 120, -125, -38, 113, -26, -13, 83, 45, 2, -89, 17, 22, 96, 75, 96, 5, -122, -100, 65, -42, -24, -37, -22, 110, -58, -37, -86, -78, 1, -125, 13, 54, -29, -44, 72, 76, -10, -43, 52, 6, 10, -36, -11, -2, -13, 13, 13, -24, -75, -60, -125, 31, -16, -56, 64, -17, -94, -76, -85, -59, -81, -91, -110, 52, -1, 50, -18, 87, -28, 20, 25, -85, 115, -102, 112, -90, 109, 76, 109, -93, 65, -90, 28, -74, -70, 34, -22, -124, 123, 104, 91, -86, 88, -43, 46, 35, 120, 123, 39, 11, -35, -64, -12, 117, -90, -55, 35, 37, -97, -43, -96, -75, -108, 105, 112, -102, -92, -37, -12, 23, -123, 98, 51, -1, 42, 83, -122, -49, -42, 77, -5, -47, -39, -112, 77, -38, 1, -114, -112, 1, 122, -1, -93, 51, -20, -32, 34, -104, -16, 85, -7, -124, 49, 74, -49, 44, 32, 99, -68, -44, -14, 86, 13, 106, -102, -50, -112, -68, 98, 106, -81, -62, -47, -122, -42, -32, -77, 22, -83, -125, -92, 18, -93, 2, -12, -64, 56, 44, -64, 116, 2, 78, 54, -110, 56, -47, 120, -5, -115, -42, -51, 81, -3, -91, -29, -47, 92, -15, -113, 52, 46, 94, 108, -68, -60, 77, 23, -104, 86, -82, -102, -65, 22, -111, 55, 54, 44, -102, 112, 3, 114, -40, -65, 29, -27, 75, -66, 4, 33, 76, -67, 84, 107, -24, -94, -65, 15, 10, -34, 63, 118, 14, -72, -104, -127, 65, 26, -43, -61, 83, -100, -80, 126, -43, -18, -103, -68, -32, -82, 86, -18, -20, -11, -107, 88, -21, 32, 85, -27, -8, -20, 67, 5, 58, 52, 97, -12, -48, -114, -32, 43, -93, -98, 74, -96, 90, -126, -24, 73, 77, 56, -34, -57, -35, 56, -14, 124, 80, 117, 58, -22, 50, -104, -47, 113, -89, 62, -83, 91, 64, 102, 61, 82, -8, -6, -119, 119, -22, 61, -42, 66, 108, -39, -26, 116, 113, 22, -107, -45, 37, 11, -116, 9, 21, 99, 100, -49, -74, 122, 36, -4, 61, 79, -39, 63, -5, -76, 4, -119, 83, -37, -45, -20, -63, 8, -49, 73, 67, -120, -38, 45, 10, 78, -101, -122, 91, -30, 38, -65, -91, 26, 66, 35, 47, -74, -58, -120, -23, 88, 35, -19, 56, -111, -29, -113, 100, -90, 110, -55, -94, -87, -7, -33, -30, 98, -10, -67, -118, 63, -31, -54, -16, -111, -84, 38, 77, -61, -47, 19, -119, -84, -104, 50, -5, 108, -80, -43, -113, -28, -31, -99, -120, 68, -116, -98, -20, -18, -77, 110, 114, -73, 62, -33, -118, 6, 75, -11, -84, -34, -89, 80, -8, 110, 85, -99, 61, 117, 119, -9, -71, -2, 4, -41, 35, 38, 40, -55, -76, 0, -94, 110, 27, 55, 26, 82, 42, 116, 96, -70, 70, 73, 59, -127, -79, -41, -125, -115, -3, 30, -121, 39, 81, -66, 35, -33, -90, -108, 17, -127, 20, -66, -114, 100, -91, 39, -43, -46, -87, 60, 73, 51, 84, 81, -15, 88, 7, 119, -77, -16, -51, 105, 83, -113, -26, 10, -86, 45, -47, -21, -57, -97, -43, -37, 46, -61, 16, 63, 117, -42, 97, 57, 18, -109, 70, 14, -71, -59, 5, 95, 69, -42, -28, 29, 31, -34, 50, -65, -106, -55, -89, -40, 0, 85, 19, -73, 86, 14, -26, -107, 12, -1, 64, -121, 32, -111, -40, 26, -119, -61, 5, -29, 96, -55, 120, 124, 104, 118, 126, 95, 71, 58, 42, -24, -107, -58, 104, -44, -70, -17, -22, 30, 92, 40, -117, -91, 69, -91, -122, 85, -6, -38, 11, -106, -31, 30, -73, -5, 86, 4, -46, 40, 13, 59, 117, -121, -20, -58, 8, -4, -61, 43, 18, 15, -9, -28, -15, -42, 114, 111, 70, 55, -81, 45, 11, 52, 0, -83, 109, -72, 124, 48, 127, -31, 30, -93, 97, -67, -84, -13, 107, -21, 1, -105, -17, 9, 9, -50, -48, -55, -53, 39, -22, 58, 94, -100, -62, 117, 110, 75, -76, -127, 19, -11, 112, 83, 27, -89, 46, 112, -33, 35, -40, 64, 127, 109, -84, -81, 3, -44, -75, 29, 6, 27, -1, -16, 80, -15, 90, -2, 111, 61, 67, -42, 54, -61, 123, -3, 59, -102, 125, 95, -93, -16, 20, -126, -54, -29, -104, 41, 100, -20, -84, 80, 73, 42, -78, -52, 69, 122, -113, 2, 29, 34, -126, 51, 96, 88, 28, 114, 10, -1, -78, -112, -16, -44, -48, 122, -44, -110, 36, 26, -66, 95, 22, -73, -125, 98, -109, 17, 122, 122, -120, -113, -8, 77, -9, -17, -91, 59, -78, -85, -38, -60, 68, 34, -68, -101, 90, 77, 40, 106, -13, 61, 21, 40, -119, -29, 0, 81, -21, 30, 96, -118, -44, -28, -4, -118, -104, -116, 11, -21, 97, -9, -54, -102, -14, 27, 83, -52, -61, -1, 8, 25, -79, 115, 71, 94, 30, 8, -10, -14, -124, 79, -59, 113, -64, 45, 26, 1, -7, -67, 89, 108, 115, 54, -35, -62, 88, -86, 32, 105, 42, 1, -48, 127, 99, -11, 48, -51, -25, 16, 32, -79, 52, 80, 99, 41, 8, -5, 110, 40, 1, -53, 88, -104, -98, 37, -82, 88, 29, 65, 2, -23, -6, 106, 17, 19, 97, -97, 126, -95, -91, 56, -64, 89, 43, -84, -21, -90, -7, -29, -11, 20, 100, 122, 22, -96, 84, 59, 69, 44, 123, -41, -22, 35, 61, -60, -74, 69, -55, -79, -126, 55, -107, -39, 39, 101, 105, 8, -90, -13, -49, 44, -25, -55, 25, -90, -94, -115, 110, 83, -4, 26, -23, -77, -113, 91, -60, -87, -39, -35, 105, -95, -60, -96, 2, -122, 80, 49, 109, -3, 71, -117, -114, 19, 97, -124, 47, 84, -91, -5, 62, 95, -12, 122, -9, -68, -30, 0, -43, -106, -97, -48, -74, -52, -39, 97, 65, -93, 100, -58, -116, 41, 7, 7, 81, 31, -69, -51, 40, -102, -33, 126, -6, 72, 78, 23, 54, -108, -39, 125, 11, -47, -59, 125, -125, -29, 6, -63, 86, 17, -16, -94, -108, 46, -103, -10, 63, -33, 99, -41, -120, 6, -95, -7, 70, 35, 113, -36, 105, 52, -107, 5, 109, -75, -47, -46, 111, 43, 44, 124, 19, -43, 30, -57, -124, -82, -30, -120, -55, -68, -37, 41, -84, 12, 17, 44, -32, 77, 39, 63, -111, -122, 4, -109, -25, -123, 64, -116, -20, 121, -53, -53, 123, 49, 24, -119, 37, 7, 123, 8, 101, 79, 84, -33, 119, 114, -25, 119, -82, 53, 34, 67, 112, 16, -40, -36, -77, 32, 71, -64, 89, 101, -90, -117, 16, 25, 97, -88, -84, -14, -45, 77, 96, 69, 47, 82, 43, -39, -55, 97, 110, -78, -106, 94, 59, 119, -92, -106, -69, -4, -97, -100, 111, 95, 90, -86, -93, 86, -91, 73, -57, -65, 86, -118, 1, -37, -114, 12, -112, 3, -45, -118, 68, 24, 13, -75, -43, -78, -106, -41, -122, -60, 57, 36, 38, -7, 5, -100, 34, -83, 23, 50, -59, -1, 67, -52, 124, -27, 17, -123, 71, 17, 44, -122, 47, 68, -102, 108, -54, 51, -78, 0, 92, -111, -30, -109, -32, -51, 24, -123, -73, 105, 69, 53, -42, -53, -61, 121, -93, 12, 24, -80, 102, 83, -82, -88, 40, -23, 26, 34, -66, -4, 9, -23, -114, -127, -109, -80, -97, -61, 114, -29, 38, 25, -51, 77, 10, 34, 45, 123, 104, -5, -45, 56, -28, -37, 67, -87, -95, -24, 79, 13, -60, 25, -41, -39, 104, 103, 114, 26, 5, -3, 77, 1, 75, 110, 80, 78, 126, 11, -83, 6, -5, -12, -43, -58, -84, 115, 47, -120, -113, -22, 60, 56, -47, -75, 14, -42, 25, -68, -97, -21, 125, 121, -116, -16, -21, -112, -7, 88, -21, 43, 41, 98, -44, -54, 50, 127, -69, -111, -78, 76, 117, 80, -107, 13, -52, -35, -51, 90, 62, -36, 105, -13, 110, -45, -13, -50, 11, 77, -110, 98, -116, -122, 121, -14, 61, 115, -47, -66, -78, 68, -60, -96, 44, -53, 24, -60, -120, 7, 9, -70, 89, -89, 71, 117, 73, 47, -39, -36, -46, -23, -31, 113, 68, -91, -60, 102, -124, 71, -106, -41, -32, 23, 10, 87, -14, 39, -76, 79, 66, -9, 52, -53, 67, 5, -110, 103, 111, -44, 52, 48, 68, -47, 71, -41, 13, 44, -110, -43, -104, 117, -109, -87, 77, -49, 17, 93, 52, 109, -97, -100, 61, -81, -119, 7, 58, -77, -14, 82, -40, -42, -115, -110, -16, 6, 30, 44, 106, -24, -71, 58, -5, 125, 38, -70, 5, -20, 41, -6, -21, 14, -105, 63, -69, 87, -84, 37, 10, 27, 12, -52, 85, 62, -50, -124, -16, 106, 88, -109, 24, -25, 20, 80, 127, 118, -86, -108, 21, -74, 121, 97, -60, -20, -90, 34, 83, -99, 34, -69, 20, -79, -78, -34, 43, -47, -89, -106, 2, 8, 34, 5, 30, -55, 80, 54, 66, -18, 82, 25, -114, 1, 116, 76, -83, 6, -5, 81, 9, -109, -73, -43, 37, -72, -36, 69, 68, -71, -2, -26, 85, -21, 47, -17, -62, 80, 70, 91, -13, -121, 8, 57, -69, 73, 50, -45, -11, 84, -93, 75, 94, -18, -39, 61, -53, -47, 30, -38, -44, -12, 72, 32, -116, -18, -13, 115, 33, -118, -29, -41, 85, -101, 98, -14, 52, -102, 46, 127, -12, 112, -41, -62, -41, -60, -23, 108, -63, -40, -19, 72, 87, -91, 116, 118, 39, -111, -4, 27, 94, -15, 53, -38, 25, -72, -21, -41, 89, 56, -77, -74, 110, -116, -122, 74, -116, -112, 119, 109, -5, 76, -90, -27, -80, 123, 79, 46, 13, -59, 13, 121, 13, -65, -68, -79, 89, -60, 95, -91, 113, -126, 53, -26, -47, 26, -56, 27, 67, -33, 101, -79, 115, -39, -69, -14, -23, 93, 121, 80, -61, 92, 28, -106, 65, 25, -32, -93, 21, 2, 74, 110, -61, 27, 18, 58, -24, -79, 99, -85, -57, -108, -16, -89, -84, 97, -43, 85, -125, -25, 73, 35, -20, -72, -8, 111, 100, -107, 98, -1, -54, -60, 34, 9, 63, -8, -96, 116, 78, -81, -31, -101, 42, 73, -20, 67, 30, 108, 25, 101, -43, -33, -119, 82, 101, 3, -3, -33, -57, 88, 66, 17, -38, 79, 30, -54, -76, -118, 122, -20, 120, -106, 33, -55, -45, -33, 124, 115, -37, -9, -63, -31, -78, -15, 13, 21, -90, 64, 113, 85, -64, 10, 119, -96, 59, -44, -51, -45, 80, 23, -24, -31, 84, -93, 87, -88, -4, 2, 66, 71, -113, 61, -2, -73, 95, -89, 5, 21, 39, -84, -50, 42, -63, 62, 76, 108, 110, 36, 57, 87, -33, 105, -93, 15, -20, 62, -113, 65, -12, -40, -83, -15, -71, -27, -72, -111, -71, 58, -49, -89, -74, 52, -8, -86, 124, -21, -77, -93, -45, -49, -112, 114, -53, 116, -44, 95, -108, 42, -53, 52, 116, -102, 50, 95, 83, 93, -44, 2, -119, 115, 66, 54, 116, -102, -38, -77, -23, -119, -87, -88, -96, -2, 116, -56, -43, -22, -118, 110, -3, -24, -102, -1, -70, -49, -45, -36, -8, 92, -22, -57, 14, 57, -79, -43, 76, 72, -59, 24, 10, 68, 77, 92, -112, -64, 55, 61, 15, 109, -21, 16, 105, -56, -9, 115, 29, -77, -25, 94, -38, 126, -45, 17, -57, 58, 33, 98, -85, 80, 67, 97, 59, 10, 13, -18, 93, 70, -38, 106, -126, -34, 10, 6, 46, 47, 16, -57, -85, -116, 70, -80, 36, -103, -95, -33, -112, 120, 27, -20, 51, -106, 81, -82, -95, 42, -53, 26, 127, -57, 40, -35, 117, 8, -85, 109, 64, -75, -87, -124, -126, 62, -111, 116, -97, -88, 123, 1, 1, 118, -60, 111, 111, 127, 29, -3, 115, 62, -58, -17, 81, 37, 123, -28, 96, 71, -74, 76, 47, -126, 9, 56, 81, 6, -9, -1, -5, -119, 21, -7, -60, 23, 63, 115, 90, -105, -103, 29, -95, -57, -121, -33, -67, 18, -48, 15, -4, -96, 4, 86, 41, -72, 11, -95, -123, -77, 46, -20, -55, -4, -101, -54, -113, 124, -113, 78, -124, -110, -23, 63, 30, 28, -43, -54, -97, 111, 39, 21, 54, 101, 59, 103, 60, 77, -93, 14, 61, 65, 95, -38, 117, -113, -95, -84, -84, 78, -110, -13, -81, 98, 117, 61, -2, 39, -62, -88, 122, 92, 73, 34, -104, 107, 40, 10, -86, 72, -50, 73, -101, 28, -110, 6, -120, -75, 56, 71, -107, -72, -50, -54, -125, -123, 9, -58, -105, -25, 85, -13, 87, 6, 77, 2, -71, 118, 99, 112, 16, 73, -94, -40, -82, 14, 40, 86, 27, -44, 3, -85, 26, 117, 84, 41, 73, -57, -121, 60, 68, 109, -2, -37, -38, 70, 8, -30, 38, 19, 6, -75, 64, 27, -41, -4, 23, -13, -48, 69, -6, 1, -72, -118, 116, -17, 25, -29, 61, 25, 51, -49, 3, -101, 103, -8, -65, -8, 85, -100, -92, 61, 80, 33, 57, 65, 69, -2, -119, -5, 31, -55, 70, -42, 25, -34, -56, -78, 35, -108, -30, -116, -102, 60, -56, 77, -47, -45, 123, 104, -39, 73, 58, 92, -105, -36, -51, -73, -10, 22, -116, -112, 33, -64, 118, 116, -125, -88, 49, 22, -32, -126, -34, 64, -73, -42, -71, 110, 35, -29, -32, -45, 74, -105, -89, -13, 50, 79, -120, 61, 81, -39, -98, -48, 89, 48, -68, -120, 81, 8, -36, 110, 84, -18, -33, -77, -68, -89, -30, -10, -11, 12, 84, -12, -14, -103, -107, -99, -10, 19, 50, -55, -33, -78, -93, -33, 19, -70, -78, -77, 38, -58, 1, 126, 27, 34, -9, -87, -53, -116, -15, 50, 67, -85, -15, -61, 17, -65, -103, -25, -107, -84, 42, 84, 64, 0, 99, -45, -52, -7, 10, 59, -91, -69, 88, 100, -105, 56, 125, 118, 0, -126, -96, 125, 106, -118, 13, -82, 104, 110, -68, -97, -71, -63, -52, 86, 8, -20, 94, 68, 28, 27, 63, -100, -95, 21, -67, 87, 99, -77, 113, -106, -23, 112, 62, -93, 91, -13, 100, -28, 88, 40, 17, -23, 111, -30, -50, 26, 81, 85, 114, 41, 10, -74, -40, -58, 84, -119, 16, 5, -56, -69, -113, 36, -96, 62, -18, 104, -59, 2, -35, 85, 125, -65, 10, 24, -119, -51, -34, -3, -61, 32, -45, 2, 79, -40, -115, -3, 115, 31, -112, 16, -67, -45, 63, 15, -24, -14, -118, -55, -75, -31, 11, -123, 78, 108, 31, -41, -96, 93, -63, 105, -33, 42, 111, -102, 49, -28, -110, 109, 18, -98, -108, -37, -102, -51, 102, 11, 55, 72, 112, 42, -16, -21, -87, 57, 13, 67, 56, 96, 100, -123, 47, 99, 125, -120, -104, -119, -4, -18, 13, 114, 58, 95, -101, -66, -53, 43, -20, -117, -41, 108, 41, -82, 46, -27, -32, -121, -74, -79, 31, 16, -32, 46, -34, -109, 64, 33, -118, -121, 87, -10, -59, 13, 54, 84, 10, 27, -23, 27, -17, -123, 87, 84, 69, -2, 46, -55, -123, -98, -42, -71, 78, -61, 11, 9, 15, 6, 119, 15, -93, -84, 57, 87, -8, -39, -63, 110, -57, -58, -73, 107, -99, 18, -33, -98, 40, 55, 74, 100, -68, 32, -32, 41, -7, -125, -123, -69, 39, -103, -56, 84, 28, -80, -78, 56, -112, -125, 29, -73, -4, -113, 89, -73, 36, 35, -124, 57, 102, -64, 38, 48, 42, -29, 119, -75, 113, -50, -55, -49, 73, 18, 53, 57, 20, -125, 37, -54, -90, 37, 37, -21, 18, 33, 62, 89, -88, -9, 124, 68, -110, -70, 51, -120, 89, 72, 48, 6, -17, 112, 20, 94, -106, 34, -113, -93, 25, 65, 82, -53, -5, -73, -28, 7, 17, -102, 21, 46, -5, -111, -72, 16, -10, 66, 1, -64, -95, 74, -83, 56, 47, -15, -69, -48, -30, -126, -20, 17, 3, 69, 79, 1, -96, 82, -84, -93, -121, 110, -4, -43, 100, 61, -11, -94, -16, 1, -68, 77, 105, 71, -90, 57, 6, -117, 60, -120, 79, 42, 49, -64, 64, -104, 91, -106, 38, 63, -4, 5, 37, 76, -91, -21, -94, 21, -5, -44, 55, 95, -114, 107, -81, 115, 121, 94, 25, 8, 4, -115, 77, -121, 42, 103, -84, 94, 24, -125, -65, -68, 5, -44, -73, -17, 77, -108, 76, -8, -23, -15, 68, -40, 45, 91, -21, -102, 16, -120, -54, 41, -18, 54, -122, 22, 26, -45, 67, 15, -11, 6, 16, 80, -38, -51, -125, 117, 84, -95, 58, 121, 93, 39, -19, 119, 121, 86, -124, -30, -113, -97, 48, 67, 103, -104, -78, 52, 101, -103, 43, 90, 50, -7, -103, -81, -37, -87, -119, -13, -82, -69, 115, 11, -10, -48, -61, 64, 114, -113, 113, -4, 72, 46, -118, 43, 58, -102, -42, 53, 97, 82, 22, -121, 95, -101, -12, 84, 119, -87, 63, -99, -96, 63, -70, -81, 68, -22, -66, 32, 66, 40, 52, 83, 91, -121, -24, 96, -13, -36, 39, -44, 104, -115, 32, -94, -8, -96, 65, 81, 117, -47, 13, -43, 36, -112, 116, 101, 8, 20, -47, -15, -2, -107, -28, 12, -6, 126, -94, -74, 81, 41, -5, 34, -100, -80, -126, -112, 64, -93, -85, -25, -62, 69, -89, -46, -44, -54, 108, -40, 7, -4, 117, -71, 89, 102, 113, 81, -64, -115, 88, -41, -12, -44, -71, -90, -126, -8, -15, 108, 47, -54, 97, 114, -116, -18, -51, 117, 111, -30, -92, -43, 59, -47, -97, -19, 81, 64, 90, 80, 0, 50, 125, 99, -12, 9, -13, 83, -32, -12, -73, -63, 74, -10, 59, -72, 90, -116, -50, 59, -98, 3, -124, -25, 71, -106, -121, 77, -120, -90, -63, -75, -78, 22, -36, 79, -1, -102, -46, 12, 8, 52, -4, 105, 123, 18, -16, 55, -51, 104, 120, -78, -26, 28, 26, -123, -12, 89, 34, -109, -123, 86, 116, 28, 71, -114, 2, 98, -12, 121, 65, -81, 86, -58, 46, -70, -54, 13, -49, -35, -38, -81, -56, 110, 57, -32, 69, -64, -42, -10, 115, -97, -103, 118, 121, 19, -1, 102, 45, -123, -116, 68, -97, -32, 122, -31, 7, -87, -94, 96, -123, 39, 59, 9, -107, 92, 26, 34, -118, -79, -8, 12, 71, -28, -65, 90, -58, -111, -64, -37, 5, 27, -2, 49, 83, -91, -34, -34, -27, -52, 56, -63, 77, -64, -93, -28, 77, -31, 88, 51, -16, -73, 75, -105, 66, -126, -63, -121, 35, -36, -54, 85, -46, 116, -16, -79, 72, -46, -43, 87, -23, 87, -73, 36, 10, -20, 36, 12, -52, 2, -8, -83, 24, 54, 64, 99, -59, -45, 118, 38, 115, 79, 59, 75, -40, -34, 66, -36, 6, 123, 112, 103, 91, -118, 12, 119, -114, 38, -60, -13, -92, 82, -96, 38, 99, -39, -36, 110, -87, -75, 63, -99, -112, -66, 47, 122, -127, -4, 92, 12, -3, -22, -45, 99, -19, 32, -72, 46, 15, -38, -116, 118, -113, 21, 18, -120, 35, -11, -91, 68, 19, 54, 10, -59, 62, -30, -25, -75, -87, -103, 5, -89, 35, 54, 5, -5, -60, -127, 88, -25, -18, -126, -81, 25, 36, 21, 122, -115, 87, -116, -8, 105, -6, 8, 71, 113, 72, -11, 124, 17, 71, 60, 47, -119, 126, 93, 105, -6, 109, 41, 66, -116, 6, 116, -94, -58, -53, -46, -101, -76, -114, 56, -77, 12, -36, 52, 41, -2, -59, 91, -121, -94, 81, 82, 98, 16, -11, 101, 60, 102, -98, -95, -24, -30, 91, 19, 92, 38, 61, 52, 72, -42, -72, -7, 94, -77, 40, -116, 5, -19, 13, -116, 110, 123, -61, -111, 125, -13, -23, -55, 115, 103, -96, -55, -1, -56, 108, 117, 6, 98, -40, -23, 127, -33, 32, 124, -21, -10, -73, 63, -54, -77, -10, 88, -107, 78, -14, -12, 58, -9, 63, -17, -7, 113, -90, -122, 60, 22, 122, -119, 59, 100, -29, -109, 43, 125, 81, -104, -44, 68, 6, 3, 58, -23, -120, 57, 102, 11, -91, 33, -42, -24, -123, 91, 19, -49, -113, -95, -23, 93, 54, 126, -29, -117, -9, 17, 29, -28, 23, -126, 28, -10, 21, 46, -115, 18, 46, 78, 84, -112, 55, 68, 74, 84, -100, 22, -26, 40, 68, -58, 26, 119, -106, 29, -96, 52, -106, 91, -38, 72, -115, -44, -7, -5, 56, 115, -40, -63, 2, -126, 43, -29, -49, 121, -98, 10, 125, -81, -64, -52, -76, -78, -74, -116, 4, 76, -40, 125, -60, 24, 105, -3, -27, -25, -86, 92, -11, 68, 14, -7, 126, 104, 11, -106, 73, 44, -46, -21, -15, 65, 6, 19, -77, -25, 117, -127, 37, 95, -96, -125, 5, 10, -3, 106, -82, -49, 2, 47, -123, 118, 122, -94, 93, -103, 56, -122, 68, 8, 29, -78, -87, 19, 29, -57, -25, -66, -123, -56, -47, 38, -19, 36, 52, 81, 105, 12, 118, 55, -105, -119, 125, -127, 16, -65, -41, 57, 20, 17, -86, -120, -40, 103, -82, -57, -23, -113, 22, 81, -124, 73, 36, -48, 84, 34, 51, -27, 88, -72, 77, 69, -110, -63, 113, -126, 3, -40, -76, 50, 115, 100, -89, 28, -86, 113, 9, 61, -65, -33, 64, 89, 123, 127, 10, 14, -1, 117, 43, -92, -112, -57, 1, -74, -21, -106, 79, -10, 108, 28, 67, 101, 65, -81, 32, -125, 71, 98, -78, 59, -45, -31, -111, -102, -14, 38, 23, 56, 98, 89, -10, -113, -76, 75, -1, 75, -125, -1, 90, -60, 39, 70, -68, 101, -45, 111, -19, 48, 4, -4, 39, 40, -77, -30, -77, -124, 38, -109, -44, 78, -113, 52, 89, 50, -26, -38, -71, 28, -99, 75, 122, -41, -42, -66, -59, -21, -45, -117, -66, 97, 118, 18, 33, 97, 33, -29, 123, -48, 27, 60, -9, 79, 36, -54, 16, 117, 44, 61, -116, 30, 77, 3, 76, 29, -10, 3, 18, -100, -51, 47, -33, -80, -120, -41, -123, 99, 10, -90, 79, 53, 64, -42, -62, 81, 92, -99, -22, 81, -29, 101, -43, 79, -75, 9, -77, -57, -65, 7, -102, 79, -1, -52, -3, -22, 71, -124, -93, -94, 99, 83, 71, 106, -12, 72, 83, 51, -32, -91, -98, -78, 44, -74, -94, 43, 6, -37, 71, 63, -35, 47, 38, 118, -124, 123, -122, 39, 34, 45, -8, 47, -85, -89, -112, -113, 21, -21, -108, -107, -100, 70, 60, -103, 85, 90, 19, 1, 108, -29, 46, -10, 86, 59, -89, -26, 43, 16, 101, 46, -79, 27, 115, 86, -45, -36, -5, -45, -56, 94, -45, 70, -76, 5, 82, 99, -105, 43, -47, -1, 64, -110, 32, -16, 103, 116, -19, 10, 112, 75, -47, 113, -52, 9, -2, 19, -72, 7, 46, 65, 100, 108, -109, -52, -118, -90, 23, 79, -72, -15, 16, 126, -115, 72, 47, -74, -25, -80, 79, -27, -81, 54, 62, 21, 101, 21, -106, -63, -70, -120, 44, -38, 117, -7, 13, -14, -75, 117, -3, -38, 112, -21, 20, 40, -85, 67, -1, 0, -63, 122, 33, -88, -107, -106, -11, 120, -126, -117, -38, 108, 16, -118, 84, -63, 48, 75, -103, -76, -117, -71, 97, -105, 102, 81, -90, 54, 73, -6, -124, 107, 23, -119, 63, -63, 104, 15, -73, 40, 5, 101, 125, -127, -103, 18, 80, 102, 114, -71, -84, 125, -127, 126, -97, 94, -66, -58, 43, 2, 59, -86, -48, 127, 71, -25, -88, 66, -25, 67, -98, -93, -25, -23, 31, 53, -70, -82, 94, 33, 72, 22, 41, 5, 108, 70, 90, -92, 108, -77, -84, 10, 109, -73, -8, 120, 66, -86, -88, 101, -47, -114, 45, 55, 123, 15, -110, -12, 64, -81, 21, 30, 55, -99, -107, -39, -4, 13, 67, 54, 3, 41, -24, -49, 5, -30, -13, 101, 47, 97, -116, -42, -95, -13, -62, 7, 92, -35, -72, 15, 59, 71, 63, 88, 103, 50, -29, -93, -64, -46, 52, 0, 48, -113, 82, 123, 111, -83, 37, 93, -110, -86, -55, 124, 96, -114, -91, 30, 11, -42, -102, 97, 37, 85, 111, -74, 82, 24, -55, -13, 98, -75, 19, 78, 74, -28, -58, 40, -87, 91, 10, -41, 46, 44, 37, -106, 106, 67, 52, 67, -103, 68, -106, -102, 45, 110, 64, 17, 12, -28, 35, -64, 50, 49, 87, -67, -1, 15, -66, -63, 68, 69, -98, 3, 72, -94, -20, 82, -116, 56, 62, 53, -68, -17, 83, -41, 73, 111, -6, -41, -35, 33, -48, 121, 70, 31, -93, 8, -116, 103, -71, -2, 49, -16, -125, 111, 68, -28, -48, 62, -126, 75, 3, 32, -63, -50, -11, 5, -102, -101, -15, 114, 124, 7, -28, 65, 15, 33, 125, 74, 119, -22, -42, -103, -39, 121, -52, 32, 101, -85, -7, -75, 92, -78, 96, -68, 98, 20, -101, -7, 58, 46, -88, -33, -45, -35, -41, -68, 26, -122, 103, -38, -10, -119, -51, -51, -7, 101, -95, 32, 34, -11, -45, 100, 40, -121, 80, 94, -52, -101, -14, 113, 64, -15, 41, -51, 82, -5, 63, 26, 56, 22, 121, -40, -49, 13, -61, -81, -93, 44, 12, 9, -119, 24, 37, -50, 62, -38, 20, -109, 78, -118, -56, 13, 35, 5, 47, 114, -87, 45, -96, 42, 9, 84, -11, 36, 45, -54, 125, -106, -103, 55, 41, -103, 34, 66, 79, -6, 51, 65, -111, -37, -60, -4, 65, 105, 107, 36, -94, -16, -2, -120, 43, 121, -77, -24, -62, 54, 31, -42, 107, 84, -7, -5, 91, 27, 28, -105, 14, -75, 28, 112, -103, -89, 23, -43, 103, 35, 73, 112, -58, -118, -62, -35, -113, -49, 92, -124, 123, 5, -100, -84, -12, -90, 7, 32, 55, 11, 127, -7, 29, -53, 38, -26, -39, 74, -49, -31, 93, -35, -22, -2, -87, -40, 58, 97, -71, 19, 88, -5, -53, 22, 67, -21, 124, 29, -79, 41, -72, 78, -47, -112, 64, 72, 3, -121, 66, 57, 93, 118, -89, -81, -105, 78, 10, -34, -21, 25, -96, 86, 28, -6, 49, 96, 125, 36, 1, -53, -76, 43, 44, 54, 120, -30, -101, -106, -59, 92, -122, -41, -62, 49, 77, 17, -69, -86, 53, -116, 115, -124, 121, -60, 40, 121, -116, 92, -72, 38, 42, 27, -40, 110, -85, -29, -84, 2, 41, -121, 83, 30, 103, -29, 60, -4, 104, -46, 38, -51, -116, 104, 33, -120, -51, -17, 95, -13, -92, -34, 10, -91, 57, 72, -112, -94, -23, -27, -18, 100, -9, -105, 98, 32, 87, -100, 32, -60, 116, -56, 90, 69, -58, 98, 59, -36, -116, 96, -24, 100, 92, -112, -94, -51, 66, 105, -45, -113, 12, 26, 77, -121, -123, 39, 78, -104, -8, 91, -119, 12, 53, -110, -99, 33, -68, 33, 51, -93, 97, 79, 72, 53, -123, -84, 10, -98, -80, -27, 102, 98, 50, 121, -126, -6, 27, 31, -67, -15, 16, -48, -13, 86, -101, 3, 85, 41, -56, -99, -62, 37, 96, 106, -74, -46, -13, -98, -18, 3, -94, 11, 50, -12, -62, -100, 112, -48, 55, -3, 73, -6, -13, -7, -57, 87, 78, 92, 76, -53, 93, -42, 66, -51, 15, -8, 103, 103, -39, -62, 96, -80, -9, -5, -18, -91, -69, 75, 69, -61, -87, -14, 73, 12, 124, -71, -74, 7, -93, -39, 13, -53, 13, -38, -106, 126, -83, 34, 53, -82, -51, -34, 57, -117, 41, 104, -57, 86, -89, -112, 14, -73, 13, 99, -38, 105, 28, -84, -78, -21, 63, -19, 123, 10, -30, -78, -81, -69, 0, 65, 53, 7, 70, -77, -18, -53, -126, -36, 73, 94, 29, -79, 118, 10, 94, 114, -90, -107, -94, -114, -46, -77, 111, 57, -125, 117, -73, -13, 15, -49, 123, 12, -123, 125, -41, 64, -1, -116, -127, 86, 62, 24, -59, -72, 90, -17, -71, -26, -126, 79, -126, -30, 32, -67, 35, 73, -81, -108, 121, -63, 17, 86, -62, 110, 84, -30, 60, -94, 36, -15, 104, 51, -45, -65, 73, -17, -114, -122, 63, -28, 25, -12, -69, 122, -90, -5, -47, -87, 60, 33, -48, -69, 1, -39, 106, 42, 5, -126, 95, 103, -9, -110, 62, -3, -4, -99, 74, -6, 59, 34, 32, -7, 72, -24, 11, -25, 58, 37, -94, -121, -34, 126, 58, -118, -43, 11, -115, -106, 73, -6, 14, 120, -68, 88, 32, -116, 120, -120, 115, -94, -23, 61, 15, 121, 113, 127, -111, -10, 41, -97, 33, 43, -30, -123, -80, -7, 40, -52, 28, -104, 125, 6, -103, 59, -3, -18, -49, 84, -79, 99, 90, 72, 89, -124, 37, 58, 78, 119, 5, -98, -26, -85, -84, -118, -19, -99, 75, 11, 23, -117, 0, -5, 16, 64, 2, 9, -43, 7, -54, -55, 35, 9, 122, -121, -110, -52, 57, 14, -11, -108, 21, 98, 11, -120, -40, 123, 19, 51, -102, 63, 96, 104, -120, -70, -88, 18, -53, -103, -85, 97, 87, -28, -6, -37, -72, 61, 41, -62, -58, 59, -110, 19, -66, 111, 7, -10, -1, -94, 14, 51, 122, 57, -37, -108, -117, 112, 6, 22, -15, -44, 56, -54, 120, -7, -114, -10, -45, 22, -3, 43, 40, 38, 51, -121, 87, 29, 37, 127, -53, 38, -15, 48, -114, 7, 10, 91, -2, 47, -53, -116, 30, 122, -92, -41, 54, 8, 79, -59, -4, 82, 16, -110, 88, 62, 125, -62, 116, -89, 52, -56, -102, -16, 5, 123, 99, 68, -18, 7, 29, 61, -123, -1, 25, -123, 101, -8, -62, 115, -81, -20, -123, 115, -77, 59, -64, 25, -16, -125, -75, -70, -113, -1, 63, -49, -61, 120, -66, 25, 55, -31, 28, 54, -101, 65, -27, -122, 81, -86, 19, -124, 92, 41, -58, 79, -29, 66, -122, -17, 99, 42, 73, -7, 10, -33, -116, 1, 115, 21, 71, 45, -101, 121, 55, -102, -110, -87, -14, 36, -26, -122, 69, -35, -15, -59, 89, 110, -46, -10, 90, 47, -84, -100, -32, 6, -48, -95, -67, -123, 29, 95, 27, -126, 75, -46, -73, -72, 18, 37, -23, -75, -3, 115, -49, -114, 30, -38, -71, 86, 48, -12, 36, -74, -40, 103, 0, -120, -127, 27, 18, -19, -65, 88, -31, 3, -51, 117, 15, -80, -16, -96, 108, -97, 122, 105, 124, 6, -106, -15, -85, -106, 113, -82, -65, 121, 39, -63, -110, 118, 68, -2, -37, -114, -31, -104, 109, 89, -74, -55, -49, -80, -85, 66, -74, -35, 112, 105, 19, 65, -29, 50, 120, 4, 57, -85, -69, -37, -38, -10, 88, -94, 35, -80, -113, -83, -25, -12, -106, 66, 92, 80, 95, -68, 112, -57, -94, 94, 20, -34, -1, 107, -106, -93, -41, 71, -12, 29, 18, -67, -44, -110, 0, -9, 16, -77, 23, -68, 79, 125, -73, -29, 71, 126, -87, -70, -28, 64, -49, 72, -121, -55, 0, 98, -127, -32, 23, 126, -113, -34, 40, -38, -110, -109, 119, 2, 107, -10, 6, 98, 12, 67, 72, 17, -52, -112, -9, -36, 48, -87, 95, 122, 45, 33, -91, -91, -105, 50, 35, 38, -52, -117, 102, -19, 1, -68, 9, -111, -100, -31, 16, -65, 43, -119, -68, -16, 120, -16, -10, 125, -28, -21, 93, -122, -69, 19, 37, 38, -73, -123, -43, -102, -49, -66, -37, -100, 36, -9, 99, 43, 40, -33, -56, -36, 3, -81, -25, 115, -15, 45, 115, 102, 28, 42, 97, -56, 126, -59, 37, -62, -56, -14, -104, -84, 33, 7, -63, 27, -87, 69, -49, 38, -24, -81, -56, 100, -42, -34, -42, -16, -77, -126, -82, 19, -34, 58, 38, -34, -100, 24, 4, 98, 112, 8, 109, 3, -46, 94, -117, -88, -86, 34, 126, -111, 91, 111, -44, -6, -94, 125, 101, -86, 26, -28, 109, 113, -18, 117, 1, -37, -64, -99, 37, 36, -121, 19, -26, -121, 70, -96, -52, 118, -47, -125, 92, -19, -37, 30, 39, -99, 108, 27, 46, 104, 80, 109, 7, -17, 0, -51, -64, 36, 84, -8, -57, 77, -75, 101, -22, -64, -47, -41, -103, -8, 119, 46, -56, 117, -101, -44, -3, -58, -90, -66, -12, -5, -106, 98, 52, -68, 6, 1, 103, 23, 108, -118, 118, -65, 122, 77, 121, 22, 106, 13, -100, 24, -60, 8, 1, 22, 74, 40, 110, -22, -117, -39, -69, 68, 16, 49, -111, 75, -83, 76, -5, 6, 100, -85, 92, 19, 36, -88, -66, -82, 27, 41, -71, 55, -62, 119, -126, -3, -47, 62, 39, -31, 5, 74, -104, 23, 45, -29, -121, 57, -35, -125, 41, 83, 21, 39, 77, 5, -70, 60, -109, 81, -122, -34, -76, 30, 76, -7, -5, -117, -28, 5, -113, 45, -97, 108, -14, 108, 31, 28, -43, -41, -3, -122, -99, 72, -22, -19, -44, -85, 105, 75, -28, -13, 83, -82, -41, 77, 85, 120, 46, -4, -16, -117, -113, 2, -45, 17, -92, -50, 96, -29, -23, 111, 94, 34, -55, -107, 85, -108, 32, -121, -38, 109, -109, -71, -82, -54, -110, -7, 119, 22, 117, 121, 50, 102, -116, 71, -106, 72, -40, 13, 91, 11, 48, -4, 7, 4, -18, 112, 97, -33, -123, -50, 39, 122, -41, 76, 13, 8, 64, 34, 95, 83, 102, -50, 81, -12, -38, 82, 0, 90, 2, 76, -57, 69, 1, 10, -9, 50, 2, -112, -81, -110, 99, -38, 84, -24, 31, -16, 87, 67, -57, 18, 56, 18, -97, -62, -96, 100, -11, 123, -126, 121, 76, -15, -37, -9, 103, -74, 115, -6, 53, -33, -37, -54, -109, 63, 78, -121, 62, 7, -99, 43, -100, -35, 54, -63, 95, -124, -51, -1, -102, 13, 32, 126, 113, 7, -59, 61, 51, -120, -118, -83, 71, 5, -32, 81, 99, -102, 105, 3, 96, 38, -86, 8, 66, 56, 60, 5, -5, 92, -25, 10, -52, -58, 79, -99, -8, -21, 112, -39, 72, 48, -73, -108, -14, -71, 37, 111, 69, 114, 122, -107, 45, 15, 33, -66, 118, -71, -38, -63, -73, -2, 71, 55, -56, 119, -99, 33, 70, 110, -43, -15, -82, -4, -122, 114, 82, 97, -9, -6, 32, 97, -105, 41, -124, 117, 44, -66, -112, 95, 65, -126, -109, 0, 125, 88, 32, -96, 115, -12, -1, 116, 94, 35, -68, 41, 116, 110, 15, -36, 115, -5, -99, 121, -22, 27, -76, -107, 60, -40, 2, 71, 101, 25, 45, -22, -105, 37, -47, 93, 47, 107, -110, -127, -14, 77, 64, 34, 90, 51, -58, -35, -17, -124, -31, 121, -11, 24, 22, 59, 101, -70, 9, -82, -15, -102, -97, -42, 0, 30, -46, -21, -21, 87, 2, -13, -115, -115, -45, 4, -109, -80, 115, 103, 49, 24, 59, -78, -24, -34, -117, 5, -98, -80, 23, -56, 30, 28, -84, -66, -60, 109, -61, 5, 121, -85, 60, -20, 41, -126, -118, 91, -96, -119, 108, 3, 15, 91, 57, 39, -88, 29, -24, -112, -74, -63, -7, -5, -56, 39, 82, 60, -27, -59, -89, 107, 114, 2, 32, -91, -19, 100, 60, 112, 105, 111, -120, -29, 63, 107, 118, -127, 8, 98, -127, -1, 34, -33, 50, -25, 14, 70, -7, -97, 84, 9, 94, 47, -25, -92, -114, -92, -46, 81, 74, -123, -83, -116, 108, 20, -102, -98, 101, -21, -67, 14, -50, -100, -64, -45, 33, -111, -78, -58, 115, 79, 122, -82, -114, 88, -46, -46, -24, -88, 87, -24, -62, 1, -2, -111, -41, -83, 85, -49, 46, -99, 77, 28, 117, -29, -116, -91, 12, 16, 92, -70, 92, 118, -20, 24, -64, -123, 79, -75, -71, -83, -31, 78, -120, -123, 114, 51, -26, 25, -89, -69, 116, -63, -24, 126, 9, 52, 74, 29, -45, 20, -4, -96, 15, -11, 67, -109, -119, 106, -117, -125, 30, -31, -62, 41, -76, 89, -112, -71, -85, -71, -5, 65, 64, -64, -106, -68, 79, 102, 55, 47, -110, 30, 71, -85, -2, -104, 122, -27, 127, 39, 56, 37, -54, -36, 98, 28, -25, -14, 45, -4, -92, 65, -79, 7, 29, -7, 7, 69, 62, 74, 69, -6, 109, -15, -100, -25, 2, -29, -112, -116, 101, 54, 106, 47, -108, 115, -48, -31, 8, -16, -63, -23, 105, -61, 85, 72, 56, 100, 71, 62, 111, -78, -73, 78, 6, 71, -24, -105, -6, -98, -52, 127, 66, 68, 73, 33, 23, 3, -4, -26, -52, 4, 33, 27, -72, -26, -25, 49, 64, 79, 52, 55, 118, 89, 112, -56, 24, 112, 41, -44, -11, 11, 102, -90, 111, 9, -65, -104, 70, 96, 74, -68, 31, -76, -61, 98, 10, -78, 2, 6, 19, -3, 10, 58, 95, 34, 22, 29, 124, -125, 73, 15, -19, -89, 118, -109, 121, -33, 85, -64, 1, -115, 68, 13, -123, 36, -11, -35, 96, -125, -20, 113, -113, 42, 63, -17, 74, 100, -11, 20, -103, -51, 19, 39, 49, -113, -66, 2, -19, 96, -63, -90, 33, 5, -59, 62, -83, 5, 57, 19, -50, 17, -33, -6, 43, 37, -118, 15, -18, 117, -6, -87, -64, 103, -30, 121, 74, -72, -7, -96, -60, 100, 37, -98, 82, 95, 74, -40, 104, 15, 77, -46, 103, -115, 12, 89, -80, -53, 17, -110, 47, -37, -24, 23, -82, 24, -87, -127, -95, -48, -14, -93, -93, 18, -73, 97, 53, 63, -106, 22, 17, 54, 54, -109, -95, 50, 0, -118, -47, -52, -95, -15, 115, -98, -112, 43, -40, -101, 2, 54, 59, 77, 23, 39, -27, 8, -126, 36, 0, 74, -24, -76, -68, -72, 49, 61, -32, -37, 69, -4, 5, -31, -114, -47, -123, -95, 78, 47, -121, 30, 88, -12, -43, -1, 108, -1, 78, -91, -64, 97, -126, -60, -121, -42, -26, 18, -116, 50, 7, 74, -85, 30, -98, -103, -97, 83, -48, 115, -43, 60, 22, -107, -126, -61, 26, 45, 122, 46, -66, 44, -68, 73, 57, 85, -38, -10, 23, 103, -102, -89, 23, -77, -41, -100, -99, 11, 90, 25, 2, 104, 0, -55, -72, 25, -20, 33, -95, 105, -46, -17, -88, -40, -94, 110, 49, 86, -104, -106, -56, 29, -50, -96, 29, -45, -21, 101, 116, 16, 60, -29, 26, -2, -63, 16, 53, -17, -38, 59, -21, -74, -115, -61, 110, -114, -58, 0, -50, 15, -70, 109, 43, -19, -30, 44, -66, -32, -66, 24, -26, 8, -114, -122, -119, 74, 54, 95, 14, 110, 69, -10, -4, 76, 86, -105, -120, -124, 67, -65, 20, -40, -81, 18, 51, 21, -95, -10, -114, 61, 19, 75, 108, -47, -10, -70, 50, 84, 8, 74, -68, 6, -64, -121, -10, 96, 109, -50, -48, -44, -57, 114, 105, 76, -63, -67, -22, 67, -38, -57, 29, -88, 67, -93, -52, -58, 64, 69, 78, 45, -10, -47, 108, -77, -78, 6, 70, 119, 125, -91, 35, -75, -36, 118, 35, 79, -64, 117, -63, -86, -29, 124, 58, 13, -30, -120, 43, -121, -26, -116, 63, -31, -23, -1, 93, 63, 116, -36, 74, 109, -114, 127, -52, 115, -92, 43, -33, -52, -2, 41, -124, -10, -73, 80, 116, -36, 108, -89, 64, -118, -62, -120, -23, -101, -113, 123, 4, 105, -88, 58, -122, 114, 127, -62, 120, -74, 104, -35, 105, -101, -86, -80, -98, -121, 57, 100, 3, -79, 47, 11, -28, -114, 12, 30, 33, 70, -55, 98, -34, 89, -19, -102, -76, -54, 114, 23, 55, 75, 97, 93, 3, 0, 102, -103, -16, -97, -123, 39, 58, 86, 116, -125, -98, 104, 79, 105, 26, 71, -121, 70, 64, 33, -86, -75, 34, -17, 9, 95, 52, -43, -89, 44, 21, -4, 60, 95, 18, 2, -25, -87, -10, 34, 52, -12, -116, -45, 15, 97, -27, -100, 87, 114, -90, -125, -18, -89, 15, -37, -11, 35, -12, -86, 6, -17, -77, -38, -24, 93, -43, 111, -53, 116, -50, 71, 29, -2, -8, -124, 14, -3, 111, -124, 107, -89, 110, 30, 55, 79, 65, 56, 94, 32, 52, 121, 4, 39, -97, 31, -57, 44, -73, -54, 14, -34, 34, -58, 11, -20, 48, 22, -26, -119, -45, 79, 24, 4, 54, 38, -7, -105, 93, 110, 1, -86, 120, 57, -41, 70, 87, 38, -116, 6, -107, 19, 93, 34, 99, -114, -52, 125, 83, 51, 99, -27, 92, -89, 47, -73, -45, -22, 33, 45, 19, -86, -88, 61, -38, -105, 22, 89, 81, 60, -6, 117, -86, -107, -5, 10, -33, -101, -100, 91, -79, -28, -75, -12, -73, -71, -3, -2, 32, -109, -90, -16, 7, 64, 50, 86, -68, 92, 75, -74, -92, 40, 22, -47, -6, 64, 14, 41, -26, -53, -19, -120, 0, -56, -116, -24, 123, -49, -104, 52, -19, -42, -50, 25, -103, -127, 82, -20, 76, -19, 69, 126, 37, -51, 125, -23, -13, 2, 95, 67, -91, 17, 125, 124, -100, 115, 66, -25, 75, -54, 114, 32, -53, -102, -12, -81, 23, -81, -13, 12, -53, 41, 79, -12, -112, -113, 8, -34, -16, 70, -7, 91, 87, -47, -77, 103, 34, -85, 113, -96, 44, -1, -40, -95, 101, 26, 118, 80, 12, 77, -80, 114, 70, 122, 36, -21, 54, -99, 46, -1, 97, -14, -96, -9, 97, 41, 31, 8, 49, -53, 113, 34, -77, -70, -110, 86, 117, -34, 19, -101, -73, 121, -100, -54, 20, -71, -21, -62, -18, 103, 13, 14, 108, 82, 74, -41, -92, -100, -86, 122, -27, -69, -104, 7, 65, -123, -22, -10, -91, -104, 98, -65, -8, 3, -8, -120, 69, -109, -118, -61, -16, 113, 40, 2, 86, -5, 38, -112, 23, 60, -109, -94, -123, 55, -50, 6, 30, -95, -40, 25, -36, -34, -19, 117, -120, -79, 71, 53, -13, -56, -43, -71, 9, 53, -45, 48, 64, 74, -32, -42, 11, 5, -41, -35, -34, 101, 56, -90, 79, -17, -109, 18, 7, -60, 108, 64, -125, 33, -7, -57, 19, -123, -99, 35, -95, 38, -44, 80, -5, -21, 13, -39, 27, 63, -34, 80, 109, 7, 28, -3, -15, 24, 108, 41, 44, 34, -72, -43, -102, 95, 115, 69, -99, -62, -110, -6, 24, 27, 122, 79, 102, 37, -84, -20, 118, -59, -121, -21, -76, 38, 26, -122, 9, -126, -24, 53, 53, 66, 93, 68, 107, -22, -104, 115, -10, -5, -117, 29, -109, -113, 113, 27, 36, -36, -111, -30, 48, -23, -69, 23, 20, -105, -53, 18, -95, 5, 15, 22, 76, 0, -81, 63, 64, -71, 97, 50, 51, -54, -65, -76, 112, -86, -26, 6, 120, -110, -7, 122, -93, 21, -50, 97, -68, -34, -12, 25, 120, -62, -74, -12, 48, -104, 104, 41, 2, 96, 60, -25, -92, -47, -70, 101, -111, 9, 46, -103, -6, -42, 41, -19, 34, 77, -6, 98, 51, 35, 25, 72, -32, -36, -95, -70, 91, -87, 102, -78, -91, -64, 98, -96, 8, -56, -112, 26, -60, -18, -105, 107, -52, -121, 22, 52, 34, 123, -27, -84, 108, 2, -43, -54, -65, 47, 47, 99, 93, -25, -121, 81, -42, 51, 126, -59, -31, 78, -110, 70, -17, 106, -64, -33, -85, -44, -16, 47, 125, 65, 52, -81, 11, 28, 99, 4, 94, 50, 60, -81, 86, 113, 29, 9, 89, 12, -32, -5, 112, -79, 107, 54, 55, 15, 81, 126, 36, -19, -121, 72, 118, 18, 89, 14, 119, 65, 106, -89, 7, -99, 15, -123, 19, 92, 51, 80, 1, -56, -13, -24, -27, -51, 11, 0, 26, 55, 27, 100, -33, -30, 52, 38, -57, -16, 78, -38, -49, -120, -1, -80, 76, -31, 93, -44, -17, 0, 103, -100, 69, 82, -15, 102, -45, -78, -93, 93, 70, -2, 70, 121, -40, -6, 5, 92, 14, 39, 49, -89, -5, -47, 76, 32, -11, 23, 68, 27, -54, 118, 120, 79, 23, 56, -104, -118, -126, 9, -44, -95, -20, -62, 26, -81, -93, 39, -74, -123, -84, 37, 38, 119, 15, -59, 7, 20, -92, 124, 49, 32, -3, 29, -124, 120, 35, -10, 103, -91, 5, -34, -105, -10, 38, -95, 49, -21, -48, -99, 65, -13, -2, -29, -12, -52, 106, -75, 23, -54, -34, -68, -102, 40, -75, -21, -63, 75, 77, 31, -50, 114, -40, -113, -124, -105, -102, 70, -100, 45, -29, 14, 46, -92, 84, 96, 30, -13, 117, -106, 68, -60, 26, -124, -66, 90, -108, -109, 18, -120, 8, 125, -82, 1, -7, -119, 115, 102, -16, 106, 53, -101, -30, -99, 97, 83, 16, 61, 33, 44, 83, 22, 109, -100, 107, 69, 6, 32, -13, -25, 109, 73, -84, -53, -68, 63, -33, 116, 27, 45, -38, 108, 2, -53, 54, -49, 89, -64, -49, -32, 72, 102, -49, -45, -32, 73, -89, -59, 28, 29, -88, 86, 29, 94, 19, -41, 64, 66, 35, 30, 56, 1, 59, -21, 30, -110, -42, -82, 87, 125, -50, 86, 33, 71, 117, -118, -41, 81, 60, 73, -11, -62, 59, -120, 53, 100, 73, -61, 75, -51, -58, 59, 98, 44, -63, 46, -41, -19, 67, -126, 51, 109, 119, -103, 99, -37, 27, 64, -70, -85, -2, 71, -18, 123, -100, 56, 9, -59, -26, 99, -114, -4, -69, 80, -4, 99, -75, 115, -116, -51, -30, 26, 95, 117, 77, 105, 62, 111, -39, -9, 67, -52, 20, -93, -86, 114, -49, 91, 107, -91, -88, -55, -60, 106, -2, 89, -75, -126, 77, 36, -51, 45, 81, 13, -60, 19, 48, 5, -38, 124, -120, 12, 97, -6, 15, 60, 75, 5, 64, 83, 96, -91, 33, -112, 62, 29, -106, -38, -120, 70, -38, -30, -36, -116, -98, -56, 39, 47, -20, 104, -44, -45, -121, -24, -75, -16, 44, 5, -30, -16, 74, 89, -5, -55, 104, 11, -56, 36, -54, 62, 32, -27, -105, -17, -18, 119, 71, -14, 86, 124, 32, -19, -92, -6, -39, -127, -120, -95, -26, -96, 103, -58, 52, -52, 69, 71, -126, 45, -57, 120, -43, -125, 31, -86, -29, 23, 42, 106, -74, 31, 72, 84, -34, 115, -93, 66, -38, 117, -87, 46, -106, -27, 57, -91, -108, 127, -50, -41, 46, -108, -104, 74, 125, 58, -86, 1, -19, 122, 11, -72, -71, -25, -110, 68, -31, 98, 41, -54, 71, -60, 43, -105, 100, -110, -4, -98, 9, 89, 71, 89, 95, 102, -85, 118, -71, 11, 100, 34, 111, -59, 52, 75, 54, -56, 43, -103, 69, 107, -74, 47, -113, -6, 120, -1, 91, 32, 38, 125, 50, -87, -126, -68, -77, 93, 108, 25, -105, 33, 8, -70, 74, 42, 18, -27, 16, -116, -39, -4, 62, -61, -116, -53, 103, 92, 93, 89, -21, 38, 7, 24, -110, 17, 111, -71, 56, -27, -65, 57, -36, -26, -25, -122, 11, -1, -125, -43, 4, 96, -74, 6, 26, 108, 57, -76, -3, -3, -82, -24, -54, -108, 19, 60, 111, 76, 1, -1, 102, 62, -30, -45, 3, 51, -85, -54, -23, 49, -7, -26, 37, 126, 11, 109, 83, -67, 59, 30, -69, 43, -27, -21, 80, 114, -26, -67, 59, 110, -104, 36, 21, 67, -120, -42, -57, -110, 68, -37, -126, -42, 126, -28, 72, 8, 28, -96, 5, 28, -62, -102, 97, 77, 102, 59, -126, 59, 90, 97, -70, 117, 58, -21, 81, -94, -110, -8, -88, 29, 77, -24, 36, 87, 86, -95, 96, 41, -103, -70, 97, 46, -68, 45, 52, 122, -109, -59, 31, 105, 61, 106, 3, -33, -98, -30, 62, 0, -44, 14, -65, -16, -56, 121, -67, -27, 11, 40, 0, -80, 121, 48, -6, -11, 124, -64, 62, -100, -83, 73, 111, 97, -77, 91, 58, 113, 32, 90, 118, -62, -50, 25, 54, -33, 42, 33, -125, 7, 86, 3, 99, 112, -95, 103, 102, -32, -97, -105, -68, 105, -59, 74, -37, 76, -118, 69, -96, 83, 33, -120, -45, -54, 80, 90, -75, -3, 104, 88, 76, -44, -29, -36, 2, -111, 63, -74, -114, 45, -27, -56, 77, 123, 93, -93, -99, 69, -84, 75, -3, 44, -68, 78, -96, 79, 124, -74, 96, 71, 38, 7, 17, -40, -18, -18, 61, 74, 122, -121, 104, -75, -93, 72, -79, -113, -6, -54, 90, -93, 10, -78, 52, -25, -56, 76, 30, 104, -79, 13, 119, 97, -121, 69, 113, 41, 43, -114, -65, 124, 21, -103, 122, -64, -102, 0, 14, 94, 56, 65, -19, -124, -21, -35, -13, -16, 117, -109, -105, 1, -91, 51, -37, -17, 119, -24, 13, -123, -23, 86, -120, -50, -85, 98, 126, -123, 89, 1, -28, 120, -49, 100, 38, 117, 125, -102, -117, -104, 29, -107, -48, 15, 83, -114, -118, 18, 13, 93, 52, 12, 100, 47, -74, -93, 57, -48, -75, -102, 28, 72, 88, 55, -101, 103, -111, -101, 126, 46, -36, 31, -54, 124, 26, 7, 46, -109, -107, 39, 74, -111, -75, -92, 35, 123, -61, -13, -74, -76, -116, -111, -57, 11, -45, -118, -111, 54, -41, 82, -114, -71, -29, 94, -64, -96, 8, -39, -64, 76, -111, 125, -62, 81, -109, 126, 97, 1, -78, 72, 30, 60, 60, -96, -75, -126, 109, 96, -126, 115, 27, 119, 32, 120, 77, -89, -121, 79, -29, 28, 14, 63, -75, -96, -7, 3, -29, 59, 26, -40, 31, 51, 36, -59, 101, 102, 103, 123, 82, 116, -7, -45, -61, -109, 15, -60, 24, 98, 72, -4, 5, -18, 80, -111, 122, -64, -127, 76, 30, 54, 118, -36, -124, -20, -89, 55, -105, 87, -7, 21, 82, 48, 118, 37, -53, -53, -42, -65, -82, 62, 14, 111, -66, 9, -98, 34, 92, -108, -37, 55, -92, -45, -71, -37, -17, -113, -107, 15, 78, 45, 9, -51, -67, -83, 41, -46, -106, -75, 16, -104, -110, -43, -98, -117, 90, 72, -116, -99, 119, -34, -99, -77, 72, 46, -122, -79, -1, -58, -65, -66, 49, -12, -91, -59, 24, 22, -95, -41, -51, -117, -105, -9, 100, 103, 41, 105, 69, -85, 56, 88, -85, -75, -94, -57, -50, -20, -74, 39, 52, -97, 109, 47, -57, 101, -27, -77, -21, 37, 127, -73, -44, -72, 7, -30, -65, 35, 101, 70, 70, -57, -77, -15, 61, -122, -5, 112, 56, -120, 38, 34, -36, 96, -118, 17, -70, 26, 125, -48, 93, 76, 126, 2, 41, -62, -63, 41, 52, 15, 100, -20, 73, 71, 84, -82, -41, 32, 80, -99, 75, -5, 109, -39, 106, 42, 115, -97, -9, 4, -75, 100, -109, -123, -15, -101, -68, 94, 88, 80, -105, 23, -31, -38, 39, 113, 58, 43, 81, -9, 86, 57, 57, 92, 12, 24, -67, 79, -26, 30, -62, -38, 44, -88, 66, 42, 54, -91, -22, 93, -17, -33, -85, -12, 73, -88, 22, -23, -104, 25, -29, -42, -54, 38, 52, -17, 13, -15, 121, 76, 24, 53, 55, 120, 106, 85, 11, 25, -109, -84, 33, -56, -11, -43, -33, 75, -97, -94, 52, -6, -52, -38, -30, -65, -118, 17, -81, 6, 121, 40, 115, -43, 103, -123, 6
   
};

static const int convolution2_bias[32]={
    0, 0, 0, 0, 0, 0, 0, 0, 0, 0, 0, 0, 0, 0, 0, 0, 0, 0, 0, 0, 0, 0, 0, 0, 0, 0, 0, 0, 0, 0, 0, 0
   
};

static const int convolution3_weights[3*3*32*64]={
    56, 63, -118, -15, 38, 119, -69, -117, 69, -70, 31, 3, -117, -120, 111, 21, 99, -8, -25, 94, -21, -126, 105, 82, -25, -82, 49, -84, 36, -70, -111, 48, -62, -96, 0, 99, 127, -34, -37, 124, 55, -123, -109, 88, -84, 64, -58, 106, 62, 111, 92, 28, 110, -47, -29, 38, -55, -101, 34, -15, 94, 110, 40, -103, -58, -93, -52, 7, -71, -69, -120, 2, -125, -105, 75, 24, -27, 112, -81, -20, -77, -22, 126, -126, 59, 111, 49, -80, 110, -99, -70, 121, -20, 100, 113, -15, 79, 8, -54, 68, -82, 70, -111, 51, 79, -87, 14, 109, 28, 5, -36, -42, 122, -98, 54, -121, 34, -11, 117, -5, -93, -101, 100, -25, -62, 62, -31, 69, -4, 111, -74, -32, 69, 61, 20, -31, 81, 35, -107, 87, 125, 38, 31, -3, -116, 50, 93, 107, 116, 28, -121, 125, 45, -8, 95, -81, -24, -6, -73, 105, 114, -34, -13, -123, -59, -108, -124, 50, 7, 41, 99, 74, 77, -100, -74, -105, -50, -43, -111, -35, 19, 111, 99, -123, -124, -101, 104, -72, -81, -12, 68, 75, 71, 21, 97, 63, -82, 94, -17, -13, 98, -24, -3, 27, 49, 48, 90, 115, -99, 22, -93, 124, -17, 43, 59, -1, -30, 90, -3, 98, 89, 95, 24, 58, -104, -80, -50, 102, 95, 66, 115, -64, 79, 7, -18, -38, 34, 48, -73, 67, -113, -114, -126, -13, -95, -71, 25, -56, 121, 50, 6, 18, 85, -71, 34, 17, -12, 126, -18, 1, -81, 60, 113, -26, 51, 43, 44, -92, -22, 99, -113, -87, -69, 72, -70, -79, -53, 13, 70, -83, 91, 82, -100, -62, -57, -109, -96, -28, -47, 90, 25, -40, -56, -101, -29, -43, -17, 5, -41, -118, -103, 104, -67, -48, 97, 32, -87, -88, -89, 62, -20, -90, -9, 63, 56, 55, 96, -17, -35, 116, 123, 48, 116, -68, -126, -67, 21, 110, 88, 43, 94, -103, 73, -118, 112, 71, -42, -30, -46, 21, -63, 117, 101, -95, 102, 15, -10, -113, -95, 6, -4, -2, 18, -72, -1, -4, -17, 15, -24, 23, 89, 27, -60, -33, 60, -31, 42, 12, 82, 39, 4, -21, 4, -23, -114, -32, -100, 8, 19, 106, 21, -91, 110, -18, -58, -84, -27, 123, 68, 100, -24, 68, -117, -88, 119, -2, -24, -43, 83, -44, -79, -113, 107, 24, -48, 104, 24, 125, 56, 84, 47, 0, 110, -3, 25, -105, 120, 37, -67, -123, 116, 125, 59, 42, 38, 58, -105, -117, -11, 71, 52, -9, -93, -36, 22, -102, 93, 24, 107, 118, -51, -73, -105, 95, 51, 88, 7, -70, 0, 17, 117, -116, 9, 69, 54, 115, -94, 24, -112, 20, -97, 48, 69, -19, -73, -20, -85, 70, 91, -32, 103, -83, -107, 28, -43, -10, 122, 118, 34, 56, 108, -28, -56, 68, 66, 70, -94, -43, -74, -70, 90, 55, -26, 71, 74, 55, -50, 37, 118, -18, -27, 124, 0, -127, -11, -33, 84, 100, -77, -43, 76, -41, 36, 98, 119, -27, 108, -107, -88, 80, -87, -86, 101, -37, -54, 3, -90, 83, -64, -99, -123, 48, -46, 122, -12, 69, 27, 114, 42, -55, 52, -55, -1, 116, 43, 26, -17, -33, 127, 114, -107, -20, -4, 37, -27, -111, -11, -58, 70, -126, 12, 115, -121, 37, 36, 50, -95, 78, 90, 40, 110, -15, -18, -56, -10, -7, -108, -99, -84, -28, -42, 100, -76, -27, -124, 57, 90, 61, -110, 49, -20, -54, 111, 36, 73, -95, 60, -115, -117, -107, 68, -84, -20, -105, 64, -4, -87, 110, 123, 60, 80, -4, -20, -64, -38, 31, -116, 75, -68, 33, 91, 27, -90, -11, -59, 71, 123, -62, -107, -116, 121, 76, -59, -13, 19, 82, 35, 54, -48, -29, -116, -56, 115, 38, 86, -48, -32, 86, -63, -101, -42, -78, 34, -126, -86, -5, -70, 56, 77, 10, -102, 71, 111, 38, -74, -76, -125, -41, 30, -12, -114, 99, -70, -47, 35, -18, 119, 43, 65, -122, 44, -59, -82, -87, 68, 114, -42, 29, -122, 2, 20, -103, -102, -94, -16, -13, -92, 81, -14, -68, -26, 7, -1, -15, -114, 114, 92, 96, -54, -1, -96, -124, 77, -78, 53, -102, 84, -61, 108, -90, -123, -8, -91, -106, 94, -11, -112, -87, -38, 126, 100, 52, -98, 95, -85, 63, 2, -49, 4, 50, 90, -115, 67, 106, 123, 13, -22, -106, -97, -102, 74, -92, 70, -47, 17, -54, 98, 111, -11, 78, 86, 3, -15, -98, 31, 15, -114, -37, 115, -125, -85, 37, -39, 120, -67, -1, 126, -88, -102, -127, 21, 91, -117, -34, -38, -52, -103, 47, 53, 61, -9, -49, -72, 108, -85, -45, 83, -94, 0, 24, 45, -72, 107, 118, -8, -18, -42, 75, -76, 84, 112, -55, -45, -6, 104, -36, 61, -78, 32, -53, 72, -104, -4, -24, 71, 99, -89, 95, -55, -124, -57, 48, 24, -87, 73, -56, -34, 73, -4, -54, 63, 84, -119, -63, 122, 17, -27, 122, 123, 55, 62, -120, -89, 77, 16, -92, 106, -108, 85, 13, -29, -68, -124, 120, 98, 99, 6, 121, 15, -123, -47, 87, 56, 64, -111, -27, 30, 45, 17, 89, -100, -30, -114, -114, 7, -41, 38, -28, -14, 101, -21, -78, 112, -31, 46, -24, -69, 85, -116, 102, -101, 117, -66, -56, 53, -57, -89, 123, -93, -110, 124, -34, -84, -49, 48, -17, -88, -30, 15, -17, -44, 73, -64, 111, -2, -5, 101, 116, 25, -53, 72, 47, -110, 69, -97, 64, -18, 83, -11, 89, 112, 97, -125, -107, -50, 121, 28, -87, 15, -69, 94, -24, 1, -59, 123, 11, -41, 102, 18, 42, -32, -62, -116, -40, -104, -68, 112, 109, 105, 0, 32, 124, 95, 98, 45, 56, 123, -115, -98, -25, -87, -124, -72, 33, -102, 86, 81, -67, -100, -104, 17, -114, 126, -111, -119, 4, -9, 35, 117, -48, -77, 39, 46, 108, -119, -99, 105, -92, -66, -74, 26, -103, -102, 15, -44, -10, -47, -119, 40, 80, -103, -36, -42, -120, -48, -107, 90, 29, 66, -4, -78, -67, -70, -74, 42, -92, -126, -91, -98, 116, -74, 51, -52, 102, -75, 99, 44, -18, 64, 26, -44, 26, -90, -5, 73, -118, 58, -89, -24, 88, 8, 77, -11, -53, -76, 57, 80, 70, -66, -126, -77, -23, 121, 109, -20, 122, 100, -124, 83, -27, -2, -65, 38, -103, -8, -4, -36, -17, -53, 104, -97, 84, 77, 40, -82, 60, 18, -106, -24, 1, 104, -104, 73, 87, 41, 60, -74, 33, 6, 5, 53, -112, 51, 107, 25, 109, 51, 18, 123, -49, -101, -8, -95, -26, 45, 3, -28, 76, -94, -14, 100, 112, -25, -1, -29, -107, 76, 23, 5, -119, -5, 115, 58, -29, 93, 57, -79, 48, 112, 75, 115, 39, 30, -124, -78, 49, -49, 98, 86, 46, -35, -1, 82, 39, -41, 66, 121, -93, -38, 31, 105, -22, 13, 78, -10, 116, -61, 125, -39, 81, -72, -55, -32, 55, 52, 22, -114, 62, -45, 77, -114, -41, 86, 30, -10, -8, -3, 94, 69, 124, -4, -63, 80, -43, -90, 2, -26, 117, 80, -101, -117, -93, -118, -127, -105, -50, -120, -85, 105, 87, 9, 79, -103, 79, -84, -30, -102, 5, -62, -88, -61, 86, -101, 77, 32, -124, 77, -103, -71, -77, -71, -60, 14, -20, 26, 86, 77, -48, -73, -71, -106, -40, -44, 58, -72, -117, 28, 105, -65, 83, -51, 78, -82, 53, -79, -32, 114, 33, 14, 106, -23, -121, -5, 99, -89, -100, 30, 112, 95, -38, -7, 36, 32, 106, -75, 26, 24, -40, -69, -48, 10, -68, -90, -91, -64, -68, 11, 69, -21, 11, -36, -57, 125, -75, 118, -89, -106, 105, 60, -20, 106, 118, 21, 76, 20, 53, -14, -83, 12, -50, -114, -107, -126, 41, -105, 3, -46, -51, -69, 71, -45, 113, 109, -99, 41, -101, 79, 71, 12, -124, -98, -56, 39, -90, -8, 32, 80, -40, -89, -37, -96, 39, 40, 86, -73, -118, -12, -35, 76, -2, 97, 76, 64, -23, 73, 55, 59, 127, -25, 53, 57, 95, 94, -32, -127, -24, 97, -16, -109, -97, 23, 69, 12, -121, 89, -106, 34, -23, -122, -53, 22, -14, 17, -15, 25, 65, 70, -33, -101, -9, 50, -22, -97, 31, -81, 49, -21, 60, 97, -67, -32, 122, -87, 75, -28, 24, -21, 108, 91, -29, 7, 94, -18, 7, 80, -120, 15, 108, -88, -88, -103, -78, 39, 72, -11, 61, 78, 108, -72, 79, 24, -24, 97, 84, 126, -96, 58, -124, -98, -4, -82, 108, 83, 106, -54, -101, 74, 32, 95, -71, 35, -47, -91, -22, -120, -24, 24, -123, 83, -107, 67, 115, -126, 57, -18, 114, -39, -79, -33, -60, -92, -122, -94, -37, 123, -105, 94, -34, 6, -119, 103, 55, 18, -23, 87, 103, -47, 117, 54, 107, 16, 38, 117, -92, 13, -36, 66, -112, 124, 15, -47, 48, -16, 29, 114, 78, 121, -60, 20, -125, 76, -22, -106, 15, 95, 78, 24, 88, 31, 98, 54, 95, 121, 99, -34, 28, -86, -66, 84, 15, 82, 41, 61, -94, 18, 13, 91, 120, -106, -69, -40, -106, 57, 39, -95, 103, -97, -41, -60, 126, -123, -49, 56, -103, -79, -77, -82, -34, 95, 68, -119, 87, -122, -44, 20, 94, -123, 7, -29, -11, 47, 85, -82, -95, -88, 111, 107, -94, 18, -102, -93, -54, -117, 47, -117, -92, -123, 44, 46, -10, -4, -4, -30, -105, 116, -106, -58, 80, 46, -66, 13, -93, -114, 66, 43, -113, -43, 39, -92, -94, 31, -63, -8, 21, -3, -126, -87, 75, -86, -15, 11, -45, -70, -6, -68, 28, -48, -80, 64, -58, -37, 22, 28, -95, 43, 99, 8, 104, 72, -81, 81, 16, 15, 37, -85, -27, -113, -55, -115, -98, -106, -77, -106, -112, 50, 82, -120, 96, 74, -113, 30, 82, 7, 86, 26, 42, -45, -14, -45, -23, 127, 24, 59, 70, -36, 7, 113, -37, 89, 14, 7, -123, -47, 57, -50, 52, -32, 60, -59, -124, 14, -60, -71, 116, 32, 4, 80, -3, 104, -120, -91, -23, 4, -80, -116, 77, 7, 107, -16, 33, -100, -55, -89, 49, 41, -19, -39, -27, -35, -124, 21, -79, -25, 84, 112, 77, 125, -23, 25, -94, 4, 43, -57, -90, 76, 35, 95, 42, -71, 103, 95, 13, -22, 101, -105, 101, 63, -86, 110, -33, -97, -14, 49, -82, -46, -119, 126, 40, -14, 103, 91, 80, 50, -30, 27, -102, -60, -75, 14, -61, 61, -47, 90, -11, -77, 24, -77, 120, -50, -30, -107, 105, -11, -40, -73, 34, -71, 64, -122, -29, -99, -112, -15, -50, -107, 51, 32, 107, -35, 16, 3, 20, 14, -68, 105, -59, 6, 32, -83, 87, -84, 95, -86, 123, -89, 29, -30, 10, -79, -10, -66, -38, 102, -26, -41, -80, 82, -85, 43, 94, -20, -74, 97, -106, 67, -34, -15, 3, 121, -82, -98, -8, -38, 59, 121, 35, 81, -114, -5, -119, -104, -101, -104, 119, 39, 121, -33, -8, -113, 67, 85, -21, -46, -22, -28, 37, 104, -29, -81, -83, -108, 76, 86, -72, 28, 12, 56, 80, -106, -118, 72, -33, 93, 35, -43, 81, 18, 3, 97, 47, 10, -90, -42, -52, -120, -35, 75, -16, -107, 110, -84, 15, 44, 78, 57, 45, -35, 41, 61, -61, -55, 120, -58, 80, -69, 119, -118, -93, -92, 30, -118, -107, -106, 111, -28, -95, 36, -3, -72, -59, 104, -35, -78, -124, -47, 123, -10, -17, -67, -69, 53, -30, -125, 31, 23, 7, 15, -85, -71, -63, 61, 121, -101, 32, 15, -16, 57, 19, 68, 75, 104, -50, -99, -33, 43, -4, 22, -97, -62, 74, 82, -29, -92, -7, -27, 88, -84, -2, -43, 86, -109, 46, -81, 58, 120, 37, -48, -91, 35, 123, -23, -122, 100, 57, 60, -54, -5, -40, -93, -6, -110, -36, 116, 109, 43, 96, -117, -1, 9, 113, -92, 91, -35, 40, 112, 34, 104, -92, 35, 59, -98, -109, -91, 1, 32, -2, -9, -33, -52, 57, -56, -96, 127, 78, -94, -74, -94, 17, 107, 85, 48, 46, 74, 42, -91, -98, 2, 118, -90, -116, -106, -109, 100, -84, 14, -3, 82, -38, 84, -122, 6, 24, 116, 78, 43, -22, -15, -25, -11, 19, -44, -55, 62, -42, -78, 37, -9, 49, 71, -28, -31, -90, -27, 61, 19, -71, 10, -11, -46, 106, -91, 42, 36, 97, -25, 105, 18, -21, 75, 24, 94, -55, -86, -2, -47, -117, 61, -25, -51, 108, 58, -97, 92, -51, -76, -12, 21, -72, -97, 59, -25, -81, -99, -6, -104, -116, 35, 8, -45, 1, -113, -9, 95, -39, -15, -8, -12, -107, 23, -127, -98, -72, -103, 114, 112, -78, -89, -39, -98, -60, 91, -88, 66, -114, 32, 119, 17, 38, 93, 26, 80, 3, -1, 20, -68, 24, -41, 39, 87, 114, -78, -53, -102, -13, -76, -124, -114, -8, -48, -97, 42, 79, -85, -64, -31, -80, 42, 33, 26, -111, 25, -31, 105, 35, 81, -31, 88, -1, 6, -98, 122, -27, -121, -120, -7, -2, -66, 48, -74, -14, -98, 18, -19, -98, 66, 106, -84, 0, -124, 121, -77, -47, 118, 31, 119, 119, -104, -84, -28, 101, -55, -8, 125, -28, -37, -48, 65, 51, 34, -48, 120, -56, 13, -62, -43, -41, 43, -127, 104, 126, -127, -44, 102, -74, 59, -76, 73, -109, 47, -46, -101, -79, 92, 108, -72, -56, -44, 84, 60, -47, 20, 25, 71, -54, 113, 35, 3, -28, -106, -62, -42, 73, 92, -75, 16, 5, -62, -70, -42, 85, 112, 99, -89, -35, 16, 113, -16, 3, -45, -55, 61, -16, -60, 73, -71, 22, -34, 46, -65, 65, 34, 74, 99, 103, 55, 123, 57, -76, -23, -34, -47, -92, -58, 92, -29, 107, 116, -59, 36, 12, -103, 89, -90, -18, -94, 87, 43, -11, -73, 56, 90, -101, -100, 114, 26, -35, -51, -112, -113, 98, 9, -14, -42, 90, 92, -36, 121, 117, -121, -114, 121, -30, 107, -30, -72, -123, 121, -22, -20, -93, 53, 112, 28, 2, 34, -26, -53, -43, -109, 66, -60, -15, -77, -100, -59, -89, -41, 26, -74, -111, -78, -68, 28, 19, -16, 51, 75, -112, 63, -87, 70, 75, 103, -49, 84, -119, -56, 51, -40, 22, 60, 78, -87, -22, -8, 112, 85, 102, 29, 120, 88, 59, 87, -120, -25, -31, -56, -21, 18, 53, 82, -12, 70, 101, 83, -16, 14, -58, -27, 25, -56, -55, 25, 98, -94, -108, 29, -62, -107, -72, -27, 41, -86, -122, -77, 47, 41, 71, -115, -99, -23, -21, -56, -32, -100, -110, -52, -42, 30, 62, 22, -37, 42, 38, 53, -69, -8, 120, -17, 58, 52, -89, -3, 68, 59, 52, -53, -44, 5, -80, -35, -28, -41, -73, -102, 85, -81, 103, 85, 22, -20, 63, -119, 52, 39, -75, 92, -72, 107, 63, 90, 11, -4, 8, -93, -71, -120, -88, -38, 71, -3, 12, -35, 113, 13, 91, 43, 108, -24, 88, 66, 57, -111, 58, -126, -39, -44, 18, -65, 126, 115, -123, -42, -101, -78, 40, -98, -39, -85, -117, -1, 82, 72, -88, 75, -88, -73, 94, -19, -38, -31, -123, -55, -100, -20, 58, -115, -14, 5, 36, -118, 74, -73, -77, -43, -79, -107, 55, -57, 13, -67, 9, 58, -47, 82, -44, 68, 90, 12, -34, 36, 31, -98, 73, -85, -48, -121, -104, -38, 62, -78, -61, -82, -63, 78, -107, -54, -27, 30, 42, -117, 60, 56, 22, -38, -120, -119, -97, -122, 123, -94, 107, -112, 116, -31, 68, 52, 73, -87, 68, -10, -69, 115, -34, 39, -10, -115, -109, 98, -121, 43, 39, 103, 42, 24, -94, 42, -115, -39, -100, 19, -73, 64, 123, -38, 0, 15, -11, -68, 55, -50, -79, 49, -93, -77, -34, -46, -34, 50, 125, 106, -81, 44, 27, 7, 122, -68, -1, -85, -6, -39, -46, 115, -114, 120, -117, 87, 40, 1, 47, -1, -52, 93, 76, 75, -109, 7, 113, 41, 34, 122, -1, -107, 85, -54, 32, -93, 17, 55, 22, 72, 16, -73, -18, 62, 107, -26, 21, 105, -46, 75, 90, 21, -85, 16, 26, 70, -107, -127, -57, -100, 37, 10, -13, 47, 60, 108, -127, -71, 1, -47, 0, -109, -122, 73, 36, -13, -115, -45, 36, -112, -108, 104, -42, 85, -9, -84, 38, 101, -71, 68, -51, 84, -20, 29, -50, -73, 123, 43, 95, -36, -63, 0, -53, -1, -109, -21, 87, 89, -102, 84, -81, 112, -11, -32, -50, -33, -98, -85, -98, 111, 53, 75, -34, 52, -119, -31, 81, 84, 71, 67, 98, -96, 87, 102, 126, -120, -106, -109, -122, 27, 83, 110, -66, -71, -4, 113, -27, 55, 54, -15, -104, 57, 94, -86, 21, 71, 51, -93, -71, -15, 22, 51, 34, 0, 118, 5, 106, 98, -45, -78, 119, 46, 121, 101, -26, 97, -62, 20, -58, 88, 42, -88, 84, -106, -110, -19, -27, 124, 20, 67, 100, 116, 53, 10, -93, -92, 68, 96, 14, -32, -60, -11, -14, 69, -2, -108, -65, 5, 31, 38, 25, 103, -116, 29, -91, -41, -34, 91, 102, -50, 36, 35, 127, 27, -79, 61, 76, -11, -30, -119, -47, -22, -81, -54, 103, 50, -65, 75, 102, -88, 36, 101, -100, 121, 67, -21, 93, 114, -33, 83, -96, -95, 72, 58, -34, 16, -120, 38, -17, -79, 10, 26, -48, -12, 103, 55, 11, -92, -81, -102, -27, -49, 83, -39, 49, -8, -97, -9, -111, 44, 125, 79, 13, -108, 21, -60, -23, 29, 10, 97, 56, -7, 102, 75, 121, 118, -6, -90, -52, 85, 106, 71, -70, 25, -16, -51, 24, 25, 2, 82, -117, 118, -116, 89, 16, 42, -96, 117, -101, 118, -35, -113, 77, -53, 40, -87, 65, 44, 29, -38, -1, 35, 52, 66, 116, 50, 12, 104, 91, 24, -16, -59, -5, -51, -46, 68, -100, -26, -121, 40, 23, -55, 66, 107, -103, 106, -28, -110, -124, 103, -99, 15, 38, 106, -3, 92, -60, -39, -9, 91, -64, 42, -2, -117, -125, -11, 79, 28, -113, -121, -12, 72, 45, 100, 8, 91, -109, 1, 12, -50, 109, 20, 87, 7, -44, 52, 42, -22, 22, 89, -72, 59, -13, -30, -95, -113, 66, 76, -84, 95, 78, 93, 48, 97, -123, -36, -22, -9, -112, -40, 114, 22, 40, -125, -5, -45, -3, -11, 71, -107, 108, -103, 20, -110, -44, 10, -57, 20, -41, -36, -15, 52, -122, -67, 10, 107, 81, 112, 56, -73, 88, 68, -83, 41, 36, 47, 5, 103, -39, -94, -94, 47, -35, 20, 12, 31, -116, -126, 46, 25, 26, 102, 127, 99, 98, 121, -71, -20, -51, 90, -44, 10, -86, 20, 4, 99, -12, -109, 65, 108, 48, -44, 38, -117, -58, 76, -7, 72, -36, -39, 93, 76, -100, 84, 22, -7, -67, 54, -63, -82, 47, -119, -12, 112, 34, -36, 116, -52, 69, 9, 27, -59, -41, -107, -113, 103, 87, -101, 43, -55, 75, -64, 65, 116, 71, -52, -36, -116, -1, 103, 6, -23, -83, -96, -83, -47, 105, -36, 119, -29, 26, 27, -62, -122, -91, 49, -94, -70, 97, -43, -77, 105, 11, -48, 60, -58, -27, -59, 49, 58, 95, 38, 71, 126, -118, -60, 37, 41, 111, -18, -9, -94, -44, -122, -67, 54, 56, 79, 30, 23, -73, 37, -98, -87, 121, 9, 11, -5, -107, 47, -39, 78, -92, -25, -8, -103, -31, -94, 56, 82, -4, 124, -58, -65, 11, -90, -82, 85, -40, -16, 116, 82, 61, 114, 16, -29, 24, 96, 92, -35, 97, 39, -106, -21, 58, -18, -63, -78, -114, 22, 106, 78, 57, -72, -27, -58, -85, 4, -88, 121, 39, -41, 16, 2, 74, -109, 101, 49, -28, -83, -20, 95, -19, -26, -27, -39, 119, -57, -12, -2, -30, -78, 93, -36, -6, 35, -12, -72, -50, 127, 20, 95, -15, 89, -82, -32, 59, 107, -38, -59, 35, -21, -72, 23, -10, -62, 113, -97, -27, -43, 124, 101, -81, -81, -48, -37, -32, 65, 89, -37, -22, -35, -57, -114, -29, 56, 110, -111, -63, 108, -17, -75, 59, -11, 35, -55, -49, -55, 102, -6, 116, -19, 89, 77, 61, 23, -25, 4, 29, -41, 55, 39, 92, -83, 125, 125, -2, 95, 114, -97, -88, -117, 1, 100, 50, 23, -55, -114, 122, 83, -62, 61, 110, -78, 31, -48, -81, 97, -74, -52, 107, 124, 104, 61, 44, 5, 109, -21, 96, -39, 56, 18, -44, 114, 98, -53, -98, -45, -77, -84, -42, 15, -1, -34, -51, -19, 10, -79, -110, -49, -37, -20, -5, -82, 72, -26, 74, -51, -62, -122, -99, 21, 101, -49, 12, 49, -9, 123, 17, 111, -116, 17, 114, 121, -15, -75, 86, 42, 89, -87, -80, -4, 5, 89, -99, 87, 63, -94, -38, 0, 102, -48, 15, -107, 77, 126, -6, 76, 118, 81, 72, -98, 2, 92, -17, -121, 95, -119, 37, 69, 51, -46, -13, 86, 123, 33, -101, -21, 4, -37, -116, 45, 31, -59, -11, -46, 94, -35, -99, 37, 96, 94, 104, 22, -81, 16, -58, 15, 13, 86, -46, 79, 99, -44, 1, 73, 53, -96, -55, -125, 11, 52, 61, -58, -106, -4, 43, 49, -45, 99, -93, -117, 35, 21, 19, 113, -8, -68, -98, 10, -72, -38, -3, 61, -6, -13, 115, -59, 36, 6, -19, 58, 18, -39, -100, 61, 71, -46, -63, -120, 73, -89, 23, 69, 62, -80, -102, -124, -90, 35, -112, 27, -95, 54, -87, -27, 27, 47, 106, 108, 17, 116, -22, 115, -22, -49, -9, -49, -81, 59, -106, -101, -115, -59, 106, 89, 92, 99, -122, -85, 17, -77, -51, -23, -88, -15, -21, -12, 11, 122, -70, -101, -68, 62, -72, -41, -11, -29, -108, 15, 21, 91, 70, -41, -88, 49, 106, -65, -51, 116, 46, -93, 45, 62, 86, 70, -71, -113, 9, -46, -75, -91, -81, -91, 105, 57, 116, 21, 60, 71, 69, 118, -97, 17, 118, -43, 55, 23, 18, -114, -81, 88, -75, 118, 57, 126, -30, 0, -5, 32, 13, 42, 7, 116, -105, -16, -19, -14, -15, -122, 34, 7, 109, 5, 6, -49, 13, 108, 108, 98, -117, 48, 42, -26, -1, 112, -122, 47, -76, -27, -18, 88, 91, -5, -9, 74, -50, -47, -80, 62, -62, 38, 14, 38, 82, 57, -1, 70, -50, 31, -124, -24, 121, 14, 11, -31, -74, -55, 73, -122, -16, 44, 5, -34, 87, -23, -47, -112, 23, 38, 67, 124, -28, 34, -105, 116, 107, -23, -47, 98, -119, 111, 83, -38, 31, -59, 120, 111, 126, -112, 63, -86, -126, 57, 7, 83, -16, 63, 14, -14, 25, 101, 97, -34, 125, -63, 95, -77, -74, -78, 8, -27, 64, -82, -56, -25, 4, -55, -6, -59, 83, -97, 12, 66, 100, 44, -113, -13, -35, 57, -11, -11, 37, 2, 4, -7, -67, -108, 90, 124, 112, 13, 99, -100, 47, -95, -101, -108, -28, 62, -77, 101, -42, -49, 51, -64, 63, -17, -56, 7, -14, 36, 62, -31, -93, -34, -98, 79, 90, 36, 40, -113, 112, 80, -126, 37, 80, -72, -99, -90, 12, -38, -56, 32, 77, 80, -7, 60, -17, 111, 62, 72, 64, 67, -14, -2, 75, -44, -113, -83, 78, -106, -106, 42, 52, 43, 17, -48, -100, -56, -62, 55, 77, 58, 32, 125, -125, -82, 118, -94, -120, 106, -20, 41, 1, -37, -59, -39, 31, -88, -91, -10, 108, -48, -73, 120, 41, -102, -93, -120, 22, 89, 88, 46, -47, -103, -29, 31, 90, 100, 3, 1, -2, 30, 90, -5, -90, 106, 89, 30, -55, -25, 53, -92, -108, -1, 92, 123, 91, 91, -101, -120, 20, -54, -78, -90, -79, -120, -14, -41, -121, 110, -113, 116, -87, -24, 1, -38, 0, 99, -20, 57, -103, -6, -111, -69, -83, 98, -85, -109, -117, 20, 105, -13, -114, 81, 40, -82, -51, -43, -24, 47, -73, -15, 106, -95, 21, -96, -3, -40, -56, 9, 16, 12, -106, 32, 79, 78, -77, 71, -109, -78, -85, -10, 17, -37, -22, -21, -124, 113, -108, -123, 51, -61, -73, 73, -4, -30, 75, -40, -4, 7, 4, 12, -85, 39, 43, 123, 99, -8, 80, -23, -9, -69, -24, -21, 61, -68, 42, 33, 27, -13, 37, -112, 67, -114, 61, -97, -68, -38, -85, 104, -23, 43, 108, -118, 126, 117, -48, 67, -111, -101, -24, -87, 4, -13, 122, 15, 37, -18, -61, 5, 34, 19, -49, 37, 106, 73, 46, -15, 79, 14, 4, -34, -43, 57, -50, -41, -46, -110, -89, 29, 33, -47, 26, 14, -15, 52, 126, 30, -64, 73, 83, 74, 115, 99, 116, -73, -66, 107, 15, 107, -69, 92, 57, -118, -23, -6, -126, -72, -45, -116, 12, 93, -57, -15, -125, -4, 1, -45, 37, -107, 15, -95, -13, -47, -8, -26, 36, -18, -80, -82, 124, -113, -66, 81, 9, 50, 59, 0, -70, 113, -48, -63, -87, 119, 109, 1, -66, -74, -36, -47, -50, -19, 37, -29, 7, -91, 104, 67, 100, -13, 88, 92, -45, 65, -113, 47, -107, -42, -14, 76, -14, -116, 87, -54, 119, 77, -20, -92, -35, 65, 62, 40, -48, -19, 4, -90, -88, 119, 125, 19, 117, -83, -56, 81, 104, 90, 41, -101, 56, -123, -115, -73, -79, -65, 73, 85, -98, -40, 32, 85, -27, -125, -17, -38, 22, 12, 20, 106, 73, -60, -22, -118, 57, -60, 46, 64, 117, -117, 103, 52, -11, 68, -7, -30, 89, -9, 17, 54, -15, 35, -70, 97, -98, -22, -92, 61, 47, 90, -18, -22, -54, -73, -50, 73, -22, 82, -40, 38, 113, 14, 19, -109, -112, -73, 4, 99, 30, -93, 46, 44, 16, -34, 94, 57, -90, 17, -18, -12, -40, -68, 55, -101, 51, 6, 108, -1, 87, 87, -93, -51, -42, -117, 125, -43, 112, -15, 99, 87, -34, -3, 125, 34, -101, 48, 91, -89, 60, -1, -10, -19, -12, 49, 105, 47, 81, -96, -29, -56, -104, 0, 118, 73, 119, -45, -86, -106, -37, 28, 117, 50, 121, -4, -106, -101, 113, -86, 49, 99, -93, 25, 24, -126, 104, -57, 53, 78, 67, 42, -114, -67, -17, 125, 107, -94, 13, -89, -15, 96, 99, 55, 69, -108, -52, -42, -105, 106, 11, 47, 112, -2, 20, 60, -116, -29, 44, 68, 56, 96, -6, 119, -1, 10, -70, -59, -63, 21, -105, 41, -37, 119, -115, -19, 73, -107, 54, -19, -35, 40, -8, -86, 110, 49, 80, 119, -1, 63, 33, 79, -92, 78, 22, -43, -66, 1, -54, 115, -81, -112, 52, 81, 73, 10, 25, 93, -120, 60, -102, -88, -107, 107, -47, -113, 18, -8, 119, -112, -109, -55, -50, 28, -72, 81, 73, 119, -18, -57, 75, -84, 100, 43, 55, -97, 106, 12, 104, 78, 33, 64, 89, -110, -100, 65, -126, -101, -64, -23, 108, -125, 91, 1, 17, 10, -116, 71, -16, -102, -79, 33, 121, 90, -121, -12, -115, -51, -125, -93, -62, -1, -118, 63, -42, 65, 26, 48, -98, -113, 33, -106, -3, -98, -61, -105, -81, -72, -113, 106, 42, -10, -58, -49, 47, -110, -80, -100, -120, -92, 36, 36, 50, 125, -54, 92, -67, -76, 59, 113, -20, -85, -108, 41, -89, 113, 46, -56, 112, 11, 5, -31, 38, -113, -15, -126, -17, 5, 35, -66, 39, 95, 23, 76, -16, -96, -72, -7, 67, -47, 58, 26, -104, -39, -28, 12, -51, 25, 24, -14, 87, -18, 45, 49, -79, -124, 8, 93, 87, -57, -69, -8, -56, 86, 69, -50, 107, -58, 99, -112, -34, -69, 13, -123, 122, 31, 119, 17, 0, -17, -28, 33, 100, 2, -24, 80, -31, 114, -96, -81, 60, -9, -26, -55, 90, -123, -93, 126, 57, 70, -69, 90, 100, 11, 74, 11, 88, -50, -42, -126, 52, 120, 8, 58, -121, -77, -4, 95, 87, -10, -55, 116, -54, 1, -46, -42, -70, 3, 72, -46, 18, -24, -88, 66, -23, -38, -45, -24, 68, -99, 32, 6, 43, 63, -43, 2, -82, -46, 78, -109, 88, 73, 89, 71, 74, 87, 55, 100, -100, -123, 24, 32, -115, -5, 3, -54, 111, 39, -21, -70, -11, -33, -62, 37, 3, -114, -110, -67, -15, 12, -7, 86, -66, -87, 120, -112, 76, 46, 66, 74, -119, 37, 67, 77, 65, 55, -2, -114, 50, -61, -80, -62, -127, -3, -15, -19, 59, -104, -71, -116, -93, 22, -33, 91, 59, 74, 80, 0, 37, -34, -101, 19, -37, 8, 107, 111, 17, 17, 87, 29, -111, 85, 9, 93, -111, 31, 106, -25, 118, 19, -96, -121, -16, -25, -86, 84, -123, 59, -83, 37, 124, 14, 37, 66, 96, -81, 8, -86, 77, -108, 51, 116, 76, 110, 115, 89, -116, -111, -91, 73, 120, -85, 90, -46, 90, -64, 8, 95, 20, -1, -66, -2, 70, -7, -48, -20, 25, 104, 120, -31, -81, 46, 11, -113, 84, 100, 8, -100, -6, -51, -14, 55, -5, 7, 109, 41, 41, 26, 117, -78, 27, 37, 77, -39, 59, -11, 1, 116, -33, -94, 87, 99, -17, -88, -97, 124, 40, -63, -108, 18, -56, -80, 61, 20, -96, 97, 22, -14, -50, 95, 101, -96, -75, 115, 120, -14, -58, -21, -45, 83, 39, 24, -108, -127, -23, -71, -49, 50, -44, 74, -47, 74, -3, -127, -114, 17, 65, -46, -19, 52, -91, -17, -74, -96, 112, -96, -54, 111, -88, 38, 13, -124, 113, 90, -61, -121, -44, 86, 21, -118, 57, 65, -103, -110, -74, -98, -6, 18, 80, -39, -103, 97, 110, -60, -1, 60, -94, -94, 41, 97, 10, -55, 30, -30, 102, 116, 122, 82, 104, -119, -33, 55, 35, 45, 6, 29, 88, 102, 104, 93, 19, -79, 122, -52, -99, -3, 23, -37, -36, -38, -71, 104, -22, -101, 100, -41, -36, 14, -70, 3, 87, 35, 19, 28, -114, -56, 29, -88, -40, 61, -93, -99, -91, -116, 76, 114, 119, 90, -76, -87, -84, 19, -47, -75, 75, 119, -102, -88, -44, -27, -80, 75, -44, 127, -52, -122, 71, 75, 66, 124, 73, 10, -60, 14, -9, 48, -15, 82, 85, 33, -122, 45, -115, -91, -42, 119, -108, 80, -96, 3, -28, 59, 56, 44, 97, 58, 127, 9, 94, 125, -110, -13, -3, -79, -70, 57, 114, -80, -104, -110, 84, -36, 92, -94, 110, 0, 104, -32, 86, -99, -60, -28, 92, 122, 43, -67, -109, 36, -8, 31, -25, -41, 88, 111, -26, 7, 9, -103, 94, 4, 120, -60, 110, -40, 69, -107, 88, 12, -112, -57, -101, 81, 99, -22, -119, 65, 98, 18, -42, 60, -27, 67, 31, -55, 24, -7, 125, -26, 73, -36, 58, 3, -117, -44, 93, 26, -46, 46, 113, -99, -108, 83, -83, 27, -1, -20, -7, 3, -3, 87, 13, -126, 115, -114, -43, -2, -65, -91, 69, 69, 102, 117, -114, 22, -95, 90, -115, -117, -115, 107, -56, 90, -96, 38, 20, 121, -13, -22, -66, 89, -82, 111, -75, 114, -107, 6, -115, 120, -34, 120, 83, -125, -99, -122, -22, 21, 110, 7, 39, 9, -77, 121, -29, 121, -61, -13, -50, 33, -15, -97, 68, 47, -49, -106, 105, -58, 66, 25, -51, -126, 69, 34, -37, 105, 6, -80, 86, -28, -47, 90, 51, 22, 109, 16, 52, 24, -74, -60, 16, -116, 103, 6, -80, -21, 13, 97, 2, -19, -93, 105, -69, 57, -27, -84, -84, 52, -55, 94, 126, 126, 39, -1, 118, -46, 17, 80, 60, -59, -92, 68, -27, 105, -3, -60, -34, 20, -39, 52, 96, -68, -81, -15, 52, -69, -86, -27, 91, -106, -18, -17, 124, 77, -115, 14, -76, 34, 85, 46, 14, 33, 4, 63, 56, 82, -23, -103, 100, 81, 120, -2, 47, -3, 105, -60, -116, -108, 51, 33, -10, -60, -1, 4, -58, -52, 12, 90, 25, -34, 90, 13, -47, -18, 81, -87, 54, -111, 45, -53, -13, 58, 78, 53, -68, 36, -6, -8, -124, 28, -126, -25, -97, 123, -110, 36, -100, -1, -27, -31, 36, -47, -29, 21, -10, 31, 73, -32, 1, 101, -101, -78, -42, 106, -20, -82, -36, 36, -116, 90, 24, -87, 52, 111, -38, 101, 68, 120, -43, 11, 33, -110, -38, 50, -123, -93, -106, -54, 51, 97, -98, -44, 53, 82, 15, 3, 30, -42, 6, -46, 42, -5, -36, 37, -82, -60, -36, 75, -30, 17, -98, -98, -61, 42, -80, 92, 32, -55, -36, 45, -44, -65, -98, 34, -121, -7, -111, 100, 47, 119, 82, 90, -21, 7, 34, -43, -33, 76, 30, -19, -108, 56, -112, -97, -26, -116, 98, 123, 99, -82, 19, -96, -40, -69, -84, -72, 37, 68, 77, 89, -27, 81, -32, -120, 103, -111, 35, -71, -4, -61, -124, 0, -65, -24, 9, -122, 123, -82, -93, -26, 25, 107, -114, 95, 32, 28, -42, 22, -93, 108, -71, -71, -90, 84, 61, 38, 10, -118, -10, -60, 52, -66, 85, -19, -56, -97, 32, 13, -31, 126, -39, 118, -56, 44, -75, -16, -59, 7, 69, -93, 20, -121, -6, -8, 83, 15, 68, 0, -54, 42, -59, -75, -79, -125, -19, 111, -86, 28, -18, 38, -22, -67, 112, -20, 78, -42, -25, 83, 44, 66, 18, 59, -43, 17, -13, -33, 39, 121, 28, -96, -47, 64, 121, 66, 104, 28, -82, 53, -69, 41, -38, 110, -121, -106, 17, -73, -33, 65, 16, -25, -11, -68, -42, 29, -112, -83, 105, 103, -63, -51, -7, -121, -103, 117, 46, 84, -73, -75, 6, 92, 65, -48, 16, 53, 100, -114, 30, -25, -82, -106, -16, 97, -57, 58, -47, -106, -105, -92, 55, -27, 29, -57, -6, 67, -67, -118, 56, -13, -17, 126, -62, 93, -95, -55, 109, 110, -81, -19, -79, -101, -87, -97, 105, -39, 70, -111, -103, 15, 89, 10, -86, -103, -19, 55, -64, 76, -79, -2, -64, -84, -60, 78, 59, -5, -55, 124, -102, -39, -59, -27, -123, 55, 68, -84, -88, 82, 67, -66, 90, 116, -123, 32, -39, 61, -9, 44, -106, -111, 66, -22, -29, 14, -71, 78, 1, -116, 37, -95, -114, 108, 58, -111, 96, 112, -112, 42, -39, 47, 119, -45, 13, -86, -62, -97, 66, -27, -60, 8, 41, 117, 112, 54, 96, -30, 79, -70, 122, 74, -120, -76, 33, 14, 60, -2, 71, -15, -74, 94, 85, 51, 88, 89, -32, -108, -90, -28, 48, -111, -108, -28, -16, -75, 56, 14, -101, -125, 34, -25, -56, 44, 72, 77, 30, 77, 5, -23, -89, 11, 9, -31, 16, 98, -42, -34, -54, -35, -108, -66, -122, -72, 118, 62, -75, 43, 80, 83, 49, -9, -100, 83, 107, -91, 36, -53, -69, -71, -11, -113, -66, -53, 118, 99, 119, 38, 75, -110, -110, -6, 89, -28, 84, 36, -119, -91, -44, 106, -59, 27, -91, 52, -4, -3, 71, -98, 111, -91, -10, -41, 28, -112, 27, 35, -11, -95, -90, -107, -61, -86, -28, 70, -96, -23, 92, -2, 95, 13, 46, 13, -32, -109, 124, 89, -112, -43, 115, -55, 18, -121, -31, -77, 117, 21, 4, -62, -116, -83, -106, -88, -85, 99, -50, -116, 3, -78, 3, -13, 108, 31, 102, -65, -45, -72, 92, 66, 92, -80, -42, 24, -56, 102, 51, -92, 113, -20, -87, -19, -67, 100, -2, 124, 44, -26, 66, -111, 3, -20, -42, 69, 111, 83, 87, 44, 61, 48, 98, 101, 9, -92, 46, -19, 115, -96, -41, -114, -20, 84, -105, -112, 70, 98, -101, -117, 52, -13, -37, -21, -64, 108, -127, 44, -99, -112, -51, 77, 120, -44, -118, 78, 115, 91, 115, -32, -19, 84, -97, 62, -13, 45, -113, -122, -96, 30, -97, 68, -42, -25, 110, 51, 96, -56, -16, 9, 59, 117, -13, -52, 92, -73, 2, -81, -57, 19, 19, 99, -65, -94, 23, -38, 31, 118, 116, 20, 48, 31, -1, -39, 8, 23, 94, -101, -54, 49, -76, 9, -82, -39, 34, 5, 7, -2, -59, 123, 106, 57, -55, -18, 53, 47, 7, 80, -26, -39, 56, 63, -124, 13, -76, 6, 88, -33, 15, -46, -32, -38, 77, -59, 126, -102, -28, -53, -58, 41, 36, 39, 62, 58, -39, 64, 125, -82, 56, 75, -68, 28, -10, -96, 23, 83, 7, 99, -125, -102, 99, -47, -60, 52, -96, 99, 118, -111, -107, 17, -56, 78, 10, 121, -7, 4, 1, 91, 33, 123, -79, 55, -119, 116, 59, -124, -96, -56, -91, -69, 110, -23, -89, -24, 125, -85, 78, 74, -38, -22, -72, 37, -48, -59, -29, 75, -34, 88, 18, -65, 52, 121, 21, 60, -121, 28, 117, 79, 10, 93, -91, -71, -96, 76, -57, 29, 21, -125, 82, -85, 39, 97, 52, 32, 8, 10, 7, -86, 94, 18, 63, -126, 126, -117, -52, 20, -102, 0, -76, -80, -19, -67, -109, -38, 53, 51, 37, -53, -25, 119, 6, -72, 77, 17, -38, -51, 25, 55, -22, 122, -32, -72, -110, 58, 37, 80, 29, 71, -66, -82, -110, 49, 30, -79, 83, 83, -61, -35, 30, 114, -78, -49, -101, -104, 65, 77, -51, 11, 112, 123, 52, 80, 104, 74, -23, 2, 38, 28, 123, -46, -81, 83, 4, -79, 94, -39, -35, 17, 42, -86, 66, -54, -76, -107, -49, 114, -113, -95, -48, -21, -102, -92, 16, -102, 77, -64, 84, -77, -102, -68, -69, 46, 33, -75, 11, 29, 119, 30, 1, -24, -23, 7, 55, 42, -34, -31, -50, -30, 72, 41, 11, -102, 71, 79, -5, -83, -76, 68, 6, 5, -9, 110, -74, -70, 85, 3, 25, -60, -94, -31, -71, -34, -3, -89, 42, 84, 124, -92, 57, 72, -108, -31, 15, -93, -111, 103, -104, 75, 68, 39, -44, -40, -20, -91, -79, -34, 126, 16, -109, -126, -48, -29, 48, 33, -31, -20, -53, 106, -121, 58, 12, 40, 21, 1, 16, -7, -98, -77, -51, -39, 14, 126, 76, -118, -59, -35, 49, 35, 21, 124, -21, 82, -11, -120, -29, 115, -31, 77, -44, -89, 30, -11, 69, -39, 20, -123, -51, 126, 86, -32, -9, 76, -4, -66, 114, 107, -116, -34, -25, 117, 94, -64, -81, -27, 60, 3, 123, -43, 62, 60, -23, 113, -66, -97, -45, -37, -16, 87, 96, -61, -11, -72, 107, 22, 48, 69, 101, 16, -52, -74, -54, 117, -122, 99, -120, -65, 71, 101, -118, -53, 36, 93, -109, -8, -32, -60, 90, -46, -102, -50, 98, 27, 89, 106, 19, 73, 94, 75, -66, -118, -101, -30, 67, 17, -45, -72, 84, -93, 27, 109, -59, 10, -23, -16, -86, 115, 108, 21, -51, -70, 83, -36, -93, -56, 126, -107, -60, 48, -56, 121, -113, 7, 86, 56, 43, 66, 48, 9, 58, -45, -20, 46, 84, 112, 75, 69, 49, 23, 8, -73, 63, 13, 16, -84, -115, 60, 57, 21, 50, -126, 99, -110, -9, 1, -88, -15, 122, -52, 105, 71, 38, 66, -10, -61, 69, -71, 120, -114, 45, 78, 71, -8, 47, 40, 54, 114, 10, 56, 11, -45, 116, 89, -59, -124, 112, 42, -93, -112, -69, -122, -109, -120, 81, 89, -74, -112, 40, -24, -80, -23, 16, 79, 92, -123, -77, -38, 0, 56, 98, 107, 108, -52, 49, 68, -88, -58, -92, 12, 81, -23, 94, 48, -84, -98, 90, 91, 104, 34, -7, 2, 67, 51, 118, 122, 92, -20, -65, 83, -88, -17, 82, -76, -69, -106, -13, -7, -3, 44, 57, 78, -57, -68, -92, -71, -97, 51, -94, -87, 111, 113, -27, 32, 13, 87, 11, -73, -102, 52, 32, 21, -29, -105, -55, 63, -126, -10, -62, 13, 40, 50, -123, -64, -22, 47, 60, -110, 120, -94, 95, 50, 49, -39, -8, -87, 118, 50, 96, 58, -55, -66, 33, -22, 68, -58, -7, 125, -6, 40, 49, 13, 109, 40, 37, -92, 97, -38, -84, 123, -22, -12, 20, -33, -64, 48, -47, -27, 66, 121, 88, -77, 112, 49, 4, 64, 85, 54, 11, 52, 54, -82, -38, 28, 43, 50, -106, -113, -62, 12, -80, 49, 80, 113, -1, 54, -75, -118, -109, 90, -14, 45, -116, -103, 87, 25, -71, -68, -68, 103, 68, 91, -80, 99, 70, -100, 38, 84, -74, -13, 104, -62, -114, 6, -49, 28, 42, -58, -96, 60, 120, 54, -2, -39, -38, -74, 27, -64, -119, 58, 60, 27, 48, 74, -69, -66, -15, -47, -90, 80, 3, 18, 30, 17, -98, -33, 10, -22, -80, 73, -1, 24, -34, -76, -117, -114, 35, -7, -80, 19, -123, 81, 83, -125, -120, 123, -51, -21, 50, 63, 56, -82, 73, -100, -36, 83, -47, 108, -46, 120, 66, 66, 109, -8, 13, 20, 73, 38, -56, -109, -42, 116, 88, -1, 63, 5, -60, -62, 113, 51, 4, -20, -38, 104, -14, -39, 109, -105, -70, 111, 22, -47, -116, -8, -57, 55, 65, -53, -66, -106, -100, -120, 80, -98, 24, -60, 103, 90, 32, -23, 42, -3, -49, -48, 75, 46, -36, 110, -37, 103, -94, -65, 64, 0, 5, -101, 2, 106, 14, 19, -111, 99, -84, 118, -37, -83, 121, 115, -70, 8, -28, 60, 24, 58, 83, 4, 48, 15, -61, -122, 34, 24, -94, 0, -62, -50, 29, 3, 105, -17, 97, -55, 106, 81, 0, -27, -34, -73, -100, 15, -52, 4, -74, -76, 27, 26, 87, 58, 50, 1, 54, 33, -85, -122, 63, -110, 77, 77, -80, -96, -87, 69, 25, 2, 94, 123, -119, 13, 30, 6, -50, 3, 32, -66, -35, 12, 51, -16, 64, -84, 9, -25, -77, -23, 82, -60, 81, 20, 48, 123, 93, -117, -29, 1, 99, 27, 3, 65, -87, -16, 42, 78, -93, -88, -45, -58, 95, -66, 19, 75, 127, -38, -98, -52, -126, 37, 97, -49, -63, 124, -48, -103, 11, -16, -102, -59, 35, 62, -39, 53, -76, -124, 21, 106, -18, -123, -89, 60, 92, -63, 66, 9, 77, -96, 40, -8, 78, -105, -77, -17, 10, -120, 9, 41, 44, -12, 116, -58, 117, -83, 33, -35, -52, 117, -32, 126, 33, -125, 91, -105, 92, -57, -13, -41, 98, 51, 45, -73, 73, 65, -1, -84, -73, 49, 16, 10, -94, -8, -49, 73, 86, 107, 22, -84, 22, -69, -44, 59, -120, -107, -28, -35, -24, 76, 38, -93, 34, 120, 41, -68, 56, 11, 69, 100, -42, -81, -86, 8, -121, -101, -88, 3, -19, 76, 87, 71, -125, 7, -42, -109, 52, -19, 63, 112, -117, 8, 116, 65, 85, -53, 23, -110, 62, 126, -122, -63, -46, -52, 102, -68, 15, -83, 3, 42, 45, -52, 25, 3, -94, -26, -118, -11, -60, -64, 87, 95, 94, -10, -70, -124, -99, -61, -95, -102, 10, -14, 76, -91, 16, -107, 76, 98, 109, 75, -59, -9, 8, -48, -118, -104, 8, 89, 110, 86, -6, -89, -35, -38, 50, 107, -94, -55, 73, -23, 14, -27, -117, 109, -89, -9, -113, 65, 19, -93, -45, 8, -107, 14, -63, -20, 19, -97, -27, 16, 95, -36, 35, -114, 119, 123, -34, 26, -28, 26, -108, -22, -39, 74, -114, 93, 71, -1, -33, -74, -6, 8, -96, -34, -89, -38, 81, -63, 59, -86, 53, -84, 82, 12, 120, 77, -102, 9, -15, -6, -121, -90, 98, -119, -113, 80, -97, -103, -112, 82, -58, -5, 16, 39, -56, -72, 117, -116, -47, 98, 30, -13, 92, 100, 99, -127, -76, 112, -76, 14, -122, -22, -102, 20, -88, 110, 113, 2, 22, -55, 68, 30, -101, 11, 64, 44, -46, 90, 80, 6, -38, -67, 59, 127, -51, 76, -25, 51, -42, 2, 97, 105, -115, -76, -37, -24, 54, 50, -73, 47, -103, -99, 30, -120, -18, 67, 121, 89, 90, 3, -43, 33, 100, 74, -68, 45, 119, -22, -53, -90, 121, -31, 26, 84, -17, -26, -34, 110, 8, -33, 86, -126, 66, 74, -117, 121, 45, -46, -106, 120, -116, -19, 28, -77, 25, 45, 37, 54, 126, 85, 102, -84, -42, -47, 52, -103, 99, 17, 104, -61, -32, -83, 83, 30, 69, -108, -75, 73, -7, -72, -40, -7, -79, 29, -100, 88, -81, -116, 109, -72, -21, 89, 47, 90, -39, -117, 67, -108, 117, 93, 6, -15, 100, -57, -125, 74, 3, 96, -126, -66, 49, 37, 49, -102, -111, -125, 6, -88, 49, -4, 90, 23, 35, -48, 28, 35, -65, 7, -108, 81, -80, 120, -86, 93, 48, -15, 89, 113, 96, 78, -75, 3, 29, 126, -93, 93, -109, 113, 113, -81, 126, 13, -1, -59, 36, 34, 44, -29, 122, 121, -5, -29, 18, 33, -113, 90, 95, -125, 73, 29, -78, -28, -102, 35, 14, 103, -93, -42, -95, 96, 11, -34, 47, 111, 67, -115, -53, -103, -15, -115, -30, -120, 72, 90, 4, -50, -81, -104, 81, -23, -116, -118, -114, -41, 90, -18, 108, 29, -59, 54, -46, -31, 112, 2, -95, 14, 124, -63, 93, -24, -121, -124, -54, -19, 97, 4, -71, 7, 53, -106, -15, 23, 97, -52, 18, 95, -115, 48, -4, -118, -107, -86, -62, 61, 59, -18, -108, -30, 0, 120, 92, 124, 47, 52, -55, -76, -81, -92, 4, -105, -126, 97, -27, 29, -87, -40, 20, -74, 42, -85, -35, -99, -52, -84, 10, 77, -26, 20, 38, 118, -13, -61, 50, 8, 92, -11, 40, -74, 42, 61, 78, 97, 20, 106, 89, 93, -30, -28, 21, -24, -107, 57, -20, -28, -68, 43, 48, -111, -114, 96, 41, -99, 25, -38, -3, -60, -29, -43, -46, 28, -123, -123, -92, -64, 29, 22, 39, 73, 43, 84, -50, -103, -61, 119, 88, 120, -87, -64, -46, -51, -46, 26, -116, 60, 18, -78, -76, -104, -102, -104, 29, 46, 22, -1, 30, -117, -100, -47, -30, 35, -122, 83, -83, 45, -3, 54, -53, 82, -78, -126, 64, 24, -42, -61, -73, 9, 93, 66, 94, -41, 72, -17, -8, 109, -67, 93, -62, 90, -113, -7, 28, -26, 49, 22, 75, -108, 38, 25, -68, 64, 24, -47, 96, -9, -72, 6, -30, -75, 46, -37, 59, -126, 33, -14, -29, 103, -27, 54, 109, 103, -33, -86, -27, 62, -1, -15, 3, 49, -6, -40, -20, -17, -18, -58, -118, 46, -66, -23, -53, -34, 79, 8, -63, 108, 102, -65, -41, 55, -48, -114, -98, -15, -92, 112, 7, 28, 123, -126, -43, -62, 57, -66, 90, -109, -85, 112, 116, -39, 33, -34, 0, -18, 93, -58, -51, 37, 77, 28, -102, 89, 35, -23, -36, -47, 35, 43, -100, 126, -34, 64, -36, -37, -31, 56, -4, -87, -2, 8, 18, 33, -57, 109, -71, 77, -85, -55, -43, -31, -70, -7, -21, -79, -65, 61, -68, -75, -100, 121, 123, -20, 55, -44, -55, -109, 102, -32, 5, -104, -14, 41, -34, 55, -97, 10, 30, -18, 31, -14, -71, 70, -32, -90, 69, 80, -45, -9, -73, -61, 13, 94, -88, 45, 110, 111, -73, 110, 57, 87, 119, 0, 3, -113, -70, 106, -53, -58, 55, -72, 120, -63, 115, -88, -2, 21, 12, 75, 27, -49, 32, -117, -43, 41, 10, -6, 15, 7, 37, 58, -121, -69, -22, -41, -26, -107, 103, 4, -126, -14, -119, -84, -105, -88, 77, -114, 40, 54, 13, 110, -90, 6, 47, 18, -41, -42, 121, -62, 26, -24, 47, -58, -91, 29, -113, -94, 119, -84, 34, 80, -69, -20, 89, -62, 69, -57, -63, 82, 104, 42, 127, -109, -48, 53, -70, -32, -17, -95, -52, -77, -73, -1, 36, -115, 48, 10, -97, -28, 93, 103, -96, 12, -43, -21, 11, -94, -15, 86, 5, 53, -19, 106, -9, 42, -116, -51, -8, -53, -90, -90, -107, 48, -15, 39, -120, -73, -40, -84, -37, 63, -83, -88, -59, -20, 29, -68, 43, -15, -49, -35, -71, 9, 34, -76, -5, -127, -26, -6, -60, -57, -92, 45, 37, -37, 4, -89, -102, 18, 112, 34, -66, 123, 16, -40, -115, 124, -8, 114, 11, -55, 5, -14, -99, 72, -15, 6, -115, 110, 65, 114, -55, -124, 13, -36, 101, -81, 50, 40, 122, -55, 91, -78, -31, 39, 1, 53, -103, -50, 103, 65, 89, 110, -54, -27, 46, -87, -23, -68, -116, 2, 126, 68, -3, -54, 84, -111, -98, 68, -90, -94, 82, 54, 70, 58, 92, 16, 109, -78, 58, 77, 42, 30, -87, -30, -78, -116, -122, 4, -101, -114, 116, 81, 27, 100, -63, -35, -76, 81, 53, -32, -116, -77, -69, 2, 76, 51, -90, 72, -118, 82, 6, -73, -24, -41, -109, 51, -20, 38, 111, 77, -2, -14, 43, 46, -101, 115, 79, -64, 12, 12, 84, -87, 63, 94, -52, 65, -19, 77, 72, 5, 29, 13, -119, 114, -112, 117, -38, 86, -79, 99, -114, 95, 51, 102, -39, 83, -121, 126, -29, -61, 60, 96, 5, -54, 72, 104, 40, -19, 88, 18, -60, 2, -91, 67, 93, 5, 75, -1, -100, -15, 99, -115, -64, 98, 102, 7, 19, -96, 109, -3, -36, -89, 19, -106, 3, 67, -15, -62, 6, -44, 97, -26, -109, 66, -81, -108, -44, -67, 52, -59, 61, 53, 112, -65, 64, 87, 118, -113, -101, -43, 92, -54, -3, -5, 32, -75, 113, 109, 76, -53, -109, 93, -7, 73, -17, -21, 8, -28, -123, 6, -22, -3, -78, -74, -1, -80, -84, 41, 9, -56, -102, -83, -56, -107, -12, 105, -32, 117, 69, 125, -87, -21, 110, -12, -91, 1, -14, 54, 24, 108, -77, -91, -26, 0, 84, 60, -117, -19, 49, -48, 109, 45, 83, -118, 21, 7, 4, 87, -111, 108, -48, 23, 20, -112, -115, 10, 17, 25, 25, 6, 86, 46, -98, 33, 6, 124, -50, -77, -11, -96, -103, -73, -50, 112, 74, 95, -39, -19, -92, -5, -49, -13, -99, -63, -21, -9, 126, -123, -44, -50, -62, -117, 64, 18, 121, 114, -92, -61, -74, 35, 65, 1, 92, -26, -2, -25, -33, -104, -66, 69, -69, -114, -123, 90, -26, -63, -83, -57, -51, -62, 61, 42, 34, -17, -75, -82, 40, 83, -20, -49, 26, -109, -32, 82, 77, 33, -117, -52, 100, 66, -110, 86, 123, -66, 45, 1, 33, -104, -55, -112, -38, 58, -75, -57, 34, -80, -19, -39, -106, -97, 9, 26, 16, -25, -42, 109, 57, 61, 24, 22, 127, 93, 29, -1, 37, 84, -107, 80, -99, -79, 49, -14, 31, -15, 71, 23, -123, -44, 82, 115, -4, -44, 31, -103, -29, -8, -42, 118, 3, -90, 28, 1, 109, -100, 61, 36, -34, -68, -63, -30, -16, 114, -25, 99, -65, 77, 55, 123, -73, 6, 105, 126, 125, -31, 109, 111, -26, -87, 28, -96, 24, 81, -16, 108, -20, 61, -25, -46, -73, -41, 32, -24, -72, -111, 42, -80, 22, -53, -51, -120, -56, 103, -74, 4, -42, 34, 47, -80, -79, -19, 71, 4, 81, 88, 107, 124, 25, 122, -106, 89, 3, -119, -11, 18, -79, -31, -127, -96, 109, -58, 26, -115, 4, 42, -35, 17, 102, 94, -28, 86, -126, -101, 118, -106, -52, 95, -44, 42, 73, 30, -8, 33, 35, -77, -96, 92, 32, 125, 38, -116, 105, 94, 27, -85, 35, -64, 127, 66, 62, -27, 73, 78, 68, -53, 66, 67, -99, 18, -16, 81, -118, -8, 125, 15, -2, 9, -25, 96, -104, -119, 59, -2, 17, 53, -125, 125, -52, -91, 37, -106, 122, -22, 106, 11, 60, -47, -97, 16, -43, -36, -2, 51, -31, 119, -1, 75, 108, 97, 1, 42, -108, -13, 114, -77, 66, 67, 32, -23, -69, -76, -40, 78, -83, 47, -119, -108, -51, -125, -45, 73, -81, -32, 111, 121, -29, -113, -83, 66, 55, 28, -36, -41, 27, 106, 38, -86, 18, -37, 103, -55, -53, 56, 20, 75, -45, 64, -39, -98, -45, 74, 43, -5, 2, -76, 18, 54, -120, -22, -80, 59, -19, -110, 17, 21, 103, -119, 32, -89, -60, 84, -98, -68, -34, 77, -73, -34, 84, 77, -109, 93, 46, -87, -2, 21, 1, -111, 37, 9, 102, -23, 108, 100, 4, -10, 62, 37, 72, 55, 6, 78, 39, 74, 61, 70, -64, 51, 77, 35, 110, 70, -23, -31, 93, -122, 46, 92, 25, 25, -58, -66, 93, -126, -101, -18, 67, 15, -120, 65, 104, 5, -75, -106, -18, -118, 102, 103, -38, -95, -95, -77, 74, 93, -65, 26, -119, -84, 37, -96, 109, 85, 4, -64, -94, -8, -102, -32, 101, 82, 75, 94, -93, -96, 4, 102, -122, -106, -35, 42, 47, -6, 28, -96, -16, -27, -117, 2, 5, -103, -90, -93, -106, 26, -34, 1, -19, -41, 19, 65, 0, 118, 20, -122, 43, 77, -105, 74, 27, 51, -76, 32, -67, 100, -126, 57, -93, 56, 6, 76, -92, 69, -103, -12, -115, -72, 94, 114, -112, -14, -84, 27, 49, -107, -83, -5, -120, 44, -57, -93, 126, 122, -115, -124, -18, -35, 100, 126, 51, 44, -27, 14, 91, -99, 18, 81, 92, -107, -48, 55, 86, 20, 27, -94, -94, -92, 35, 3, -33, -14, 49, 112, -124, 91, 45, -79, 1, 110, -126, 115, 108, -40, 27, -53, -11, 119, 107, 51, 104, -14, -63, 37, -46, -45, -77, 17, -101, 30, 50, -60, -117, 40, 10, -63, 126, 74, -62, -19, -35, -18, -25, -95, -15, -116, 96, -90, -105, -119, -81, 69, 51, -45, 70, -119, -113, 41, -52, 31, 62, -6, -11, 100, 32, 56, -50, 20, -26, -7, 2, 83, 35, -51, -72, -93, -5, 92, 54, -49, 121, -97, -37, -56, 55, 84, 68, -34, -47, 93, 87, 63, -4, 84, 91, 5, -106, 65, -35, -3, 105, -40, 19, -112, -76, -122, -120, 49, 82, -4, 66, 30, -123, -95, -85, -114, -126, -67, 105, -113, -99, 31, 60, -119, -78, -80, 113, -109, 43, -103, 16, -21, -15, 30, 11, -54, -56, -4, -85, -79, 123, -93, 14, 111, 58, -97, 112, 30, -103, -12, 28, 119, 50, -109, -20, -126, 45, 91, 45, 27, 72, -54, 96, 49, -101, -31, 76, -62, 17, -99, 125, -56, -108, -88, -29, 81, -92, -14, -108, 41, -33, 29, 82, 93, -80, 57, 10, -27, 8, 60, 62, 108, -96, -88, -71, 23, -99, -107, -82, 7, -125, 51, 1, 38, -117, 57, 111, -15, 64, -62, -59, 39, 46, 22, -33, 31, 22, -68, -92, 41, -4, -22, -79, 87, -105, 35, 106, -99, 76, 14, -42, 30, 9, -81, -65, 57, -101, -41, 103, -115, -3, 70, -1, 7, -122, -115, -94, 36, 49, 8, 44, 60, -71, 85, 89, 86, -66, 97, -46, 30, -80, -121, 51, 63, -104, -30, 47, 15, -29, 20, 120, 82, 120, -67, -85, 48, 68, -83, -10, 124, 80, 97, -75, 30, 100, -96, 79, -7, 31, -13, -15, 89, -19, -9, 75, 61, -61, -35, 122, 77, -41, -122, 123, -67, -97, -116, -10, -55, -50, -55, -4, 39, -14, 126, -10, 24, 40, 1, -42, -26, -83, -83, -40, 105, 126, -38, 104, -13, -17, 18, 11, -88, -38, -9, -81, -100, -37, -1, 54, 89, 88, 107, -7, 116, 114, -6, -122, 94, -30, -28, 124, 110, -32, 120, 42, -35, -100, 38, -106, 66, -52, 58, 125, 16, 47, 30, -5, -121, 25, -39, 62, 34, 56, 61, -70, 85, -18, -66, 88, 31, 89, 50, 71, 108, -26, 106, -80, 64, -110, -91, 122, 25, -98, 86, -127, -72, 86, -46, -109, 49, -50, -68, -13, -117, -19, 21, 19, 84, 76, -22, 55, -117, 79, -36, -37, -101, -92, -107, -85, -90, 100, 39, -18, 105, -120, -54, 120, 97, 113, -66, 85, 77, 86, 11, -24, -48, 103, -2, -81, -47, -46, -77, 29, -16, 46, -68, 16, 44, -97, -90, -76, -35, 44, 5, -120, 18, 107, 79, -121, -102, 80, -62, 9, 121, 123, -101, -120, -69, 87, 13, -35, -45, 95, -86, 21, 86, 118, 69, -23, 104, 80, -85, 66, -83, -120, -3, 62, -118, 30, -79, 38, -3, 39, -127, 121, -91, 19, -45, 98, -77, -39, 99, -55, 34, 96, 125, 44, 58, -53, 7, 82, 119, -69, 3, -75, 95, 90, -52, 44, -104, -37, 34, -64, -74, 72, -12, -25, -5, 46, 15, 57, 0, 10, -16, 35, 14, -67, -47, 112, 81, 49, 43, 32, 17, 29, -102, -15, 103, 98, 12, 38, 82, 100, 74, -92, 79, 17, -29, -22, -91, -72, -113, 69, -101, 104, 26, 3, 113, -46, -6, -32, 115, -117, 3, -17, 104, 83, 46, 81, -61, 68, 46, -53, -62, -122, 121, 54, 126, -25, 43, 75, 67, 118, 122, -81, 95, -90, -18, 98, 127, 12, -110, 68, -28, 20, 32, -69, 73, 2, -116, 42, -104, 17, 97, 86, -118, 92, -52, -79, 10, 123, 82, -94, 10, 31, 51, 119, 46, -95, 32, 26, 88, 79, 72, 104, -81, 4, 124, 74, -123, 96, -49, -42, 103, 45, -7, 103, -111, -94, 103, -102, 123, 120, 59, 32, -64, -105, 111, -15, 8, 118, 127, 23, -96, -119, 104, 86, 101, 91, -40, -82, -6, -41, -92, 107, -86, 68, 97, -81, -40, 61, -79, -102, -75, 69, -36, -61, -44, 41, -104, 81, -76, 2, 22, -19, -73, -78, -38, -114, -88, 99, -32, -31, 32, 22, 124, -8, -82, 10, -122, -121, -14, 29, 14, -90, 70, -32, 68, -44, -37, 70, 72, -34, 39, -93, -28, 123, 8, 50, -60, 19, -96, 52, -118, -71, 64, -78, -121, -113, -3, 22, 6, -92, 34, -118, 73, -64, 99, -96, 22, -48, -3, 70, -2, 91, -87, 54, -85, 61, 84, 47, 9, -77, 0, -97, 47, -14, -99, -34, 7, -78, 127, 44, -57, -112, -43, -120, 83, 63, -46, 119, 11, 34, -83, 110, 54, 122, -28, -125, -75, -27, -24, 31, -52, -42, -46, -31, -65, 25, 72, -81, -31, 115, 72, -44, -108, -79, 74, 2, -49, 91, 59, -14, -34, -26, 51, -86, -69, 37, 41, 6, 123, -108, -118, 44, -92, -83, 36, -14, 36, -121, 90, 52, -1, -33, 13, 87, 70, 59, -28, 35, -127, -124, -4, 33, -14, 80, -89, -121, -19, -57, 77, -75, -80, -126, 89, 72, -18, -18, -24, -94, 58, 50, -119, -123, 13, 78, 45, -69, -50, -91, -49, -12, -51, -69, -113, 55, 79, 26, 39, 5, -125, 38, -70, -22, -67, -103, -15, 60, -109, -48, 110, 82, 60, -48, 33, 85, -4, 119, 69, 91, 113, -11, 118, 69, 116, -24, 126, 22, 96, -66, -73, 22, -56, 111, -15, 11, -37, -10, 16, -26, 5, -33, -17, 13, 41, 104, -82, 99, 79, 18, 70, -17, -77, -45, -52, -7, 30, 21, 103, -79, 28, -48, -8, -78, 41, -84, 27, -71, 116, 35, -13, -122, -68, 36, -97, 2, -121, -22, 11, 42, -32, 124, -27, -109, 10, 45, 84, -55, 98, 45, 6, 91, 65, 101, 122, -48, 2, -58, 31, -50, 6, 102, -94, 2, -56, -91, 82, -78, 20, -85, 108, 50, -102, -48, 80, -70, 53, 51, -91, 6, -43, 123, -8, 120, -108, -77, -13, 32, -116, -66, 25, -121, 110, 9, 102, 17, -120, 37, 84, 23, -62, 1, -16, 40, -68, 86, -99, 22, 94, -85, 104, 17, 65, -118, -28, -9, -56, -127, -114, -3, 60, -96, 9, 72, 28, 54, 3, -11, 64, 113, 89, -18, 7, -37, 30, -83, -126, -7, -15, 9, -8, -85, -47, -15, -85, 97, 36, -49, 48, 81, -120, -11, 55, -67, 68, -88, 25, -119, -58, -12, 86, -45, -93, 94, -46, -70, -121, -125, -114, 42, -114, 33, -25, 78, 30, 48, 126, 57, -10, 6, -30, -56, -92, 86, 99, 77, 57, -57, -123, -14, -12, 115, 82, 78, -38, 19, -98, -115, 49, 28, 69, 98, -4, -81, -100, 34, 109, 87, 62, 5, -57, -100, 31, 43, 23, 85, -110, -126, 63, 27, -84, 112, -126, -29, 51, -11, -10, -93, 117, 6, -41, -97, -68, 41, -65, -68, -117, -71, 35, 55, -21, 7, 34, -80, -113, -86, -51, -13, -65, -105, -65, -70, 33, 75, -16, 120, 51, 17, 82, -97, -53, -61, 81, -122, 80, -15, -103, -107, -91, 89, -74, -119, 117, 99, 17, -38, -92, 115, 14, -84, -95, 2, 30, -121, -109, 76, 17, -98, 79, 38, 22, 86, 63, 97, 63, -100, 28, 11, -55, -86, -39, -61, -49, -89, 29, 73, 7, 62, -2, -112, -7, -12, -23, 49, -63, -43, 83, -107, 112, -69, -105, 82, 28, 2, 12, 3, -89, 124, -38, -10, -93, 42, -49, 83, -50, -31, -4, -9, -27, -114, 49, 126, 71, 88, 23, 55, 99, -61, 48, -1, 83, -24, 97, 109, -39, 74, -21, 11, -91, 102, -28, -61, -76, -36, 73, -126, -117, 120, 14, 80, -27, 1, -62, 26, -15, 118, 87, 36, 28, 24, -89, 72, -2, 103, 104, -24, 73, 90, -18, 21, -78, 87, -96, 13, 31, -107, 42, -59, -92, 20, -119, 13, 37, 10, -87, -13, -65, 11, -90, 52, 60, -51, 123, 108, -9, 42, 10, -119, -19, 11, -13, 28, -6, -97, 105, 75, 18, 19, 101, 52, -117, 50, -11, 74, -109, -102, -67, 42, 47, 72, 112, 41, -113, 52, 121, 15, 122, -9, -91, 67, 57, 54, 87, 84, 91, 111, -95, -85, -85, 59, -54, 90, 69, -82, 13, 91, 87, 78, 126, 75, 8, -118, -64, 55, -62, -103, 102, 18, 109, -73, 32, -107, -75, -21, -63, 97, -114, -42, 22, 41, 37, -13, -52, 50, -71, 81, -41, 24, -57, 94, 107, -71, -100, -94, -49, -107, 68, -27, 120, -60, -98, -115, 50, 38, -58, -32, -110, 2, 83, 74, 30, -112, 22, 107, 79, -98, 34, -89, -9, 8, -37, -29, 107, -3, 84, -120, 51, 48, 37, -111, -69, 16, 43, 109, -91, 20, -126, 90, -97, 101, -53, -65, -12, 26, 21, -30, -100, 107, 105, 112, 105, 89, 112, 116, 66, 19, 6, 27, 92, 64, 50, -11, 113, 96, -83, -101, -77, 53, 101, -74, -25, 60, -114, -89, 94, 81, -93, -94, -99, -61, 80, 38, -71, -125, 32, -25, 87, -6, -15, 44, 115, -89, -59, -5, 16, 20, 14, -38, 31, -107, 69, 41, 14, -112, 106, 5, -20, 58, 66, -28, -68, -30, -19, 83, -64, 89, -83, -68, -66, 76, 69, -4, 31, -103, 73, -36, -89, 62, -38, -34, -85, -88, -43, -117, 19, 76, -64, 118, -100, -28, 22, 101, -29, -76, -87, 115, -105, 92, 113, 94, -53, -24, -27, 66, 118, 72, 83, -71, -34, 66, 69, 116, 42, -115, 78, -39, -70, 45, -63, 48, 115, -108, 78, -48, -100, -100, -11, 78, -67, -124, -28, 118, 4, -72, -65, -59, -85, 32, 1, -104, 27, -82, 83, -9, -44, 124, -33, -64, -80, 77, 90, 64, 123, -61, 110, 59, 53, 124, -71, -14, -38, -45, -80, -29, -33, 26, 66, 75, 82, -86, -61, 70, -111, -40, -34, -90, -36, 125, 52, -61, 16, 58, 125, 49, -67, 21, 120, -2, -22, 107, -23, 33, -31, -43, -105, -98, 56, -52, 108, -21, 73, -26, -31, 83, -83, -92, 89, -56, -86, 74, 67, -7, -12, 15, 87, -88, 111, -80, -33, -63, 24, 8, 92, -75, -92, 126, 94, -73, 91, 0, 52, -8, -43, -89, 64, 0, 107, 68, 116, 106, -45, -93, -45, 118, -92, -47, -20, -9, -72, -70, 20, -64, -99, -115, -28, 30, -25, 80, -107, 6, 40, 67, -74, -5, -54, -17, 27, 71, 115, -106, -21, 35, -48, -107, -50, 64, -79, 32, 112, -7, 104, 105, 3, 122, -109, 33, 76, -45, 4, -84, 53, -11, -69, -120, -76, 105, -15, -105, 75, 46, -93, -45, -59, -11, -56, 62, -71, -8, 40, 126, -1, -63, 121, 35, 102, 73, 126, 37, 110, 39, 41, -86, 47, 60, 109, -39, -37, -66, 81, 29, -66, 59, 42, -77, -31, -13, 120, -92, 21, 47, -79, -48, -123, 92, 21, -31, 114, -110, 79, -55, 95, -78, -81, 82, 12, -45, 100, -113, 4, -24, -26, -20, -105, 48, -124, 103, -98, -87, 117, 60, -67, -46, -109, 79, 42, 18, -83, -126, -69, -94, 55, -2, -46, 73, 30, -20, 118, 34, -90, -40, 14, 99, 71, 63, -37, -112, -40, -48, 96, 19, -20, -126, 24, -25, 26, -119, 74, 66, -34, 88, -52, 60, 89, 10, 20, 11, 35, 94, -5, 24, 68, -91, 104, -94, -47, -102, -86, -21, 12, -38, -106, 10, -78, -113, 73, -15, 4, 57, 30, 64, 93, 61, -116, -51, -13, -86, -36, -112, -40, 118, -95, -25, -58, 79, 118, -112, -45, -85, 120, 7, -66, 1, -108, -47, -127, -49, -61, -13, 91, -40, -72, 121, 4, -17, -75, -77, -61, -110, 50, 15, -14, 107, -31, 120, 96, 29, -9, -59, -11, -15, 55, 114, 56, 55, 14, 107, 121, -73, 62, 69, -6, 49, 71, 44, -45, 61, 66, 125, 41, -65, -5, -19, 99, 118, 101, 107, 49, 34, -37, 72, 116, 109, -3, 32, 53, 31, 86, -44, 93, -95, 124, -45, -90, -54, 116, 73, 100, 113, -26, -113, 107, -29, 104, -46, 88, 108, 86, -119, -120, -65, -1, -77, 125, -121, -62, 97, -119, -109, 62, -28, 35, 101, 25, -11, 54, 31, -29, -79, 25, -73, 31, 41, 100, 77, -36, -54, 118, 8, 38, -61, 87, -109, 30, -32, 75, -124, 74, 12, -118, 64, -105, -123, 98, -45, -119, -67, 97, 17, -60, 92, -120, 19, 95, 26, 92, 75, -31, 43, 90, 112, 103, 104, -74, -106, -77, -53, 124, -103, 56, 50, 50, 15, 4, 16, 48, -115, 113, -108, 53, -24, 37, -102, 17, 90, 118, -54, -16, 16, 61, 59, 119, -75, 37, 8, 33, -18, 17, 45, 4, 26, -66, 34, 119, 119, 96, -72, 115, 88, -36, -112, 119, 16, 6, 73, 30, -61, 61, 45, -8, 0, -11, 11, 111, 79, 34, 49, -62, 64, 104, -118, 29, 116, 70, 97, -45, 69, -55, 125, 75, -11, 94, 68, 43, 52, -119, -44, 56, 28, 16, 83, 104, -115, 124, -80, -54, -19, 2, -45, -91, 7, -116, 111, 10, -66, 36, 57, -114, -117, -113, -106, -98, -46, 66, -115, 6, 18, 0, 68, -25, 28, 45, 91, -80, 36, 16, -28, 3, -125, -63, 112, 101, -28, -97, 91, 73, -3, 7, -1, -117, 119, -81, 106, 71, 105, -28, 18, 22, -72, -91, -68, -16, 126, -111, -93, 3, -7, 65, -66, 83, -83, 117, 109, -34, 23, 77, 54, -122, 6, 69, -88, 41, 94, -5, -9, 37, 7, 106, -102, 79, -82, 99, -76, -30, -116, -90, -4, 119, 102, -70, -14, -38, -119, -43, -48, -54, 118, -117, 72, -30, -121, -17, 79, 78, -113, 50, 20, -75, -20, 25, -36, 62, 95, -15, -26, 121, 81, 76, 105, 105, 111, -91, 74, -29, 35, -94, 27, 26, -74, -93, 27, -59, 73, -102, -62, 124, 98, -40, 16, -111, -46, 74, 113, -125, 122, -77, -87, 72, 58, 58, -65, 78, -3, -74, 37, 27, -94, -14, -80, -91, 16, -55, 54, 11, -122, -105, 80, -19, -53, -12, 81, 98, 59, 5, 31, 39, 42, -106, -93, -90, 108, 52, -117, -39, 101, -118, 46, -68, -80, -25, -29, -102, 72, 99, 55, -84, -58, -45, -105, -80, 110, -58, -51, -3, -74, -109, -90, -45, 56, 3, 93, -96, -99, 65, -87, 100, 44, -65, -39, -68, 111, 61, 119, 123, 106, -27, -15, -67, -4, 122, 117, 120, -64, -58, 49, 83, 118, 61, 90, -46, 33, -28, -18, 92, 20, -27, -49, -68, -37, 